{"arrA":[[9],[0.9383353799239093,0.999999961962225,0.00032132417517570825,0.9999999999919502,0.9999999999999993,1],[0.7744248171333706,0.419152911609948,0.11675253299606338,0.0014169500701828237,0.0022910158783441357,0.000037511889252283883,0.000019167499022368103,1.0649130817088302e-7,0.0000010007541420530765,6.734094598860844e-7]],"arrWeights":[[],[[1.7705236788393786,3.032589881518668,-2.099368421240051,3.760834664192282,4.5505731958777185,6.583465812061751]],[[11.13530011080622,1.4347457709610605,-3.1307893346811024,-9.015051055272455,-5.706964454313731,-3.382328968393459,-3.1002213876341265,-1.9466687969332601,-1.0080544588858673,-0.5088524747221632],[-0.2909801810033288,0.6622519738173065,1.4493167477403297,2.783647714896998,6.620404901665133,6.839336793662571,-5.717164996599038,-11.728438209665036,-3.748998238123901,-1.7459918716556668],[-6.49201401771797,-5.178406747688482,-7.974444022270168,-5.604142751513021,0.9924404395794922,9.805168778135737,5.791048083598323,3.6398273019243876,2.3902613746240764,3.031673532821796],[-0.20763627033905752,-0.14466508847819226,0.05401557855777118,0.6115789785210646,0.3440307306986596,0.9356594344346596,8.286880521902743,-1.1971469379998738,-5.9458840848257815,-2.9229646558744466],[-0.899315305378622,0.4874650461593544,0.47646959938828165,0.8686362969465815,0.18266197356902422,-0.29198743843284586,3.091664386944627,5.694609537935341,-4.136634556139785,-3.6021748205359243],[-0.5485599430188672,-0.23546063331882017,0.5695017428128951,0.01415753619508153,-0.2167493687314784,-0.9786698305479458,-1.1276112782384855,1.2149225259973402,6.861131707376645,-5.816066949039318]]],"arrBiases":[[],[[-13.212316024464101,-10.20862288213188,10.85157711405279,-8.302138260407181,-6.000302713119318,-2.68909634464508]],[[-0.8747626244520682,-0.5280014190406981,-0.1413635796466855,-0.06868205163869265,-1.3704576960188999,-2.0626776800964213,-2.1098071918525982,-0.8429711323442449,-1.5430080609760948,-0.08313604811439897],[-1.5675614690622002,-0.06220943764912323,-0.4822619149720415,-0.6505580036338243,-0.846360049460384,-2.3786042774980714,-1.7652162656817014,-1.5533220037645747,-0.6035798831273042,0.09493053943861969],[-0.9909797727073072,-0.4175723769265197,-0.1816172807834594,0.030066849277720575,-1.0872217099916828,-1.941341317432923,-2.1555426973942855,-1.2047896468965706,-0.686957164426414,0.0032384304719999747],[-0.8861443681725335,-0.25478221476512347,-0.01959885003117852,-0.7164083179554885,-1.5659684621888323,-2.4333083068912154,-2.666217817251273,-1.357221119121901,-1.1474694178440603,0.16523645473925067],[-1.467618079236404,-0.9332453213974141,-0.024735660690660598,-0.6876535342097105,-1.3295302308881718,-1.9050647380927352,-1.9507648452147734,-1.701445545195081,-1.1936940220296623,0.059295829975657396],[-1.4795349428722862,-0.2446410117766146,-0.782982371988844,-0.28167385926843774,-1.4525483729962083,-2.803549195045552,-1.8413087289870156,-1.5539416364830225,-0.7245370070158416,0.11322154538981745]]],"arrE":[[],[0.0033979478854678628,-4.0993956551425985e-10,0.000010410121725591687,2.1321878762950473e-15,-7.188740449880575e-18,0],[0.005278520867547063,-0.010821971281765447,-0.001336732723970357,-2.683552232965589e-7,-6.296687864526437e-7,-1.5701072958877854e-10,-4.062201459458434e-11,-1.2078986474323108e-15,-1.0347705851710647e-13,-4.610208065202887e-14]],"arrDeltaWeights":[[],[[0.030581530969210766,-3.6894560896283386e-9,0.00009369109553032518,1.9189690886655427e-14,-6.469866404892517e-17,0]],[[0.004867476037862044,-0.0099792512368911,-0.00123263972355486,-2.474580761936284e-7,-5.806357134422352e-7,-1.4478411341693964e-10,-3.7458728990628285e-11,-1.1138381130005688e-15,-9.541917431777086e-14,-4.251205564971334e-14],[0.0052785206667638794,-0.010821970870121751,-0.0013367326731240198,-2.683552130889236e-7,-6.296687625014447e-7,-1.570107236164399e-10,-4.0622013049413337e-11,-1.2078986014865352e-15,-1.0347705458106951e-13,-4.610207889840835e-14],[0.0000016948142123605918,-0.0000034746913376544915,-4.291947830766532e-7,-8.616282057355212e-11,-2.0217247125437685e-10,-5.0412610403078034e-14,-1.3042814340831456e-14,-3.878290616118633e-19,-3.3224153854592496e-17,-1.4802340176171738e-17],[0.005278520867504572,-0.010821971281678333,-0.0013367327239595965,-2.6835522329439873e-7,-6.29668786447575e-7,-1.5701072958751463e-10,-4.062201459425734e-11,-1.2078986474225875e-15,-1.034770585162735e-13,-4.610208065165776e-14],[0.0052785208675470595,-0.01082197128176544,-0.001336732723970356,-2.6835522329655877e-7,-6.296687864526432e-7,-1.5701072958877843e-10,-4.062201459458432e-11,-1.20789864743231e-15,-1.034770585171064e-13,-4.610208065202884e-14],[0.005278520867547063,-0.010821971281765447,-0.001336732723970357,-2.683552232965589e-7,-6.296687864526437e-7,-1.5701072958877854e-10,-4.062201459458434e-11,-1.2078986474323108e-15,-1.0347705851710647e-13,-4.610208065202887e-14]]],"arrDeltaBiases":[[],[[0.0033979478854678628,-4.0993956551425985e-10,0.000010410121725591687,2.1321878762950473e-15,-7.188740449880575e-18,0]],[[0.005278520867547063,-0.010821971281765447,-0.001336732723970357,-2.683552232965589e-7,-6.296687864526437e-7,-1.5701072958877854e-10,-4.062201459458434e-11,-1.2078986474323108e-15,-1.0347705851710647e-13,-4.610208065202887e-14],[0.005278520867547063,-0.010821971281765447,-0.001336732723970357,-2.683552232965589e-7,-6.296687864526437e-7,-1.5701072958877854e-10,-4.062201459458434e-11,-1.2078986474323108e-15,-1.0347705851710647e-13,-4.610208065202887e-14],[0.005278520867547063,-0.010821971281765447,-0.001336732723970357,-2.683552232965589e-7,-6.296687864526437e-7,-1.5701072958877854e-10,-4.062201459458434e-11,-1.2078986474323108e-15,-1.0347705851710647e-13,-4.610208065202887e-14],[0.005278520867547063,-0.010821971281765447,-0.001336732723970357,-2.683552232965589e-7,-6.296687864526437e-7,-1.5701072958877854e-10,-4.062201459458434e-11,-1.2078986474323108e-15,-1.0347705851710647e-13,-4.610208065202887e-14],[0.005278520867547063,-0.010821971281765447,-0.001336732723970357,-2.683552232965589e-7,-6.296687864526437e-7,-1.5701072958877854e-10,-4.062201459458434e-11,-1.2078986474323108e-15,-1.0347705851710647e-13,-4.610208065202887e-14],[0.005278520867547063,-0.010821971281765447,-0.001336732723970357,-2.683552232965589e-7,-6.296687864526437e-7,-1.5701072958877854e-10,-4.062201459458434e-11,-1.2078986474323108e-15,-1.0347705851710647e-13,-4.610208065202887e-14]]]}