{"sizes":[400,30,10],"layers":[{"0":{},"1":{},"2":{},"3":{},"4":{},"5":{},"6":{},"7":{},"8":{},"9":{},"10":{},"11":{},"12":{},"13":{},"14":{},"15":{},"16":{},"17":{},"18":{},"19":{},"20":{},"21":{},"22":{},"23":{},"24":{},"25":{},"26":{},"27":{},"28":{},"29":{},"30":{},"31":{},"32":{},"33":{},"34":{},"35":{},"36":{},"37":{},"38":{},"39":{},"40":{},"41":{},"42":{},"43":{},"44":{},"45":{},"46":{},"47":{},"48":{},"49":{},"50":{},"51":{},"52":{},"53":{},"54":{},"55":{},"56":{},"57":{},"58":{},"59":{},"60":{},"61":{},"62":{},"63":{},"64":{},"65":{},"66":{},"67":{},"68":{},"69":{},"70":{},"71":{},"72":{},"73":{},"74":{},"75":{},"76":{},"77":{},"78":{},"79":{},"80":{},"81":{},"82":{},"83":{},"84":{},"85":{},"86":{},"87":{},"88":{},"89":{},"90":{},"91":{},"92":{},"93":{},"94":{},"95":{},"96":{},"97":{},"98":{},"99":{},"100":{},"101":{},"102":{},"103":{},"104":{},"105":{},"106":{},"107":{},"108":{},"109":{},"110":{},"111":{},"112":{},"113":{},"114":{},"115":{},"116":{},"117":{},"118":{},"119":{},"120":{},"121":{},"122":{},"123":{},"124":{},"125":{},"126":{},"127":{},"128":{},"129":{},"130":{},"131":{},"132":{},"133":{},"134":{},"135":{},"136":{},"137":{},"138":{},"139":{},"140":{},"141":{},"142":{},"143":{},"144":{},"145":{},"146":{},"147":{},"148":{},"149":{},"150":{},"151":{},"152":{},"153":{},"154":{},"155":{},"156":{},"157":{},"158":{},"159":{},"160":{},"161":{},"162":{},"163":{},"164":{},"165":{},"166":{},"167":{},"168":{},"169":{},"170":{},"171":{},"172":{},"173":{},"174":{},"175":{},"176":{},"177":{},"178":{},"179":{},"180":{},"181":{},"182":{},"183":{},"184":{},"185":{},"186":{},"187":{},"188":{},"189":{},"190":{},"191":{},"192":{},"193":{},"194":{},"195":{},"196":{},"197":{},"198":{},"199":{},"200":{},"201":{},"202":{},"203":{},"204":{},"205":{},"206":{},"207":{},"208":{},"209":{},"210":{},"211":{},"212":{},"213":{},"214":{},"215":{},"216":{},"217":{},"218":{},"219":{},"220":{},"221":{},"222":{},"223":{},"224":{},"225":{},"226":{},"227":{},"228":{},"229":{},"230":{},"231":{},"232":{},"233":{},"234":{},"235":{},"236":{},"237":{},"238":{},"239":{},"240":{},"241":{},"242":{},"243":{},"244":{},"245":{},"246":{},"247":{},"248":{},"249":{},"250":{},"251":{},"252":{},"253":{},"254":{},"255":{},"256":{},"257":{},"258":{},"259":{},"260":{},"261":{},"262":{},"263":{},"264":{},"265":{},"266":{},"267":{},"268":{},"269":{},"270":{},"271":{},"272":{},"273":{},"274":{},"275":{},"276":{},"277":{},"278":{},"279":{},"280":{},"281":{},"282":{},"283":{},"284":{},"285":{},"286":{},"287":{},"288":{},"289":{},"290":{},"291":{},"292":{},"293":{},"294":{},"295":{},"296":{},"297":{},"298":{},"299":{},"300":{},"301":{},"302":{},"303":{},"304":{},"305":{},"306":{},"307":{},"308":{},"309":{},"310":{},"311":{},"312":{},"313":{},"314":{},"315":{},"316":{},"317":{},"318":{},"319":{},"320":{},"321":{},"322":{},"323":{},"324":{},"325":{},"326":{},"327":{},"328":{},"329":{},"330":{},"331":{},"332":{},"333":{},"334":{},"335":{},"336":{},"337":{},"338":{},"339":{},"340":{},"341":{},"342":{},"343":{},"344":{},"345":{},"346":{},"347":{},"348":{},"349":{},"350":{},"351":{},"352":{},"353":{},"354":{},"355":{},"356":{},"357":{},"358":{},"359":{},"360":{},"361":{},"362":{},"363":{},"364":{},"365":{},"366":{},"367":{},"368":{},"369":{},"370":{},"371":{},"372":{},"373":{},"374":{},"375":{},"376":{},"377":{},"378":{},"379":{},"380":{},"381":{},"382":{},"383":{},"384":{},"385":{},"386":{},"387":{},"388":{},"389":{},"390":{},"391":{},"392":{},"393":{},"394":{},"395":{},"396":{},"397":{},"398":{},"399":{}},{"0":{"bias":-1.0544376373291016,"weights":{"0":-0.0899706706404686,"1":-0.2453102171421051,"2":0.23880921304225922,"3":0.2582584321498871,"4":0.3686427175998688,"5":0.08675118535757065,"6":0.2799994945526123,"7":0.34404465556144714,"8":-0.0897001326084137,"9":-0.05779121071100235,"10":0.24470660090446472,"11":-0.20185351371765137,"12":0.07167874276638031,"13":-0.19874800741672516,"14":0.08198957145214081,"15":0.24068881571292877,"16":0.07661961764097214,"17":0.10432823747396469,"18":0.18777340650558472,"19":0.006118843797594309,"20":-0.0005281201447360218,"21":-0.09762237966060638,"22":-0.11413508653640747,"23":-0.11445619910955429,"24":0.13622143864631653,"25":-0.08768005669116974,"26":0.23126621544361115,"27":0.4357520341873169,"28":0.3437963128089905,"29":0.3045389950275421,"30":0.17686142027378082,"31":0.16136153042316437,"32":-0.11211103945970535,"33":-0.1276741921901703,"34":-0.05849405378103256,"35":-0.22244854271411896,"36":-0.24628058075904846,"37":-0.21396759152412415,"38":0.2684556841850281,"39":0.09627576917409897,"40":-0.08670241385698318,"41":-0.2921345829963684,"42":-0.4256336987018585,"43":-0.2435464859008789,"44":-0.6826871037483215,"45":-0.5081082582473755,"46":-0.5209527611732483,"47":-0.6986802816390991,"48":-0.48713240027427673,"49":-0.5098636746406555,"50":-0.5786229372024536,"51":-0.8437201380729675,"52":-0.37468189001083374,"53":0.006356367375701666,"54":0.18255537748336792,"55":0.200370654463768,"56":0.20377801358699799,"57":-0.08689801394939423,"58":0.21533678472042084,"59":0.0239715538918972,"60":-0.05789733678102493,"61":-0.16801144182682037,"62":0.2038135677576065,"63":0.30778226256370544,"64":0.23995986580848694,"65":0.36250579357147217,"66":-0.8711928129196167,"67":-0.5364205837249756,"68":-0.08637490123510361,"69":-0.1823079138994217,"70":-0.0889587551355362,"71":-0.8023703694343567,"72":-0.4694967567920685,"73":-0.019847629591822624,"74":-0.2751912772655487,"75":-0.0788528099656105,"76":0.030636943876743317,"77":0.125457301735878,"78":0.2451416552066803,"79":-0.11950300633907318,"80":0.052452076226472855,"81":0.06801587343215942,"82":0.4255690574645996,"83":-0.028627097606658936,"84":-0.08490360528230667,"85":-0.12888427078723907,"86":-1.11259126663208,"87":-0.480910062789917,"88":0.07664667069911957,"89":-0.12218713015317917,"90":-0.1567174643278122,"91":-0.7558973431587219,"92":-0.8837889432907104,"93":-0.20973652601242065,"94":-0.28461870551109314,"95":0.08951728045940399,"96":0.14291153848171234,"97":0.35716092586517334,"98":0.031282052397727966,"99":0.21570511162281036,"100":-0.005554328206926584,"101":0.08394823223352432,"102":0.03215310350060463,"103":0.06459631770849228,"104":-0.08050086349248886,"105":-0.26315513253211975,"106":-0.49148792028427124,"107":-0.5733528733253479,"108":0.3572418689727783,"109":0.20346315205097198,"110":-0.162785142660141,"111":-0.9285160899162292,"112":-0.9395442008972168,"113":0.015128632076084614,"114":0.12470468133687973,"115":0.35119274258613586,"116":0.4520602524280548,"117":0.5199095010757446,"118":0.3886544406414032,"119":0.273270845413208,"120":0.04420929029583931,"121":-0.06743770092725754,"122":-0.42973828315734863,"123":0.47219863533973694,"124":0.9848910570144653,"125":0.9476727843284607,"126":-0.5986419320106506,"127":-0.37579697370529175,"128":0.9540068507194519,"129":0.8600205779075623,"130":0.41852205991744995,"131":-0.3586357533931732,"132":0.023602604866027832,"133":0.5485728979110718,"134":0.19392502307891846,"135":0.13453955948352814,"136":0.7043353915214539,"137":0.7318474650382996,"138":0.45826974511146545,"139":0.17070113122463226,"140":0.10395731776952744,"141":-0.2718605101108551,"142":-0.6732001900672913,"143":-0.10878472030162811,"144":0.8320832848548889,"145":0.13114812970161438,"146":-0.7545961141586304,"147":-0.09284745156764984,"148":0.4033324122428894,"149":0.49101942777633667,"150":0.3872078061103821,"151":-0.5896890759468079,"152":-0.1095624640583992,"153":0.23138855397701263,"154":0.3096621036529541,"155":0.07599233835935593,"156":0.2797395586967468,"157":0.595491349697113,"158":0.08829334378242493,"159":-0.00975507777184248,"160":-0.06272702664136887,"161":-0.03704242780804634,"162":-0.14403779804706573,"163":-0.22341486811637878,"164":0.3860219419002533,"165":0.43264102935791016,"166":-0.8073215484619141,"167":-0.13523699343204498,"168":0.26905882358551025,"169":0.34903907775878906,"170":0.23154233396053314,"171":-0.5162245631217957,"172":-0.12188654392957687,"173":0.6717211604118347,"174":0.6458874344825745,"175":0.27067825198173523,"176":0.10901360958814621,"177":0.6865289807319641,"178":0.26545679569244385,"179":0.0034958147443830967,"180":-0.1860956996679306,"181":0.0957934707403183,"182":-0.025521712377667427,"183":-0.3918030261993408,"184":-0.14345890283584595,"185":-0.6784181594848633,"186":-0.9331948161125183,"187":-0.8032419681549072,"188":-0.3563780188560486,"189":-0.4560774564743042,"190":-0.033191971480846405,"191":-0.7631919980049133,"192":-0.47534334659576416,"193":0.3350987136363983,"194":0.04189012572169304,"195":0.3061729371547699,"196":0.06558257341384888,"197":0.10784929245710373,"198":0.004172455985099077,"199":-0.19462721049785614,"200":0.029560040682554245,"201":-0.2956264615058899,"202":-0.1648639291524887,"203":-0.13828754425048828,"204":0.11549593508243561,"205":-0.05930308252573013,"206":-0.32097890973091125,"207":-0.22602076828479767,"208":0.009609059430658817,"209":0.4309210181236267,"210":0.42164090275764465,"211":-0.39814305305480957,"212":0.04856634885072708,"213":0.3378381133079529,"214":-0.00111006002407521,"215":0.10125033557415009,"216":-0.06451139599084854,"217":-0.25802624225616455,"218":-0.08225271105766296,"219":-0.03574087843298912,"220":-0.25962427258491516,"221":0.008336290717124939,"222":-0.03925016522407532,"223":0.07140284031629562,"224":0.39158520102500916,"225":0.0489453487098217,"226":-0.33992651104927063,"227":-0.5309185981750488,"228":0.030417369678616524,"229":0.3240765929222107,"230":0.11257749795913696,"231":-0.2096131145954132,"232":0.23490887880325317,"233":0.6650112271308899,"234":0.9982946515083313,"235":0.6176765561103821,"236":0.31011077761650085,"237":-0.39131155610084534,"238":-0.4252277910709381,"239":-0.09857481718063354,"240":-0.09773264080286026,"241":-0.6134316325187683,"242":-0.044916704297065735,"243":-0.31451964378356934,"244":0.4917506277561188,"245":-0.04551445692777634,"246":-0.11045322567224503,"247":-0.24932149052619934,"248":-0.060864802449941635,"249":-0.061638180166482925,"250":-0.34305810928344727,"251":-0.7386064529418945,"252":-0.4078728258609772,"253":0.23168210685253143,"254":0.7986039519309998,"255":0.476532906293869,"256":0.4748026728630066,"257":-0.7502487301826477,"258":0.07261340320110321,"259":-0.08069439232349396,"260":-0.3358525037765503,"261":-0.6665151715278625,"262":-0.42768457531929016,"263":0.2043144702911377,"264":0.5987025499343872,"265":0.6383669376373291,"266":-0.1649058759212494,"267":-0.07426871359348297,"268":-0.05415373668074608,"269":0.17127351462841034,"270":0.08511851727962494,"271":-0.06629666686058044,"272":-0.24810490012168884,"273":0.19557468593120575,"274":0.24769079685211182,"275":0.009127841331064701,"276":-0.4687441885471344,"277":-0.6962118148803711,"278":0.35407036542892456,"279":-0.09512778371572495,"280":-0.2751760184764862,"281":-0.45461198687553406,"282":-0.6665537357330322,"283":0.4429541826248169,"284":0.47734153270721436,"285":0.36460253596305847,"286":-0.44498252868652344,"287":-0.9263584613800049,"288":-0.6465250253677368,"289":-0.24207982420921326,"290":0.027062032371759415,"291":0.031086333096027374,"292":0.26373720169067383,"293":0.04985460266470909,"294":0.10713658481836319,"295":-0.07318378239870071,"296":-0.7486193180084229,"297":-0.3320613503456116,"298":-0.5146505236625671,"299":-0.2827044725418091,"300":-0.16393893957138062,"301":-0.4225642681121826,"302":-0.27893656492233276,"303":0.10030855238437653,"304":0.33641189336776733,"305":-0.11517953127622604,"306":-0.6890498399734497,"307":-0.7998164892196655,"308":-0.007552292197942734,"309":0.5210337042808533,"310":0.6924940943717957,"311":0.005517099052667618,"312":0.061858709901571274,"313":0.3178819715976715,"314":-0.07711812108755112,"315":-0.24665504693984985,"316":-0.24630557000637054,"317":-0.3218803107738495,"318":-0.19815726578235626,"319":-0.2925528883934021,"320":-0.3149166703224182,"321":-0.5805298089981079,"322":0.15818867087364197,"323":0.4443860352039337,"324":0.047943565994501114,"325":-0.4242612421512604,"326":-0.31791239976882935,"327":-0.3816113770008087,"328":0.1347876340150833,"329":0.6117706298828125,"330":0.39164698123931885,"331":-0.013945539481937885,"332":0.297497421503067,"333":-0.07968153804540634,"334":-0.1596371829509735,"335":-0.3373313546180725,"336":-0.3284290134906769,"337":-0.26028838753700256,"338":-0.4510962665081024,"339":-0.3920043408870697,"340":-0.12640686333179474,"341":-0.22614124417304993,"342":0.31219539046287537,"343":0.14656589925289154,"344":-0.0682348683476448,"345":-0.18483750522136688,"346":-0.5205276608467102,"347":-0.5714824795722961,"348":0.006115775555372238,"349":0.1708563268184662,"350":0.09293978661298752,"351":0.38932177424430847,"352":0.029765592887997627,"353":0.05567581579089165,"354":-0.010023373179137707,"355":-0.006174192298203707,"356":-0.19538377225399017,"357":-0.22003385424613953,"358":-0.3353896141052246,"359":-0.0007910261629149318,"360":-0.01491541601717472,"361":-0.1274699866771698,"362":-0.39049670100212097,"363":-0.10634864121675491,"364":0.019825542345643044,"365":-0.05578477680683136,"366":-0.5107056498527527,"367":-0.7112728953361511,"368":-0.6133483052253723,"369":-0.4164307713508606,"370":-0.6762343049049377,"371":-0.37447693943977356,"372":-0.08564945310354233,"373":-0.055575400590896606,"374":-0.043107450008392334,"375":-0.008157615549862385,"376":0.03894957900047302,"377":-0.15670058131217957,"378":0.036349277943372726,"379":0.07079356908798218,"380":0.13726170361042023,"381":-0.07029818743467331,"382":-0.07973539084196091,"383":-0.029017070308327675,"384":0.13686111569404602,"385":-0.1770159900188446,"386":-0.026676060631871223,"387":-0.27613675594329834,"388":-0.6137091517448425,"389":-0.7628187537193298,"390":-0.6361414790153503,"391":-0.3468640446662903,"392":-0.30893734097480774,"393":-0.23576189577579498,"394":-0.5035712718963623,"395":-0.021271752193570137,"396":-0.38521909713745117,"397":-0.11083290725946426,"398":0.21434606611728668,"399":0.07616844773292542}},"1":{"bias":1.4346815347671509,"weights":{"0":-0.18878242373466492,"1":0.02791011519730091,"2":-0.18420737981796265,"3":-0.17569471895694733,"4":0.0394001230597496,"5":0.2031242847442627,"6":-0.11323399841785431,"7":-0.4763246178627014,"8":-0.6345235109329224,"9":-0.5346153974533081,"10":0.0691351369023323,"11":0.6091721057891846,"12":0.9954584836959839,"13":-0.11296647787094116,"14":-0.02703813835978508,"15":-0.3940725326538086,"16":0.08785440772771835,"17":-0.27052390575408936,"18":-0.07713372260332108,"19":-0.06466531753540039,"20":0.10550155490636826,"21":-0.2362026572227478,"22":0.029245303943753242,"23":0.05725008249282837,"24":0.07990635186433792,"25":-0.5034305453300476,"26":-0.858817458152771,"27":-0.768519937992096,"28":-0.4497218728065491,"29":-0.3490283489227295,"30":-0.11643899232149124,"31":-0.13002453744411469,"32":0.0663609653711319,"33":0.22107543051242828,"34":0.04734310135245323,"35":-0.12809370458126068,"36":0.15791285037994385,"37":-0.17682483792304993,"38":-0.019644320011138916,"39":-0.07544221729040146,"40":-0.0579332560300827,"41":0.011740599758923054,"42":0.3420819640159607,"43":0.06684035807847977,"44":-0.1643255352973938,"45":-0.01947544328868389,"46":-0.47504618763923645,"47":-0.5022616982460022,"48":-0.04654519259929657,"49":-0.2801121175289154,"50":-0.09497413039207458,"51":-0.26692408323287964,"52":-0.6537923216819763,"53":-0.41366228461265564,"54":-0.12439899891614914,"55":-0.08541256189346313,"56":0.16770905256271362,"57":0.060307953506708145,"58":0.25640514492988586,"59":0.07240132242441177,"60":-0.20388762652873993,"61":-0.1008574366569519,"62":-0.2696511447429657,"63":-0.27376583218574524,"64":-0.480316162109375,"65":-0.662000834941864,"66":-1.026619553565979,"67":-1.0432665348052979,"68":-0.9614126682281494,"69":0.3103078007698059,"70":-0.3194091320037842,"71":-0.5128453373908997,"72":0.2592313587665558,"73":0.009522695094347,"74":0.06757435947656631,"75":0.13120287656784058,"76":0.47971010208129883,"77":0.024756258353590965,"78":0.15026892721652985,"79":-0.07840083539485931,"80":-0.010008664801716805,"81":-0.1692705601453781,"82":-0.3435632288455963,"83":-0.6926748752593994,"84":-0.29164400696754456,"85":-0.7705498337745667,"86":-0.4857589602470398,"87":-0.9767499566078186,"88":-0.08086079359054565,"89":-0.04143696278333664,"90":0.38529694080352783,"91":0.025096680968999863,"92":-0.23131023347377777,"93":-0.4291243851184845,"94":0.19964219629764557,"95":0.4074818193912506,"96":0.8205843567848206,"97":0.6760411262512207,"98":0.11385614424943924,"99":-0.1731145828962326,"100":-0.057711005210876465,"101":-0.3597373962402344,"102":-0.34310832619667053,"103":-0.8294768333435059,"104":-1.0881165266036987,"105":-1.1994925737380981,"106":-1.032627820968628,"107":-1.5536566972732544,"108":0.24138863384723663,"109":-0.26573196053504944,"110":0.2391270250082016,"111":0.600610613822937,"112":0.20419248938560486,"113":0.35680893063545227,"114":0.7419899106025696,"115":0.6783066391944885,"116":1.2889115810394287,"117":1.2407705783843994,"118":0.5022356510162354,"119":0.1333865374326706,"120":-0.08841855823993683,"121":-0.6559062600135803,"122":-0.428389310836792,"123":-0.7354112863540649,"124":-0.858178973197937,"125":-0.9851078391075134,"126":-0.8203006982803345,"127":-0.6285458207130432,"128":-0.911878764629364,"129":0.15012440085411072,"130":-0.3206994831562042,"131":0.6121765375137329,"132":0.4936456084251404,"133":0.9096171855926514,"134":1.866653323173523,"135":1.1042999029159546,"136":1.5843095779418945,"137":1.3459649085998535,"138":-0.08646011352539062,"139":-0.19386562705039978,"140":-0.47318920493125916,"141":-1.0031553506851196,"142":-1.2455213069915771,"143":-1.1763056516647339,"144":-1.0266600847244263,"145":-0.9006072878837585,"146":-0.2708245813846588,"147":-0.4035550355911255,"148":-0.8886242508888245,"149":-0.6043127775192261,"150":-0.350259929895401,"151":-0.022287383675575256,"152":-0.26169469952583313,"153":-0.295205682516098,"154":0.4655860960483551,"155":1.1867398023605347,"156":1.0467240810394287,"157":0.4186388850212097,"158":-0.5395777225494385,"159":-0.18315882980823517,"160":-0.4878149628639221,"161":-0.9135286808013916,"162":-1.0466816425323486,"163":-0.4514869153499603,"164":-0.6233116984367371,"165":0.14338891208171844,"166":0.5907152891159058,"167":-0.4363788366317749,"168":-0.3840543031692505,"169":-0.3434852659702301,"170":-0.21978530287742615,"171":0.6183274388313293,"172":0.42698171734809875,"173":0.22909848392009735,"174":0.5229794979095459,"175":0.0523933507502079,"176":0.3638281226158142,"177":0.10882309079170227,"178":-0.6226915121078491,"179":-0.2620227038860321,"180":-0.5474520921707153,"181":-0.4833591878414154,"182":-0.1975754201412201,"183":0.036322735249996185,"184":-0.036516010761260986,"185":-0.68729168176651,"186":-0.8332662582397461,"187":-0.15409821271896362,"188":-0.1464957743883133,"189":-0.13362057507038116,"190":0.19593650102615356,"191":0.2006678581237793,"192":-0.15407589077949524,"193":0.09360665827989578,"194":0.1869387924671173,"195":0.29881343245506287,"196":0.07853348553180695,"197":-0.07948194444179535,"198":-0.41683897376060486,"199":-0.13353174924850464,"200":-0.31179559230804443,"201":-0.2239103764295578,"202":0.09645934402942657,"203":0.0037743712309747934,"204":0.009337421506643295,"205":0.20520415902137756,"206":0.11174234747886658,"207":0.27606192231178284,"208":0.07167153805494308,"209":-0.30123019218444824,"210":-0.23813679814338684,"211":0.41233059763908386,"212":-0.19463156163692474,"213":0.34782183170318604,"214":0.38645997643470764,"215":-0.1591879278421402,"216":-0.46512991189956665,"217":-0.8522162437438965,"218":-0.8415684103965759,"219":-0.38161736726760864,"220":-0.007898070849478245,"221":0.05899077281355858,"222":-0.366085022687912,"223":0.050361137837171555,"224":0.5214308500289917,"225":0.7036711573600769,"226":0.37252452969551086,"227":-0.15566857159137726,"228":0.5439676642417908,"229":-0.178661048412323,"230":-0.18221691250801086,"231":-0.09716606140136719,"232":-0.5079872608184814,"233":0.20843617618083954,"234":-0.11101661622524261,"235":-0.09257256239652634,"236":-0.24306435883045197,"237":-0.6197154521942139,"238":-0.5712059736251831,"239":0.04862379655241966,"240":0.3196990489959717,"241":0.333848774433136,"242":0.590368926525116,"243":0.7878288626670837,"244":1.006982684135437,"245":1.2757266759872437,"246":0.874007523059845,"247":0.33838221430778503,"248":0.14836660027503967,"249":0.2478131353855133,"250":0.4637279510498047,"251":0.19613437354564667,"252":-0.7592019438743591,"253":-0.6776722073554993,"254":-0.28941500186920166,"255":-0.12775182723999023,"256":-0.2607833743095398,"257":-0.5488543510437012,"258":-0.4811782240867615,"259":-0.3190745711326599,"260":-0.021299265325069427,"261":-0.06582635641098022,"262":0.4688989222049713,"263":0.9185481667518616,"264":1.122941017150879,"265":0.8850260376930237,"266":0.8605414628982544,"267":0.6291235685348511,"268":0.011678486131131649,"269":0.008953450247645378,"270":0.20224107801914215,"271":-0.07363537698984146,"272":0.03168271481990814,"273":0.012848694808781147,"274":0.16451682150363922,"275":-0.03878313675522804,"276":-0.1473473608493805,"277":-0.3196848928928375,"278":-0.5435537695884705,"279":-0.682667076587677,"280":0.1030510738492012,"281":-0.3053743839263916,"282":0.21177524328231812,"283":0.7546259164810181,"284":0.2226502001285553,"285":0.6440125107765198,"286":-0.030067430809140205,"287":0.6062549948692322,"288":0.30879801511764526,"289":0.2146281749010086,"290":-0.18228229880332947,"291":-0.6016145944595337,"292":-1.250792384147644,"293":-0.5828407406806946,"294":-0.23944589495658875,"295":-0.4672277867794037,"296":-0.006670595612376928,"297":-0.0947749987244606,"298":-0.16680599749088287,"299":-0.2725256085395813,"300":-0.20958250761032104,"301":-0.37764379382133484,"302":0.3373415768146515,"303":0.3558831512928009,"304":0.36131373047828674,"305":0.15566913783550262,"306":0.34764817357063293,"307":0.0084507642313838,"308":0.4640676975250244,"309":0.024012435227632523,"310":-0.21352538466453552,"311":-0.06890079379081726,"312":-0.38190197944641113,"313":-0.548785924911499,"314":0.19773414731025696,"315":0.20824061334133148,"316":-0.1273934543132782,"317":-0.2191396951675415,"318":-0.495611310005188,"319":-0.12328867614269257,"320":-0.016137829050421715,"321":0.013622834347188473,"322":0.5188984870910645,"323":0.2463005632162094,"324":0.22163870930671692,"325":0.08947648853063583,"326":0.5449661612510681,"327":0.867721438407898,"328":0.2521834671497345,"329":0.0066207777708768845,"330":-0.5505392551422119,"331":-0.2628430724143982,"332":0.09531857818365097,"333":-0.2561471164226532,"334":-0.027911320328712463,"335":0.2888086140155792,"336":0.5114008784294128,"337":0.7544798254966736,"338":0.21086269617080688,"339":0.2781519293785095,"340":-0.2886570394039154,"341":-0.03732942417263985,"342":0.47668924927711487,"343":-0.3098422586917877,"344":-0.3103961646556854,"345":0.1234876811504364,"346":0.01895737089216709,"347":-0.2851845622062683,"348":-0.526218056678772,"349":-0.5927748084068298,"350":-1.2956370115280151,"351":-1.261030912399292,"352":-0.1704232096672058,"353":-0.7587510943412781,"354":-0.2715499997138977,"355":-0.3623449504375458,"356":0.012457847595214844,"357":0.2439754158258438,"358":-0.3261464834213257,"359":0.08727839589118958,"360":-0.04735489934682846,"361":0.06770690530538559,"362":0.0073919398710131645,"363":-0.21428166329860687,"364":-0.42109227180480957,"365":-0.09499279409646988,"366":-0.9472602009773254,"367":-0.4259491562843323,"368":-0.6005364656448364,"369":-0.7972955703735352,"370":-0.9970749020576477,"371":-0.7607348561286926,"372":-0.7568217515945435,"373":-0.930180013179779,"374":-0.5984200239181519,"375":-0.32258492708206177,"376":-0.21302136778831482,"377":0.022356543689966202,"378":0.1903858482837677,"379":0.014084747061133385,"380":0.029503894969820976,"381":-0.05328859016299248,"382":-0.26716822385787964,"383":-0.2934935986995697,"384":-0.22160281240940094,"385":-0.2289542704820633,"386":-0.5779179334640503,"387":-0.4572765827178955,"388":-0.8362809419631958,"389":-0.5257576107978821,"390":-0.7926416397094727,"391":-0.6805613040924072,"392":-0.8753875494003296,"393":-0.8864840269088745,"394":-0.12238959968090057,"395":-0.07194013148546219,"396":0.3867860436439514,"397":0.11638937890529633,"398":-0.05975829437375069,"399":-0.18829213082790375}},"2":{"bias":0.8006053566932678,"weights":{"0":0.15591895580291748,"1":-0.12121812999248505,"2":0.026090368628501892,"3":-0.12971843779087067,"4":-0.004244412761181593,"5":-0.22482413053512573,"6":-0.3678155243396759,"7":-0.4870023727416992,"8":-0.10787887126207352,"9":-0.4109492897987366,"10":-0.23329174518585205,"11":-0.4243846535682678,"12":-0.08648242056369781,"13":-0.48395130038261414,"14":-0.10314744710922241,"15":-0.19329053163528442,"16":-0.030564457178115845,"17":-0.1354125738143921,"18":0.15570224821567535,"19":-0.1301046907901764,"20":-0.15440991520881653,"21":0.07226758450269699,"22":-0.08846981823444366,"23":0.09792185574769974,"24":0.10645165294408798,"25":-0.1810232698917389,"26":-0.39768466353416443,"27":-0.03078380413353443,"28":-0.2878306210041046,"29":-0.045716654509305954,"30":-0.8205522298812866,"31":-0.43857482075691223,"32":0.021273627877235413,"33":-0.23458461463451385,"34":0.4185687303543091,"35":0.5086920857429504,"36":0.1872456818819046,"37":-0.0704469084739685,"38":0.02034207247197628,"39":-0.15501704812049866,"40":-0.05543293431401253,"41":0.0835031270980835,"42":0.17635242640972137,"43":-0.05819077789783478,"44":0.2814709544181824,"45":0.23245427012443542,"46":-0.013814601115882397,"47":0.11364351958036423,"48":-0.7405216097831726,"49":-0.23609206080436707,"50":-0.14728236198425293,"51":-0.4003598093986511,"52":-0.2002723515033722,"53":-0.007994542829692364,"54":0.277047723531723,"55":0.009701875038444996,"56":0.17636623978614807,"57":0.11476381868124008,"58":0.359971284866333,"59":-0.27895450592041016,"60":-0.302858829498291,"61":-0.11967965215444565,"62":0.16988295316696167,"63":-0.016789207234978676,"64":-0.2037585824728012,"65":0.3078526556491852,"66":0.35767242312431335,"67":-0.3017248511314392,"68":-0.31726202368736267,"69":-0.5272619724273682,"70":-0.7582550644874573,"71":-0.2917499542236328,"72":-0.35592615604400635,"73":0.02437647432088852,"74":-0.012290017679333687,"75":0.16448718309402466,"76":0.2699744701385498,"77":0.16248109936714172,"78":0.09914784878492355,"79":-0.024257725104689598,"80":-0.3342054486274719,"81":-0.39913463592529297,"82":-0.25194355845451355,"83":-0.37246742844581604,"84":-0.7085281014442444,"85":-0.2752411663532257,"86":-0.42911404371261597,"87":0.1808658391237259,"88":-0.38510894775390625,"89":-0.30631908774375916,"90":0.3394153118133545,"91":0.24093854427337646,"92":-0.5571188926696777,"93":-0.6158574223518372,"94":-0.09684383124113083,"95":0.1550224870443344,"96":-0.05097061023116112,"97":0.14879406988620758,"98":-0.09962835162878036,"99":-0.20996738970279694,"100":-0.3308626711368561,"101":-0.45313239097595215,"102":-0.8342115879058838,"103":-0.8498330116271973,"104":-1.0713087320327759,"105":-0.9264512062072754,"106":-0.46164751052856445,"107":-0.47592243552207947,"108":0.08484181016683578,"109":-0.4529305100440979,"110":-0.2908205986022949,"111":-0.07586167752742767,"112":-0.467667818069458,"113":-0.21049323678016663,"114":-0.4770359992980957,"115":-0.0955929234623909,"116":-0.30672040581703186,"117":-0.16888318955898285,"118":-0.1758853644132614,"119":-0.4372899830341339,"120":-0.21982413530349731,"121":-0.612025797367096,"122":-0.6309306025505066,"123":-1.0596733093261719,"124":-1.2679239511489868,"125":-1.0558322668075562,"126":-0.8567420244216919,"127":0.2759365737438202,"128":0.25446563959121704,"129":-0.23088280856609344,"130":0.29140886664390564,"131":-0.5857986211776733,"132":-0.25765955448150635,"133":-0.9650393724441528,"134":-0.37302714586257935,"135":-0.5968602299690247,"136":-0.4291577935218811,"137":-0.4239431619644165,"138":-0.1095055341720581,"139":-0.3098417818546295,"140":-0.3697829246520996,"141":-0.559328019618988,"142":-0.8953570127487183,"143":-0.9701403975486755,"144":-1.1801931858062744,"145":-1.3842153549194336,"146":-1.9187402725219727,"147":-0.6824010014533997,"148":-0.23482762277126312,"149":0.040696755051612854,"150":0.004341380670666695,"151":-0.10335950553417206,"152":-0.6014574766159058,"153":-0.4649884104728699,"154":0.02261693775653839,"155":-0.48029035329818726,"156":-0.37402692437171936,"157":-0.6460461616516113,"158":-0.3434562087059021,"159":-0.3906707763671875,"160":-0.5702146291732788,"161":-0.5693708658218384,"162":-0.23952101171016693,"163":-0.6284120678901672,"164":-0.8920904994010925,"165":-1.4921622276306152,"166":-1.0082060098648071,"167":-0.4385947585105896,"168":0.16201353073120117,"169":-0.05001411959528923,"170":-0.2526507079601288,"171":0.25490355491638184,"172":-0.4328002631664276,"173":-0.25568079948425293,"174":-0.03754689544439316,"175":0.017660923302173615,"176":0.3618752360343933,"177":0.027385912835597992,"178":-0.45591965317726135,"179":-0.12250933796167374,"180":-0.4002024531364441,"181":-0.6517555713653564,"182":-0.24865621328353882,"183":-0.14281713962554932,"184":-0.5788102746009827,"185":-1.7185770273208618,"186":-0.7056038975715637,"187":-0.1800229400396347,"188":1.0619385242462158,"189":-0.6786202192306519,"190":0.2904689908027649,"191":-0.13614626228809357,"192":-0.49829399585723877,"193":-0.0775928795337677,"194":-0.4589094817638397,"195":-0.38861188292503357,"196":-0.2688334584236145,"197":-0.21515622735023499,"198":-0.5120250582695007,"199":-0.3408256769180298,"200":-0.33647945523262024,"201":-0.19600054621696472,"202":-0.03033021092414856,"203":-0.1946902871131897,"204":-1.1617367267608643,"205":-0.7633561491966248,"206":0.16840355098247528,"207":-0.48649248480796814,"208":0.5896920561790466,"209":0.6772196292877197,"210":0.3247203826904297,"211":-0.11439868062734604,"212":-0.16326752305030823,"213":-0.011888070032000542,"214":-0.020584149286150932,"215":-0.29775068163871765,"216":-0.27028918266296387,"217":-0.14486411213874817,"218":-0.04759928584098816,"219":-0.030210338532924652,"220":-0.239003986120224,"221":-0.28611326217651367,"222":-0.39621907472610474,"223":-0.976555347442627,"224":-0.6808183193206787,"225":-0.133723184466362,"226":0.13474619388580322,"227":-0.024081431329250336,"228":0.14583849906921387,"229":0.19384485483169556,"230":0.4705731272697449,"231":0.6940321922302246,"232":-0.02164415642619133,"233":0.3292161524295807,"234":0.20400139689445496,"235":0.2911297082901001,"236":-0.270129531621933,"237":0.0503055565059185,"238":0.23567983508110046,"239":0.19881710410118103,"240":0.09552151709794998,"241":0.0031130900606513023,"242":-0.4551624059677124,"243":-0.3311654329299927,"244":0.4245019555091858,"245":0.5631840825080872,"246":0.65643310546875,"247":-0.15864720940589905,"248":0.5571191906929016,"249":0.8301526308059692,"250":0.8920084238052368,"251":0.7377503514289856,"252":0.5095826387405396,"253":0.30752280354499817,"254":0.2042512446641922,"255":0.49581509828567505,"256":-0.24655841290950775,"257":0.0015193589497357607,"258":0.07758520543575287,"259":-0.08114635199308395,"260":-0.31267789006233215,"261":-0.07143966108560562,"262":0.22503338754177094,"263":0.2959335148334503,"264":0.5350751280784607,"265":0.9340100288391113,"266":0.7985562682151794,"267":0.284076064825058,"268":0.3459528088569641,"269":0.4131256937980652,"270":0.3127475380897522,"271":1.0849276781082153,"272":1.0299235582351685,"273":0.1411084085702896,"274":0.2701326906681061,"275":-0.11860760301351547,"276":0.14181075990200043,"277":0.5836954116821289,"278":0.07956941425800323,"279":0.4589011073112488,"280":-0.08580170571804047,"281":-0.18733638525009155,"282":-0.06896136701107025,"283":0.4175347089767456,"284":0.5711351037025452,"285":0.6273843050003052,"286":0.35068169236183167,"287":-0.3164835572242737,"288":-0.20739814639091492,"289":0.07871567457914352,"290":-0.562112033367157,"291":-0.18657152354717255,"292":-0.4577776789665222,"293":0.32344961166381836,"294":-0.1618703156709671,"295":-0.51076340675354,"296":-0.32648321986198425,"297":0.017410650849342346,"298":0.09580475091934204,"299":0.22046081721782684,"300":0.06952205300331116,"301":-0.22985422611236572,"302":0.170035719871521,"303":0.4855998754501343,"304":0.9385100603103638,"305":0.7769137620925903,"306":0.5848149061203003,"307":0.4643382430076599,"308":0.4629647731781006,"309":-0.026489736512303352,"310":-0.1915753036737442,"311":0.5962582230567932,"312":0.39532703161239624,"313":0.07022678852081299,"314":-0.40200674533843994,"315":-0.3838542699813843,"316":-0.19400827586650848,"317":-0.18234030902385712,"318":0.0974128469824791,"319":0.26484644412994385,"320":0.25149717926979065,"321":-0.097432941198349,"322":-0.013243364170193672,"323":0.28634434938430786,"324":0.5787937045097351,"325":0.5055409669876099,"326":0.41054996848106384,"327":0.2987102270126343,"328":0.7855477929115295,"329":0.01577436923980713,"330":-0.5522283911705017,"331":0.7321667075157166,"332":0.34271058440208435,"333":0.1844416707754135,"334":0.020341504365205765,"335":0.15493576228618622,"336":0.16826921701431274,"337":0.23954173922538757,"338":-0.02415304072201252,"339":0.03134419396519661,"340":0.19983497262001038,"341":0.12582285702228546,"342":0.3129756450653076,"343":-0.15023379027843475,"344":0.19302451610565186,"345":0.08249618113040924,"346":0.3440462648868561,"347":0.3901066482067108,"348":0.577724039554596,"349":0.6194963455200195,"350":0.007585671730339527,"351":0.30745062232017517,"352":0.31208938360214233,"353":-0.3017279803752899,"354":-0.26269832253456116,"355":0.29617801308631897,"356":-0.02849973365664482,"357":0.05534113943576813,"358":0.14967131614685059,"359":0.32425010204315186,"360":0.13638491928577423,"361":0.42372018098831177,"362":0.29583150148391724,"363":-0.191669762134552,"364":-0.2832023501396179,"365":-0.06804028153419495,"366":0.11481036990880966,"367":-0.11148843914270401,"368":-0.08048533648252487,"369":0.512754499912262,"370":0.5743471384048462,"371":1.1768771409988403,"372":0.4252074360847473,"373":0.5092345476150513,"374":-0.0610630102455616,"375":-0.4240557849407196,"376":-0.16346599161624908,"377":0.07379418611526489,"378":-0.041741352528333664,"379":-0.2119312882423401,"380":0.22328563034534454,"381":0.09594408422708511,"382":0.01800774596631527,"383":-0.24358804523944855,"384":-0.387881338596344,"385":-0.3525209128856659,"386":0.09379370510578156,"387":0.1939314752817154,"388":0.2942879796028137,"389":0.39639991521835327,"390":0.042294926941394806,"391":0.8192386031150818,"392":0.043496258556842804,"393":0.17407052218914032,"394":0.07169444859027863,"395":0.01622086763381958,"396":0.05873851478099823,"397":0.21533973515033722,"398":-0.09997090697288513,"399":-0.2047950029373169}},"3":{"bias":0.4275580644607544,"weights":{"0":0.21013562381267548,"1":0.17920875549316406,"2":-0.17034432291984558,"3":0.049964163452386856,"4":-0.2416297197341919,"5":-0.2150265872478485,"6":-0.445481538772583,"7":-0.6652145981788635,"8":-0.2997836768627167,"9":-0.29520145058631897,"10":-0.1509397327899933,"11":-0.3538382053375244,"12":0.28783363103866577,"13":-0.22279034554958344,"14":0.1393996924161911,"15":-0.20152056217193604,"16":-0.18775664269924164,"17":0.06313598155975342,"18":-0.062359519302845,"19":-0.0348915159702301,"20":0.2191973775625229,"21":0.10485220700502396,"22":0.26874759793281555,"23":0.0014647295465692878,"24":0.09104586392641068,"25":0.09409179538488388,"26":-0.34083661437034607,"27":0.05150533840060234,"28":0.37286895513534546,"29":0.7505691051483154,"30":-0.07918274402618408,"31":0.15841104090213776,"32":-0.0684051588177681,"33":-0.2725878655910492,"34":-0.28236088156700134,"35":-0.03840359300374985,"36":0.20299872756004333,"37":0.2686159312725067,"38":0.14303863048553467,"39":0.024079473689198494,"40":-0.14080533385276794,"41":-0.11623458564281464,"42":0.23350346088409424,"43":0.241463765501976,"44":0.05691000819206238,"45":-0.05336659029126167,"46":0.17290571331977844,"47":0.6045730113983154,"48":0.2438254952430725,"49":0.20865406095981598,"50":-0.13051915168762207,"51":-0.5973581075668335,"52":0.2269560694694519,"53":0.2362801879644394,"54":-0.03616603463888168,"55":0.0363299623131752,"56":0.28996506333351135,"57":0.14726294577121735,"58":0.2793242335319519,"59":-0.1123218685388565,"60":0.10608111321926117,"61":0.079084612429142,"62":0.13222533464431763,"63":-0.32730916142463684,"64":-0.3395037353038788,"65":-0.49653154611587524,"66":0.6775043606758118,"67":0.004591718781739473,"68":0.2644290328025818,"69":0.2193157821893692,"70":-0.6246673464775085,"71":-0.09401876479387283,"72":0.06133172661066055,"73":0.5223750472068787,"74":0.7403285503387451,"75":0.22989600896835327,"76":0.43001532554626465,"77":0.25922006368637085,"78":-0.01682105101644993,"79":0.0004175000940449536,"80":-0.2934390902519226,"81":-0.4881431460380554,"82":-0.6483817100524902,"83":-0.6258723735809326,"84":-0.509461522102356,"85":-0.8058590292930603,"86":0.14192631840705872,"87":0.3929436206817627,"88":0.4917890429496765,"89":0.2398398220539093,"90":-0.2979092001914978,"91":-0.40121427178382874,"92":0.029446884989738464,"93":0.0599856823682785,"94":0.4497153162956238,"95":0.32633328437805176,"96":0.42078202962875366,"97":0.16772040724754333,"98":-0.33593079447746277,"99":-0.024113768711686134,"100":-0.058771032840013504,"101":-0.39222443103790283,"102":-0.4503767788410187,"103":-0.6005245447158813,"104":-0.5239690542221069,"105":-0.6613040566444397,"106":0.5433160066604614,"107":1.0119258165359497,"108":0.7665367722511292,"109":0.07686586678028107,"110":-0.08254554867744446,"111":-0.2828757166862488,"112":0.17506945133209229,"113":0.2739979028701782,"114":1.1725993156433105,"115":0.4909544587135315,"116":0.5248388051986694,"117":0.46220624446868896,"118":0.01277876179665327,"119":0.022141477093100548,"120":-0.15145717561244965,"121":-0.15072400867938995,"122":-0.37568631768226624,"123":-0.5639599561691284,"124":-0.7923166155815125,"125":-1.0854387283325195,"126":-0.48910388350486755,"127":-0.09532644599676132,"128":0.787234902381897,"129":0.9725568890571594,"130":0.598615825176239,"131":0.3083236813545227,"132":0.32937872409820557,"133":0.09695582091808319,"134":0.9347196817398071,"135":0.16859257221221924,"136":0.3277057409286499,"137":0.12357001006603241,"138":-0.2445131540298462,"139":-0.09995225816965103,"140":-0.2178557962179184,"141":-0.2812805473804474,"142":-0.46010830998420715,"143":-0.9304084181785583,"144":-1.3379502296447754,"145":-0.8878234028816223,"146":-1.862940788269043,"147":-0.7853756546974182,"148":0.21761097013950348,"149":0.8410360217094421,"150":0.7248631119728088,"151":-0.03403782844543457,"152":0.26931527256965637,"153":0.25541365146636963,"154":0.21380959451198578,"155":0.2537600100040436,"156":0.34331560134887695,"157":-0.007130694109946489,"158":-0.28983190655708313,"159":-0.05903387814760208,"160":-0.47399914264678955,"161":-0.5280473232269287,"162":-0.3946978449821472,"163":-0.7304154634475708,"164":-0.878724992275238,"165":-1.2596709728240967,"166":-0.6682461500167847,"167":-0.45636048913002014,"168":-0.6993617415428162,"169":0.10540630668401718,"170":0.6143638491630554,"171":0.1702287495136261,"172":0.18118740618228912,"173":-0.08758699148893356,"174":0.14319290220737457,"175":-0.10810889303684235,"176":-0.259136825799942,"177":-0.6774727702140808,"178":-0.38632750511169434,"179":-0.25998517870903015,"180":-0.2813035845756531,"181":-0.4224497675895691,"182":-0.6780388355255127,"183":-0.059360962361097336,"184":-0.41868412494659424,"185":-0.9291374683380127,"186":-0.9261522889137268,"187":-0.5822396278381348,"188":-0.2987200915813446,"189":0.03789449483156204,"190":0.5245018005371094,"191":-0.3962022066116333,"192":-0.5086361169815063,"193":-0.07660715281963348,"194":0.5063519477844238,"195":-0.07001568377017975,"196":-0.03784527629613876,"197":-0.5010203123092651,"198":-0.5927321314811707,"199":-0.07780389487743378,"200":-0.3737105131149292,"201":-0.23771145939826965,"202":0.030984995886683464,"203":-0.04388950392603874,"204":-0.5953259468078613,"205":-0.9325497150421143,"206":-0.39181095361709595,"207":-1.1500091552734375,"208":-0.5509300231933594,"209":0.031939513981342316,"210":0.042802490293979645,"211":0.15877069532871246,"212":-0.541714072227478,"213":-0.06761426478624344,"214":-0.026200827211141586,"215":-0.13547393679618835,"216":-0.1470041275024414,"217":-0.6454740166664124,"218":-0.5421051979064941,"219":-0.4722943603992462,"220":-0.5328837037086487,"221":-0.28094807267189026,"222":-0.24861863255500793,"223":-0.915483832359314,"224":-1.249297022819519,"225":-0.8056830763816833,"226":-0.4633597731590271,"227":-0.6778720021247864,"228":-0.9087380170822144,"229":-1.123885154724121,"230":-0.2824550271034241,"231":-0.014715027064085007,"232":0.3133709728717804,"233":-0.24086296558380127,"234":-0.2890387773513794,"235":-0.17801252007484436,"236":-0.014580401591956615,"237":-0.40296176075935364,"238":-0.1870683878660202,"239":-0.48456552624702454,"240":-0.32658544182777405,"241":-0.10498526692390442,"242":0.15224240720272064,"243":-0.336852490901947,"244":-0.6400198936462402,"245":0.058146703988313675,"246":0.48552656173706055,"247":0.2630525827407837,"248":-0.45681220293045044,"249":-0.7274813652038574,"250":-0.639092206954956,"251":-0.4377155005931854,"252":-0.5477975010871887,"253":-1.1486291885375977,"254":-0.38279980421066284,"255":-0.1696152687072754,"256":-0.12229348719120026,"257":-0.384389728307724,"258":-0.40983399748802185,"259":-0.4256855249404907,"260":-0.4647934138774872,"261":-0.35648128390312195,"262":0.25913912057876587,"263":0.5526528358459473,"264":-0.2864174544811249,"265":0.14334067702293396,"266":0.383695513010025,"267":-0.1195579320192337,"268":0.6340491771697998,"269":0.08610820025205612,"270":0.2568856477737427,"271":0.29789960384368896,"272":-0.06519751995801926,"273":-0.11826669424772263,"274":0.22117704153060913,"275":0.39162537455558777,"276":0.6494758129119873,"277":-0.04346929490566254,"278":-0.035274606198072433,"279":-0.002776168519631028,"280":-0.11766991019248962,"281":-0.4755944311618805,"282":-0.4343916177749634,"283":0.32074370980262756,"284":0.7128599882125854,"285":0.44667288661003113,"286":-0.13127604126930237,"287":-0.550569474697113,"288":-0.2165587693452835,"289":0.06768426299095154,"290":-0.6012963652610779,"291":-0.1970873773097992,"292":-0.3550691604614258,"293":-0.09793229401111603,"294":0.08019527047872543,"295":0.12680962681770325,"296":0.36024385690689087,"297":0.06949825584888458,"298":0.19937250018119812,"299":0.16757670044898987,"300":-0.25647637248039246,"301":-0.4358643591403961,"302":-0.11754675209522247,"303":-0.15377336740493774,"304":0.39753657579421997,"305":0.6329057216644287,"306":0.35773542523384094,"307":0.07003287971019745,"308":-0.45525050163269043,"309":-0.2874046564102173,"310":-0.05376192554831505,"311":0.10954903066158295,"312":-0.010858599096536636,"313":-0.05338336154818535,"314":0.05582846701145172,"315":0.06937861442565918,"316":-0.05690338835120201,"317":-0.10575029999017715,"318":-0.05718865245580673,"319":0.1289665848016739,"320":0.07185663282871246,"321":-0.07949993014335632,"322":-0.17557832598686218,"323":0.19465471804141998,"324":0.03105277195572853,"325":0.030243000015616417,"326":-0.24950923025608063,"327":0.2710517346858978,"328":-0.32206854224205017,"329":0.07164567708969116,"330":-0.02606326714158058,"331":-0.4831699728965759,"332":0.15631069242954254,"333":-0.09790796041488647,"334":0.19906030595302582,"335":0.45976144075393677,"336":-0.0183552298694849,"337":-0.16633155941963196,"338":-0.025452885776758194,"339":-0.04288681223988533,"340":-0.01435017492622137,"341":0.02624097838997841,"342":-0.13553011417388916,"343":0.28534549474716187,"344":0.24461859464645386,"345":0.3683881461620331,"346":0.2571582496166229,"347":0.2815777063369751,"348":-0.3293951749801636,"349":-0.10248330980539322,"350":0.040005091577768326,"351":-0.2498769909143448,"352":0.17174574732780457,"353":-0.12696446478366852,"354":-0.22654752433300018,"355":-0.41354620456695557,"356":0.010511383414268494,"357":-0.2179957777261734,"358":-0.21549560129642487,"359":0.06477032601833344,"360":0.027563128620386124,"361":0.3028162121772766,"362":0.002050067763775587,"363":-0.08406772464513779,"364":-0.05835805833339691,"365":0.22100822627544403,"366":-0.011871473863720894,"367":0.15854813158512115,"368":0.16476881504058838,"369":-0.20775112509727478,"370":-0.038737811148166656,"371":-0.2673551142215729,"372":0.024748733267188072,"373":0.022477857768535614,"374":-0.0824439749121666,"375":-0.45207685232162476,"376":0.07211419939994812,"377":-0.09873697906732559,"378":-0.13283775746822357,"379":-0.141608327627182,"380":0.10784023255109787,"381":0.18395183980464935,"382":0.21255047619342804,"383":-0.11626814305782318,"384":-0.1702137142419815,"385":-0.3414590656757355,"386":-0.27443304657936096,"387":0.03812794387340546,"388":0.09073778241872787,"389":0.0791519433259964,"390":0.32130739092826843,"391":0.08771925419569016,"392":-0.14417751133441925,"393":-0.338783860206604,"394":-0.13932083547115326,"395":0.015860166400671005,"396":0.007765535265207291,"397":0.0032194452360272408,"398":-0.1728607565164566,"399":-0.009704465046525002}},"4":{"bias":-0.007043148390948772,"weights":{"0":0.1287761926651001,"1":-0.1995370239019394,"2":0.1050950437784195,"3":0.11912556737661362,"4":-0.05165839195251465,"5":-0.17337477207183838,"6":0.14847280085086823,"7":-0.1520448625087738,"8":-0.3159357011318207,"9":-0.01795114576816559,"10":0.05734436959028244,"11":-0.24532905220985413,"12":-0.06990544497966766,"13":0.019077837467193604,"14":0.017350545153021812,"15":0.40949010848999023,"16":-0.05140087753534317,"17":-0.02555180713534355,"18":0.21364368498325348,"19":-0.06590002775192261,"20":0.016464490443468094,"21":-0.006762276869267225,"22":-0.33742108941078186,"23":-0.05125293880701065,"24":0.1927335262298584,"25":0.2850097715854645,"26":0.2500987648963928,"27":0.29678258299827576,"28":0.19731345772743225,"29":-0.25987574458122253,"30":-0.15430569648742676,"31":-0.4636772871017456,"32":-0.1709657907485962,"33":0.14172419905662537,"34":0.1918230652809143,"35":0.057803403586149216,"36":0.16682007908821106,"37":0.1267252415418625,"38":-0.032699134200811386,"39":0.00593328382819891,"40":-0.03853251412510872,"41":0.1264820098876953,"42":-0.18167506158351898,"43":0.21029303967952728,"44":0.4865197539329529,"45":0.4703597128391266,"46":0.259441614151001,"47":0.412625789642334,"48":0.15301208198070526,"49":-0.3244458734989166,"50":0.14272716641426086,"51":-0.05134912580251694,"52":0.45851290225982666,"53":0.020901603624224663,"54":0.53741055727005,"55":0.1445322036743164,"56":0.2282186597585678,"57":0.17153704166412354,"58":-0.09264611452817917,"59":-0.07777032256126404,"60":-0.0007797497091814876,"61":-0.2031026929616928,"62":-0.519348680973053,"63":0.07747872173786163,"64":0.07493753731250763,"65":0.15597252547740936,"66":-0.22577820718288422,"67":-0.24694979190826416,"68":-0.045171838253736496,"69":0.2946208715438843,"70":0.2693869173526764,"71":-0.06159038469195366,"72":0.15739496052265167,"73":0.26609817147254944,"74":0.01440972276031971,"75":-0.09356287866830826,"76":-0.07969294488430023,"77":0.4085788428783417,"78":-0.3718406856060028,"79":-0.11280457675457001,"80":-0.2337407022714615,"81":-0.43187031149864197,"82":-0.42248842120170593,"83":0.11882302165031433,"84":-0.4274751842021942,"85":0.18117789924144745,"86":0.10417908430099487,"87":0.2103297859430313,"88":0.07933691889047623,"89":0.141926109790802,"90":0.3783845603466034,"91":-0.0470590814948082,"92":0.23359835147857666,"93":0.3532259166240692,"94":-0.12343916296958923,"95":-0.14110368490219116,"96":-0.41023436188697815,"97":0.0704350471496582,"98":-0.322528213262558,"99":-0.34860795736312866,"100":-0.14294585585594177,"101":-0.3851938545703888,"102":-0.36954617500305176,"103":-0.27158668637275696,"104":-0.38393324613571167,"105":-0.0667010173201561,"106":0.14582110941410065,"107":-0.14296114444732666,"108":0.1439274698495865,"109":0.5855709910392761,"110":0.18039225041866302,"111":0.22465112805366516,"112":0.10357238352298737,"113":0.1117217019200325,"114":0.02822643332183361,"115":-0.5225168466567993,"116":-0.25372856855392456,"117":0.22870303690433502,"118":-0.0547085739672184,"119":-0.32295623421669006,"120":-0.08486135303974152,"121":-0.5325813293457031,"122":-0.6357125043869019,"123":-0.10416494309902191,"124":-0.598146378993988,"125":0.07145833969116211,"126":-0.19677512347698212,"127":-0.059669721871614456,"128":0.002604507841169834,"129":-0.04258618503808975,"130":-0.06769131869077682,"131":-0.02578374370932579,"132":0.03231114521622658,"133":-0.20351189374923706,"134":0.06369362026453018,"135":-0.15628112852573395,"136":0.01943977177143097,"137":0.006298391614109278,"138":-0.002366534434258938,"139":-0.2500234842300415,"140":-0.16657762229442596,"141":-0.5179787874221802,"142":-0.6525154113769531,"143":-0.6841753125190735,"144":-0.590419352054596,"145":0.0685865506529808,"146":-0.21480675041675568,"147":0.14348913729190826,"148":0.2934580445289612,"149":0.360114187002182,"150":0.2583828270435333,"151":0.2517688274383545,"152":0.46500179171562195,"153":-0.5350233912467957,"154":0.12664908170700073,"155":-0.28464585542678833,"156":-0.013647804968059063,"157":0.34107649326324463,"158":-0.06045984849333763,"159":-0.005088107194751501,"160":-0.12335345149040222,"161":-0.4426688253879547,"162":-0.42799827456474304,"163":-0.559763491153717,"164":-0.38793954253196716,"165":-0.17499202489852905,"166":-0.13149845600128174,"167":0.5498831868171692,"168":0.47149646282196045,"169":0.3909130394458771,"170":-0.0518542118370533,"171":0.4851529002189636,"172":0.8054678440093994,"173":-0.7148778438568115,"174":-0.15354742109775543,"175":-0.32445457577705383,"176":0.10827217996120453,"177":0.2099849134683609,"178":0.17380277812480927,"179":0.0256765428930521,"180":-0.05690865218639374,"181":-0.4607672393321991,"182":-0.4336564242839813,"183":-0.34114518761634827,"184":-0.3785340487957001,"185":0.2795323431491852,"186":-0.13796930015087128,"187":0.12992875277996063,"188":-0.21884985268115997,"189":0.7646646499633789,"190":0.41802021861076355,"191":0.6914739012718201,"192":0.5036908984184265,"193":-0.5880644917488098,"194":-0.31183281540870667,"195":0.004920074716210365,"196":0.1073160320520401,"197":0.22712993621826172,"198":-0.1386706382036209,"199":0.17868855595588684,"200":-0.19018720090389252,"201":-0.14903192222118378,"202":-0.5419318675994873,"203":-0.5248821973800659,"204":0.13346725702285767,"205":-0.4494744837284088,"206":-0.6873630285263062,"207":-0.753618597984314,"208":-0.8440227508544922,"209":-0.240001380443573,"210":0.1368485391139984,"211":0.570965588092804,"212":0.619312584400177,"213":-0.36578568816185,"214":0.35353976488113403,"215":-0.053373970091342926,"216":0.3963741064071655,"217":0.043290749192237854,"218":0.07072103023529053,"219":-0.06087758392095566,"220":-0.08153976500034332,"221":-0.18970976769924164,"222":-0.47689762711524963,"223":-0.5201655030250549,"224":-0.4149087369441986,"225":-0.321376770734787,"226":-0.3094898462295532,"227":-0.15077774226665497,"228":-0.1724126935005188,"229":0.028995906934142113,"230":0.009246768429875374,"231":0.4066048264503479,"232":0.28232502937316895,"233":-0.06975115090608597,"234":0.165053591132164,"235":0.18910428881645203,"236":0.24351495504379272,"237":0.2234925925731659,"238":-0.15190529823303223,"239":-0.2642407715320587,"240":-0.38527846336364746,"241":-0.287988543510437,"242":-0.2002493143081665,"243":-0.14199072122573853,"244":-0.46711355447769165,"245":-0.0754840075969696,"246":-0.3842775225639343,"247":-0.22676484286785126,"248":-0.08910207450389862,"249":0.39616841077804565,"250":0.04839416593313217,"251":0.534870445728302,"252":0.012865548953413963,"253":0.1594681292772293,"254":0.5202573537826538,"255":-0.026114104315638542,"256":0.2647092640399933,"257":-0.008008872158825397,"258":0.252691388130188,"259":-0.4309406280517578,"260":-0.133037731051445,"261":-0.25322338938713074,"262":-0.4230411946773529,"263":-0.3065451383590698,"264":-0.24969442188739777,"265":0.29956310987472534,"266":-0.33176389336586,"267":0.00021050038048997521,"268":-0.12874561548233032,"269":0.10189301520586014,"270":-0.18692143261432648,"271":0.34606361389160156,"272":-0.06718648225069046,"273":0.3139690160751343,"274":0.03887070715427399,"275":-0.05256444588303566,"276":0.1557256579399109,"277":0.08340971171855927,"278":0.4288523495197296,"279":0.08885791897773743,"280":-0.3727780282497406,"281":-0.23545794188976288,"282":-0.4689476788043976,"283":-0.3176901340484619,"284":0.053795453161001205,"285":0.22606152296066284,"286":0.5058936476707458,"287":-0.1617136299610138,"288":-0.32596999406814575,"289":-0.294969379901886,"290":-0.10648006945848465,"291":0.0765325129032135,"292":-0.036905352026224136,"293":-0.4050776958465576,"294":0.10674382746219635,"295":-0.12881091237068176,"296":-0.09614507853984833,"297":-0.17598001658916473,"298":0.16101528704166412,"299":-0.41051575541496277,"300":-0.14119330048561096,"301":-0.3087257146835327,"302":-0.2605605721473694,"303":-0.3389260768890381,"304":-0.5562382340431213,"305":-0.16061940789222717,"306":-0.31450319290161133,"307":-0.3871431052684784,"308":-0.6000820398330688,"309":-0.7958238124847412,"310":-0.011721589602530003,"311":0.3631085157394409,"312":-0.048313938081264496,"313":-0.04039739817380905,"314":-0.1425361931324005,"315":-0.6298245787620544,"316":-0.2521652281284332,"317":-0.11344379931688309,"318":-0.1360735148191452,"319":-0.2535589337348938,"320":0.06224784255027771,"321":-0.4158620238304138,"322":-0.36940374970436096,"323":-0.31000712513923645,"324":-0.19934090971946716,"325":0.0017650347435846925,"326":-0.19067056477069855,"327":-0.5341854095458984,"328":-0.34746053814888,"329":0.05919607728719711,"330":0.5427013039588928,"331":-0.024973232299089432,"332":-0.23122575879096985,"333":-0.36116838455200195,"334":-0.056036852300167084,"335":-0.548607349395752,"336":-0.4878503382205963,"337":-0.5257940292358398,"338":-0.3339464068412781,"339":-0.31694984436035156,"340":-0.16338132321834564,"341":-0.39456799626350403,"342":-0.2134023755788803,"343":-0.3181151747703552,"344":0.022524984553456306,"345":0.3440459668636322,"346":0.18517091870307922,"347":0.30764278769493103,"348":-0.04587956517934799,"349":0.22543048858642578,"350":0.43855491280555725,"351":0.11062541604042053,"352":0.3842376470565796,"353":-0.16658933460712433,"354":-0.128082275390625,"355":-0.4057142436504364,"356":-0.6628158092498779,"357":-0.5466446280479431,"358":-0.4271107316017151,"359":-0.39286428689956665,"360":-0.07543686777353287,"361":-0.3382529020309448,"362":-0.44543540477752686,"363":-0.1589328646659851,"364":-0.14549967646598816,"365":0.17074719071388245,"366":0.038035571575164795,"367":0.07262235879898071,"368":0.09078382700681686,"369":0.4494825303554535,"370":0.4585527181625366,"371":0.35839712619781494,"372":0.08335963636636734,"373":-0.1559925526380539,"374":-0.34014639258384705,"375":-0.11022111028432846,"376":-0.21314333379268646,"377":-0.5782117247581482,"378":-0.18971844017505646,"379":-0.299349308013916,"380":0.09059379249811172,"381":0.054753027856349945,"382":-0.12634864449501038,"383":-0.2537316679954529,"384":0.17830543220043182,"385":0.22901709377765656,"386":0.1661379486322403,"387":0.36289817094802856,"388":0.05693432688713074,"389":0.0855908915400505,"390":0.2711673378944397,"391":-0.02038494125008583,"392":-0.3579915463924408,"393":-0.2220359891653061,"394":-0.4753004312515259,"395":-0.12159674614667892,"396":-0.15660418570041656,"397":-0.1325729340314865,"398":-0.10664939880371094,"399":-0.04487956687808037}},"5":{"bias":0.0457134023308754,"weights":{"0":-0.05967438966035843,"1":0.03732029348611832,"2":-0.06508799642324448,"3":0.03991152346134186,"4":-0.3513038456439972,"5":-0.5059585571289062,"6":-0.22018662095069885,"7":-0.38693878054618835,"8":-0.37507227063179016,"9":-0.1261531263589859,"10":-0.21009160578250885,"11":-0.08220794051885605,"12":-0.01667790301144123,"13":-0.15105995535850525,"14":-0.10814845561981201,"15":-0.1341533362865448,"16":-0.2086465209722519,"17":-0.1077321246266365,"18":-0.19826027750968933,"19":0.06136372685432434,"20":-0.20315395295619965,"21":0.06579025834798813,"22":0.06556182354688644,"23":-0.011808873154222965,"24":-0.25414183735847473,"25":-0.37008005380630493,"26":-0.15775635838508606,"27":0.07341458648443222,"28":0.11522489041090012,"29":0.08616974949836731,"30":0.2256779968738556,"31":0.19987396895885468,"32":-0.026025673374533653,"33":0.19350959360599518,"34":-0.21580788493156433,"35":-0.09708135575056076,"36":-0.16679982841014862,"37":0.035495877265930176,"38":-0.10839924216270447,"39":-0.14119090139865875,"40":-0.06585798412561417,"41":-0.17101597785949707,"42":-0.24021035432815552,"43":0.02993961051106453,"44":-0.1438639611005783,"45":0.10156543552875519,"46":0.07407340407371521,"47":0.4293934106826782,"48":-0.07596388459205627,"49":0.06852103769779205,"50":0.16641344130039215,"51":0.4178113639354706,"52":0.5518333315849304,"53":0.2797689437866211,"54":0.27821287512779236,"55":0.0008822120144031942,"56":0.026764247566461563,"57":-0.1973475217819214,"58":-0.1383475661277771,"59":-0.008375384844839573,"60":0.10840044170618057,"61":-0.1764897257089615,"62":-0.33501920104026794,"63":-0.40940430760383606,"64":-0.3033389747142792,"65":-0.14972242712974548,"66":-0.10070346295833588,"67":-0.2818426787853241,"68":-0.424742728471756,"69":0.17192606627941132,"70":-0.010650666430592537,"71":0.3836762607097626,"72":0.1590106338262558,"73":0.11177569627761841,"74":-0.05474214255809784,"75":-0.04788334667682648,"76":0.024312281981110573,"77":-0.012059972621500492,"78":-0.0029687529895454645,"79":-0.020680096000432968,"80":0.1370396465063095,"81":-0.036135297268629074,"82":0.07253896445035934,"83":-0.4032561182975769,"84":-0.49573174118995667,"85":-0.18317681550979614,"86":-0.003166937967762351,"87":-0.02926546148955822,"88":0.010023323819041252,"89":-0.41525331139564514,"90":0.3242360055446625,"91":0.3378209173679352,"92":0.20396344363689423,"93":-0.06818439066410065,"94":0.21885336935520172,"95":0.34581539034843445,"96":0.006730076391249895,"97":0.23670002818107605,"98":-0.01748337224125862,"99":-0.07579652965068817,"100":-0.11479922384023666,"101":-0.023921044543385506,"102":-0.4862223267555237,"103":-0.4791983962059021,"104":-0.4164487421512604,"105":-0.21464186906814575,"106":0.018012531101703644,"107":0.35329148173332214,"108":0.269918292760849,"109":0.4770759642124176,"110":0.14909285306930542,"111":0.05711541324853897,"112":-0.146493598818779,"113":0.023702198639512062,"114":-0.01899106428027153,"115":0.07477377355098724,"116":-0.11319616436958313,"117":-0.0753168836236,"118":-0.1520761102437973,"119":-0.013702618889510632,"120":0.05181682109832764,"121":0.2758016288280487,"122":-0.2186705470085144,"123":0.12016560137271881,"124":-0.0527462437748909,"125":0.23371769487857819,"126":0.4553682804107666,"127":0.347634494304657,"128":0.5810913443565369,"129":0.10861136019229889,"130":0.3524529039859772,"131":-0.061233602464199066,"132":-0.037478383630514145,"133":0.24308355152606964,"134":0.035248756408691406,"135":-0.028460951521992683,"136":-0.1821253001689911,"137":-0.0777418240904808,"138":-0.10737290233373642,"139":-0.1986723244190216,"140":-0.004172439221292734,"141":0.09844052046537399,"142":-0.36738577485084534,"143":-0.23851239681243896,"144":-0.37284958362579346,"145":-0.2512567937374115,"146":0.24903802573680878,"147":0.7530778050422668,"148":0.7416459918022156,"149":0.5282043814659119,"150":0.28677764534950256,"151":0.14743667840957642,"152":0.41511085629463196,"153":0.2794583737850189,"154":0.5384857654571533,"155":-0.37487712502479553,"156":-0.4056212902069092,"157":-0.06075854226946831,"158":-0.1211443841457367,"159":-0.1605623960494995,"160":-0.11323671042919159,"161":0.03497953712940216,"162":-0.42748022079467773,"163":-0.41184771060943604,"164":-0.31337231397628784,"165":-0.9759714603424072,"166":-0.06025161221623421,"167":0.5286583304405212,"168":0.7034265398979187,"169":0.37111058831214905,"170":0.22341401875019073,"171":0.10994723439216614,"172":-0.09803501516580582,"173":0.16539879143238068,"174":-0.07264024019241333,"175":0.07053297013044357,"176":-0.3127433955669403,"177":-0.28271719813346863,"178":-0.3862690329551697,"179":-0.10713367164134979,"180":-0.48568904399871826,"181":-0.4514670670032501,"182":-0.6720786690711975,"183":0.30158838629722595,"184":-0.29349184036254883,"185":-0.3661311864852905,"186":0.19185355305671692,"187":-0.29041075706481934,"188":0.17758679389953613,"189":0.6132789850234985,"190":0.3289402425289154,"191":0.22203318774700165,"192":-0.40790268778800964,"193":0.042435478419065475,"194":0.06625377386808395,"195":0.14745552837848663,"196":-0.05902618542313576,"197":-0.7718862891197205,"198":-0.30166521668434143,"199":-0.4315551817417145,"200":-0.14891932904720306,"201":-0.08547484129667282,"202":-0.17738527059555054,"203":0.27315568923950195,"204":0.23326760530471802,"205":-0.22852039337158203,"206":0.48074355721473694,"207":-0.08353565633296967,"208":0.21047542989253998,"209":0.0813545361161232,"210":0.13257746398448944,"211":-0.25540387630462646,"212":-0.46977853775024414,"213":-0.5235161185264587,"214":-0.39284706115722656,"215":-0.4615115523338318,"216":-0.1995731145143509,"217":-0.19996368885040283,"218":-0.11796201020479202,"219":-0.2804226875305176,"220":-0.16256016492843628,"221":-0.2516821026802063,"222":0.210116907954216,"223":-0.08339269459247589,"224":-0.3683442771434784,"225":-0.309905081987381,"226":-0.053283460438251495,"227":-0.2616533935070038,"228":-0.6630258560180664,"229":-0.08455344289541245,"230":-0.0590934231877327,"231":-0.5933116674423218,"232":-0.406971275806427,"233":-0.5965506434440613,"234":-0.5434350371360779,"235":-0.2536943852901459,"236":-0.10060304403305054,"237":-0.12368202209472656,"238":-0.34831175208091736,"239":0.11524093896150589,"240":-0.025800393894314766,"241":-0.5287836194038391,"242":-0.032902222126722336,"243":-0.33944034576416016,"244":-0.2675440013408661,"245":0.16667921841144562,"246":0.24444733560085297,"247":-0.048570986837148666,"248":-0.23746317625045776,"249":-0.4463768005371094,"250":-0.8187411427497864,"251":-0.7226352095603943,"252":-0.2624744772911072,"253":0.033460717648267746,"254":-0.3265848457813263,"255":0.2761482298374176,"256":0.18687760829925537,"257":0.14716392755508423,"258":-0.16389548778533936,"259":-0.05210839956998825,"260":-0.18000547587871552,"261":-0.20412978529930115,"262":-0.1176038384437561,"263":-0.18315237760543823,"264":-0.4745098650455475,"265":0.2809452414512634,"266":0.025302285328507423,"267":-0.0904403030872345,"268":-0.22079330682754517,"269":0.09781859815120697,"270":-0.1561000496149063,"271":-0.32694295048713684,"272":-0.4347037672996521,"273":-0.10538998991250992,"274":-0.04538124054670334,"275":0.4802587330341339,"276":0.12437719106674194,"277":0.14809811115264893,"278":0.1470787674188614,"279":-0.24353614449501038,"280":-0.35482263565063477,"281":-0.4524332582950592,"282":-0.4807790517807007,"283":-0.4287145137786865,"284":-0.40481624007225037,"285":-0.22419308125972748,"286":0.213166743516922,"287":-0.23908819258213043,"288":-0.0013022696366533637,"289":0.13603845238685608,"290":-0.1400783807039261,"291":-0.28978368639945984,"292":0.40425339341163635,"293":-0.018221581354737282,"294":-0.009032954461872578,"295":0.0652652457356453,"296":0.08567946404218674,"297":-0.0839010551571846,"298":-0.03143127262592316,"299":-0.0865664854645729,"300":-0.06118064001202583,"301":-0.08638990670442581,"302":-0.24201403558254242,"303":-0.32296547293663025,"304":-0.4706145226955414,"305":-0.2252645641565323,"306":-0.35272496938705444,"307":0.0266875009983778,"308":-0.03855248913168907,"309":-0.40178319811820984,"310":-0.4513952434062958,"311":-0.3739800453186035,"312":-0.12369784712791443,"313":0.1282770335674286,"314":0.03964345529675484,"315":0.26637381315231323,"316":0.5004171133041382,"317":0.3412691354751587,"318":-0.1468716412782669,"319":0.04457637667655945,"320":0.1956445425748825,"321":-0.41999417543411255,"322":-0.3076048195362091,"323":-0.04333652928471565,"324":-0.09625806659460068,"325":-0.21805039048194885,"326":-0.20027902722358704,"327":-0.08664403110742569,"328":-0.28233933448791504,"329":-0.6917857527732849,"330":-0.4900144040584564,"331":-0.4593943655490875,"332":0.12107553333044052,"333":-0.09321665018796921,"334":0.21982675790786743,"335":0.07260283082723618,"336":-0.06757906079292297,"337":0.02654259279370308,"338":-0.4483228027820587,"339":0.16886968910694122,"340":0.26699820160865784,"341":0.0520298108458519,"342":0.1395234912633896,"343":-0.2481798231601715,"344":-0.45509791374206543,"345":-0.07319025695323944,"346":0.10647542029619217,"347":0.6826002597808838,"348":0.4260462820529938,"349":0.11837837845087051,"350":0.19457483291625977,"351":-0.11014765501022339,"352":-0.20049230754375458,"353":0.11007558554410934,"354":-0.19531215727329254,"355":0.3235824704170227,"356":-0.10322405397891998,"357":-0.06783881783485413,"358":-0.18213926255702972,"359":0.14483052492141724,"360":-0.061507631093263626,"361":0.14748112857341766,"362":-0.23165087401866913,"363":0.08108621835708618,"364":-0.4047841429710388,"365":-0.24671518802642822,"366":-0.3583328425884247,"367":-0.5431484580039978,"368":-0.11681634187698364,"369":-0.18560607731342316,"370":0.24767686426639557,"371":0.25323185324668884,"372":-0.3160717487335205,"373":0.1125548705458641,"374":-0.16778013110160828,"375":0.10443979501724243,"376":-0.12103844434022903,"377":-0.0950540229678154,"378":-0.11581312119960785,"379":0.012940636835992336,"380":0.3059297204017639,"381":0.2419593334197998,"382":-0.02777874283492565,"383":0.08286167681217194,"384":-0.284092515707016,"385":-0.0635746568441391,"386":0.03811538219451904,"387":0.20167800784111023,"388":-0.045555975288152695,"389":-0.2973269522190094,"390":-0.048770200461149216,"391":0.0602412074804306,"392":-0.22833943367004395,"393":-0.03339004889130592,"394":-0.01015124749392271,"395":0.26403719186782837,"396":0.20110227167606354,"397":0.10921406745910645,"398":0.13832274079322815,"399":-0.05353838950395584}},"6":{"bias":-1.3390010595321655,"weights":{"0":0.12137473374605179,"1":0.03719160333275795,"2":-0.05022310093045235,"3":-0.08728118240833282,"4":-0.2044212371110916,"5":-0.11443664133548737,"6":-0.012019103392958641,"7":-0.1686818152666092,"8":-0.3799528181552887,"9":-0.22414551675319672,"10":-0.332735151052475,"11":-0.2677214443683624,"12":-0.13236276805400848,"13":-0.3827480673789978,"14":-0.1415800154209137,"15":-0.41177403926849365,"16":-0.07120545953512192,"17":-0.27623552083969116,"18":-0.23438288271427155,"19":-0.06076307222247124,"20":0.030336884781718254,"21":0.11741189658641815,"22":0.06571274250745773,"23":-0.18628017604351044,"24":-0.3634180426597595,"25":-0.15559741854667664,"26":-0.19546733796596527,"27":-0.5024833083152771,"28":-0.28781116008758545,"29":-0.4807841181755066,"30":-0.3511841595172882,"31":-0.11990933120250702,"32":-0.25221800804138184,"33":0.2415827363729477,"34":-0.3145088255405426,"35":-0.08936449885368347,"36":-0.23803025484085083,"37":-0.08825238049030304,"38":-0.16198532283306122,"39":-0.12431468069553375,"40":-0.01657402329146862,"41":-0.11321747303009033,"42":-0.24994514882564545,"43":-0.2111080139875412,"44":-0.3258623778820038,"45":-0.4602200388908386,"46":-0.4450162649154663,"47":-0.3015008866786957,"48":0.08457494527101517,"49":0.42789512872695923,"50":0.26886335015296936,"51":-0.04373947158455849,"52":-0.09015850722789764,"53":-0.21102377772331238,"54":-0.19526995718479156,"55":-0.23186470568180084,"56":-0.002693288493901491,"57":-0.1117018386721611,"58":0.23511573672294617,"59":0.11989929527044296,"60":-0.08634497225284576,"61":-0.18360954523086548,"62":-0.020495373755693436,"63":-0.18965034186840057,"64":-0.35993310809135437,"65":-0.501298725605011,"66":-0.03986608609557152,"67":-0.0057863350957632065,"68":0.2861144244670868,"69":0.20678164064884186,"70":-0.10633090883493423,"71":0.25796598196029663,"72":0.2570556104183197,"73":0.2831610441207886,"74":0.34924787282943726,"75":0.21874450147151947,"76":0.342459499835968,"77":0.20784012973308563,"78":0.30246230959892273,"79":0.2004578560590744,"80":-0.019892985001206398,"81":0.03645336627960205,"82":-0.309950053691864,"83":-0.3026314079761505,"84":-0.4540179669857025,"85":-0.23210522532463074,"86":-0.23032332956790924,"87":0.00046196350012905896,"88":-0.06799700111150742,"89":-0.03959522396326065,"90":-0.13679781556129456,"91":0.003924463875591755,"92":0.012669951654970646,"93":0.008994349278509617,"94":0.16531887650489807,"95":0.33073222637176514,"96":0.5078989863395691,"97":0.22212500870227814,"98":0.5111274719238281,"99":0.22403939068317413,"100":0.033425942063331604,"101":-0.24894025921821594,"102":-0.14847515523433685,"103":-0.42164215445518494,"104":-0.37931087613105774,"105":-0.3441349267959595,"106":-0.1368386298418045,"107":-0.04216978698968887,"108":-0.27032962441444397,"109":0.061859551817178726,"110":0.03073720447719097,"111":0.25468021631240845,"112":0.3953133225440979,"113":0.2546692490577698,"114":0.5014158487319946,"115":0.6829313635826111,"116":0.6653755307197571,"117":0.8321483135223389,"118":0.42104753851890564,"119":0.15929213166236877,"120":-0.289907842874527,"121":-0.37409988045692444,"122":-0.3319445848464966,"123":-0.27429622411727905,"124":-0.4418017268180847,"125":-0.2932322323322296,"126":-0.2615715265274048,"127":-0.09921412914991379,"128":0.03435385599732399,"129":0.19627441465854645,"130":0.4160029888153076,"131":0.16508103907108307,"132":0.0038308596704155207,"133":0.15714538097381592,"134":0.16281406581401825,"135":0.06924433261156082,"136":-0.04173050820827484,"137":0.17424938082695007,"138":0.26303285360336304,"139":0.19356869161128998,"140":-0.09681783616542816,"141":-0.3199196755886078,"142":-0.2000899463891983,"143":-0.30492207407951355,"144":0.23982468247413635,"145":0.005069701932370663,"146":-0.2229589819908142,"147":-0.3860601782798767,"148":0.011522593908011913,"149":0.40827828645706177,"150":-0.11251267045736313,"151":0.11596919596195221,"152":0.2501234710216522,"153":0.32517993450164795,"154":-0.034750066697597504,"155":0.008858367800712585,"156":0.002829964505508542,"157":0.15961073338985443,"158":-0.14542406797409058,"159":0.021096762269735336,"160":-0.3971866965293884,"161":-0.25487789511680603,"162":-0.229126438498497,"163":-0.16551657021045685,"164":-0.24231280386447906,"165":-0.3117317259311676,"166":-1.1188976764678955,"167":-0.7447224259376526,"168":0.09206622838973999,"169":0.24663002789020538,"170":0.21862630546092987,"171":0.3222242295742035,"172":0.12771031260490417,"173":0.32636508345603943,"174":0.5829337239265442,"175":0.5666261911392212,"176":0.15818004310131073,"177":-0.13740427792072296,"178":0.2316669523715973,"179":0.2576759159564972,"180":-0.157258078455925,"181":-0.052817825227975845,"182":-0.3847105801105499,"183":-0.1026759222149849,"184":-0.4315796196460724,"185":-0.3675718903541565,"186":-0.5586579442024231,"187":-0.9367674589157104,"188":0.8802248239517212,"189":-0.0007685497985221446,"190":0.1848302036523819,"191":0.21924853324890137,"192":0.16104619204998016,"193":0.2532258927822113,"194":0.33195698261260986,"195":-0.2943766415119171,"196":-0.24246670305728912,"197":0.13098570704460144,"198":0.12668345868587494,"199":-0.23299597203731537,"200":-0.12837134301662445,"201":-0.1274464726448059,"202":-0.06475557386875153,"203":-0.31766098737716675,"204":-0.5241773724555969,"205":-0.6414448022842407,"206":-0.47218963503837585,"207":-0.13673056662082672,"208":0.348056435585022,"209":0.5350710153579712,"210":0.45746544003486633,"211":0.24957729876041412,"212":0.20757754147052765,"213":0.03345131501555443,"214":-0.25325384736061096,"215":-0.363725870847702,"216":-0.5326039791107178,"217":-0.5301960110664368,"218":-0.16583488881587982,"219":-0.2435975968837738,"220":-0.3162152171134949,"221":-0.3169652819633484,"222":-0.2969023883342743,"223":-0.2669656574726105,"224":-0.464792400598526,"225":-0.3652249872684479,"226":-0.291962206363678,"227":0.20475919544696808,"228":-0.2406366765499115,"229":-0.008466704748570919,"230":0.8509559631347656,"231":-0.03556297346949577,"232":0.3111400604248047,"233":0.04766520857810974,"234":0.4846653342247009,"235":-0.14905837178230286,"236":0.05906421318650246,"237":-0.16344037652015686,"238":-0.19791202247142792,"239":-0.29134950041770935,"240":-0.1288617104291916,"241":-0.17466683685779572,"242":-0.04157736152410507,"243":-0.19698375463485718,"244":-0.2960514426231384,"245":-0.39354047179222107,"246":-0.6548987627029419,"247":-0.4125088155269623,"248":-0.3415183126926422,"249":-0.6978781819343567,"250":-0.4722321629524231,"251":-0.06545338779687881,"252":-0.18213613331317902,"253":-0.6510944366455078,"254":-0.8614422678947449,"255":-0.08934184163808823,"256":-0.053553927689790726,"257":-0.3815535008907318,"258":-0.02083071693778038,"259":-0.22460664808750153,"260":-0.17311792075634003,"261":-0.3000190258026123,"262":-0.1307002305984497,"263":-0.1482761800289154,"264":-0.16989047825336456,"265":-0.002412540139630437,"266":-0.12663906812667847,"267":0.12789367139339447,"268":-0.32332873344421387,"269":-0.6358497738838196,"270":-0.028703058138489723,"271":0.10688294470310211,"272":0.019352754577994347,"273":0.33865296840667725,"274":0.16688427329063416,"275":-0.028499336913228035,"276":-0.260146826505661,"277":0.16484366357326508,"278":0.0976240411400795,"279":-0.26073646545410156,"280":0.012190778739750385,"281":-0.37634456157684326,"282":-0.2248862236738205,"283":-0.11188189685344696,"284":0.19382129609584808,"285":-0.2734258770942688,"286":-0.3655579388141632,"287":-0.6759700179100037,"288":-0.6486673355102539,"289":-0.40988340973854065,"290":-0.03777723386883736,"291":0.3864874541759491,"292":0.9671991467475891,"293":0.14063946902751923,"294":-0.16424325108528137,"295":0.2349337935447693,"296":0.27382975816726685,"297":0.23471514880657196,"298":-0.3457551896572113,"299":-0.09351803362369537,"300":-0.2689805328845978,"301":-0.1706480234861374,"302":-0.33289432525634766,"303":-0.372103750705719,"304":-0.4227677881717682,"305":0.0010302847949787974,"306":-0.0012744514970108867,"307":-0.8557947278022766,"308":-0.8036578893661499,"309":-0.7395907044410706,"310":-0.678403913974762,"311":0.125229150056839,"312":0.3173336386680603,"313":0.24388225376605988,"314":0.6346630454063416,"315":0.3443475663661957,"316":0.17012302577495575,"317":0.4034305810928345,"318":-0.21148915588855743,"319":-0.24521967768669128,"320":-0.20570488274097443,"321":-0.4029732346534729,"322":-0.2864071726799011,"323":-0.3701229691505432,"324":-0.4348238408565521,"325":-0.23634657263755798,"326":-0.25844642519950867,"327":0.19549064338207245,"328":-0.36123326420783997,"329":-0.2391292005777359,"330":0.1313309669494629,"331":0.06656087189912796,"332":-0.07963433116674423,"333":0.24444334208965302,"334":-0.021195439621806145,"335":-0.06370288878679276,"336":-0.14845643937587738,"337":0.34486281871795654,"338":-0.31305018067359924,"339":-0.19387196004390717,"340":0.14257118105888367,"341":-0.1396416425704956,"342":-0.2699120342731476,"343":-0.08676987886428833,"344":-0.10958465933799744,"345":-0.23382216691970825,"346":-0.051145460456609726,"347":-0.1721717268228531,"348":-0.2778071463108063,"349":0.506064236164093,"350":0.6918347477912903,"351":0.46284323930740356,"352":0.041063904762268066,"353":-0.25984084606170654,"354":-0.10830234736204147,"355":-0.16966617107391357,"356":0.03683210909366608,"357":0.18457943201065063,"358":-0.219232439994812,"359":0.3596806526184082,"360":0.1565673053264618,"361":-0.1372235268354416,"362":-0.3915824890136719,"363":-0.36682000756263733,"364":0.0807783454656601,"365":0.17211468517780304,"366":0.10038942843675613,"367":-0.1256352663040161,"368":-0.2336397022008896,"369":-0.030447615310549736,"370":0.18977250158786774,"371":0.10263070464134216,"372":0.27827516198158264,"373":-0.14553004503250122,"374":-0.018500518053770065,"375":-0.002431758912280202,"376":0.27576708793640137,"377":0.3928949236869812,"378":0.17191317677497864,"379":0.15614734590053558,"380":0.04883408173918724,"381":-0.09561706334352493,"382":-0.2333928495645523,"383":-0.22645960748195648,"384":-0.32341066002845764,"385":-0.06811545789241791,"386":0.11224592477083206,"387":0.3909509778022766,"388":0.330853670835495,"389":0.20803791284561157,"390":0.2454310804605484,"391":-0.23969285190105438,"392":-0.017600344493985176,"393":0.3012130856513977,"394":0.10965404659509659,"395":0.07505631446838379,"396":0.4692361652851105,"397":0.44664132595062256,"398":0.06687405705451965,"399":0.2739426791667938}},"7":{"bias":1.8507694005966187,"weights":{"0":-0.008417799137532711,"1":-0.14749731123447418,"2":0.018788056448101997,"3":0.10535051673650742,"4":-0.2260746955871582,"5":-0.3002599775791168,"6":-0.057058293372392654,"7":-0.19230908155441284,"8":0.08703632652759552,"9":0.3944133520126343,"10":-0.15096881985664368,"11":-0.08633269369602203,"12":-0.018310807645320892,"13":0.11692743748426437,"14":0.4621235430240631,"15":0.44865185022354126,"16":0.17386938631534576,"17":0.2474423199892044,"18":-0.052512675523757935,"19":0.050252098590135574,"20":-0.23279668390750885,"21":-0.2704015374183655,"22":-0.23236659169197083,"23":-0.2647554278373718,"24":-0.47436273097991943,"25":-0.421996146440506,"26":-0.028339549899101257,"27":-0.27706068754196167,"28":0.01869461126625538,"29":0.14628063142299652,"30":-0.037979308515787125,"31":-0.36915433406829834,"32":-0.45123955607414246,"33":-0.3659835755825043,"34":-0.12879061698913574,"35":0.024921994656324387,"36":0.23373913764953613,"37":0.10361624509096146,"38":-0.20129148662090302,"39":0.1596313863992691,"40":-0.05518042668700218,"41":-0.36990007758140564,"42":-0.4210492968559265,"43":-0.6856566071510315,"44":-0.3617111146450043,"45":-0.8334816694259644,"46":-0.5460395812988281,"47":-0.6997073888778687,"48":-0.3262178301811218,"49":-1.1811721324920654,"50":-1.6369600296020508,"51":-1.2477059364318848,"52":-1.0746570825576782,"53":-0.34838610887527466,"54":-0.5090182423591614,"55":-0.12158863991498947,"56":-0.05910622328519821,"57":0.06938259303569794,"58":0.15327239036560059,"59":0.08258995413780212,"60":-0.13349555432796478,"61":-0.4612354636192322,"62":-0.5771792531013489,"63":-0.10721078515052795,"64":-0.021555695682764053,"65":-0.32334965467453003,"66":-0.47909244894981384,"67":-0.02755112387239933,"68":-0.7775521874427795,"69":-0.5526324510574341,"70":-0.5440059900283813,"71":-0.6857487559318542,"72":-0.4819912314414978,"73":0.003895437577739358,"74":-0.5846043229103088,"75":-0.007257688324898481,"76":-0.38057848811149597,"77":-0.0444343201816082,"78":-0.021455813199281693,"79":0.13239720463752747,"80":-0.18133056163787842,"81":-0.48020267486572266,"82":-0.10033229738473892,"83":-0.5400571823120117,"84":-0.49740371108055115,"85":-0.33013564348220825,"86":-0.3295597732067108,"87":-1.0118889808654785,"88":-0.8298193216323853,"89":-1.0051559209823608,"90":-0.33002638816833496,"91":-0.22118504345417023,"92":-0.12939266860485077,"93":-0.12829627096652985,"94":-0.6003725528717041,"95":-0.63327556848526,"96":-0.6202173233032227,"97":-0.07025447487831116,"98":0.17634917795658112,"99":-0.1561630666255951,"100":-0.35589444637298584,"101":-0.5347843170166016,"102":0.31652578711509705,"103":-0.25175151228904724,"104":0.06693322956562042,"105":0.26687633991241455,"106":-0.20622649788856506,"107":-1.0217411518096924,"108":-0.5168259143829346,"109":-0.27825990319252014,"110":0.1880103051662445,"111":-0.4005403220653534,"112":-0.05773686617612839,"113":-0.10692707449197769,"114":-0.5316327214241028,"115":-0.5446314811706543,"116":-0.22482949495315552,"117":0.14776457846164703,"118":0.13012520968914032,"119":-0.15797485411167145,"120":-0.216283917427063,"121":-0.3851112127304077,"122":-0.047837309539318085,"123":0.23704837262630463,"124":0.8758696913719177,"125":0.8216310143470764,"126":-0.031987130641937256,"127":-0.5176617503166199,"128":0.1480206400156021,"129":0.34979432821273804,"130":0.8677985668182373,"131":1.0056846141815186,"132":0.4755721986293793,"133":0.28243106603622437,"134":-0.2253333330154419,"135":-0.06822962313890457,"136":-0.016834115609526634,"137":0.05617246404290199,"138":0.015018230304121971,"139":-0.05594630911946297,"140":0.09881818294525146,"141":-0.1551508605480194,"142":-0.3268934488296509,"143":-0.23887990415096283,"144":0.09553907066583633,"145":-0.02125440537929535,"146":-0.5089290142059326,"147":-1.540216326713562,"148":-0.5242777466773987,"149":-0.173002228140831,"150":-0.06296681612730026,"151":-0.08503880351781845,"152":0.01786351017653942,"153":0.15286210179328918,"154":-0.11768008768558502,"155":-0.1656767576932907,"156":-0.12265446037054062,"157":0.27028191089630127,"158":0.21153709292411804,"159":0.17741608619689941,"160":0.14881069958209991,"161":0.37491464614868164,"162":0.32943689823150635,"163":0.4616616368293762,"164":0.4806923270225525,"165":0.09894564747810364,"166":-0.44194644689559937,"167":-0.9924836158752441,"168":0.0382598452270031,"169":0.6132583022117615,"170":0.607199490070343,"171":0.6470441818237305,"172":-0.26724693179130554,"173":-0.5898920297622681,"174":-0.731212317943573,"175":-0.3883531391620636,"176":0.16949774324893951,"177":0.5106614232063293,"178":0.4504220187664032,"179":0.21556058526039124,"180":-0.06158674880862236,"181":0.27033787965774536,"182":0.20993687212467194,"183":-0.17107738554477692,"184":0.010390004143118858,"185":-0.42891359329223633,"186":-0.5725770592689514,"187":-0.9573150277137756,"188":0.3411911725997925,"189":-0.49830034375190735,"190":-0.0070432815700769424,"191":0.2352857142686844,"192":-0.8755933046340942,"193":-0.5589174032211304,"194":-0.0714251846075058,"195":-0.21422190964221954,"196":0.1035456731915474,"197":0.6825716495513916,"198":0.6356211304664612,"199":0.5744327902793884,"200":0.1821068525314331,"201":0.32828256487846375,"202":-0.2766035497188568,"203":-0.38252124190330505,"204":-0.5852833986282349,"205":-0.47555649280548096,"206":-0.459017276763916,"207":0.12752237915992737,"208":0.2656935751438141,"209":0.5071954727172852,"210":0.7555015683174133,"211":0.40853819251060486,"212":-0.4240134060382843,"213":-0.05901595205068588,"214":0.4666502773761749,"215":0.39202967286109924,"216":0.4361873269081116,"217":0.3435240387916565,"218":0.7371417284011841,"219":0.1908106654882431,"220":0.1850038468837738,"221":0.7915703654289246,"222":-0.024261316284537315,"223":0.0913660079240799,"224":-0.1726074516773224,"225":0.3402882218360901,"226":0.584823489189148,"227":0.5960586667060852,"228":1.2652899026870728,"229":1.1117867231369019,"230":1.0235458612442017,"231":0.8445197939872742,"232":0.5878497362136841,"233":-0.5129380226135254,"234":0.026637349277734756,"235":0.16414639353752136,"236":-0.3292146623134613,"237":-0.2335241287946701,"238":0.13057635724544525,"239":0.3596302270889282,"240":-0.14914333820343018,"241":0.20316478610038757,"242":-0.0039681000635027885,"243":0.06606205552816391,"244":-0.1597258597612381,"245":0.2454329878091812,"246":0.3801281452178955,"247":0.30983906984329224,"248":0.001754516619257629,"249":0.2274777740240097,"250":1.1691701412200928,"251":0.49273568391799927,"252":0.17242109775543213,"253":-0.32774585485458374,"254":0.28606414794921875,"255":-0.20892517268657684,"256":-0.350554883480072,"257":-0.44929471611976624,"258":-0.7181165814399719,"259":-0.6039656400680542,"260":-0.41162535548210144,"261":-0.7485676407814026,"262":-0.4098210036754608,"263":-0.24023716151714325,"264":0.05042091757059097,"265":-0.16444532573223114,"266":-0.007062188349664211,"267":-0.456271767616272,"268":-0.2996821105480194,"269":-0.25038281083106995,"270":0.6560813784599304,"271":0.5513284802436829,"272":-0.19660651683807373,"273":-0.4082019627094269,"274":-0.29951080679893494,"275":0.056287117302417755,"276":0.11845874786376953,"277":0.07640329003334045,"278":0.07135602086782455,"279":-0.48147690296173096,"280":-0.22125189006328583,"281":-0.3779703676700592,"282":-0.34627699851989746,"283":-0.30055394768714905,"284":0.12129265069961548,"285":0.29684707522392273,"286":-0.20223236083984375,"287":-0.2670905292034149,"288":-0.2506793141365051,"289":-0.2499781996011734,"290":0.7367514967918396,"291":0.28274261951446533,"292":-0.3135696053504944,"293":0.3860909938812256,"294":0.7119281888008118,"295":-0.10886988043785095,"296":-0.40188077092170715,"297":0.04120991379022598,"298":-0.27226710319519043,"299":-0.6053136587142944,"300":-0.17892175912857056,"301":-0.43971407413482666,"302":-0.710166335105896,"303":-0.42236995697021484,"304":0.0656685158610344,"305":0.08021918684244156,"306":-0.33838096261024475,"307":-0.3380965292453766,"308":-0.30268001556396484,"309":0.3382933437824249,"310":0.5876742601394653,"311":0.08185388147830963,"312":0.5068956017494202,"313":0.21408820152282715,"314":0.24686063826084137,"315":-0.17588788270950317,"316":-0.2864533066749573,"317":-0.12497718632221222,"318":-0.13875074684619904,"319":-0.5293698310852051,"320":-0.022676091641187668,"321":-0.4857707917690277,"322":-0.7768831849098206,"323":-0.2903587818145752,"324":-0.22751446068286896,"325":-0.39407461881637573,"326":0.16160815954208374,"327":0.01098779495805502,"328":0.0020087226293981075,"329":-0.06682103872299194,"330":0.08274167776107788,"331":0.05135217308998108,"332":0.7711413502693176,"333":-0.2384873628616333,"334":0.1764964610338211,"335":0.16958293318748474,"336":0.16333946585655212,"337":-0.2125132977962494,"338":-0.22162963449954987,"339":-0.35198813676834106,"340":-0.17325372993946075,"341":-0.17326180636882782,"342":-0.12140678614377975,"343":-0.35460609197616577,"344":-0.415856271982193,"345":-0.6772852540016174,"346":0.1582774668931961,"347":-0.19699016213417053,"348":-0.47954806685447693,"349":-0.31549689173698425,"350":-0.2065594345331192,"351":-0.07749951630830765,"352":-0.3918408751487732,"353":-0.2272435575723648,"354":-0.015187911689281464,"355":0.30432164669036865,"356":-0.10132822394371033,"357":-0.33045151829719543,"358":-0.3453657329082489,"359":-0.3314848840236664,"360":-0.2577416002750397,"361":-0.31455284357070923,"362":-0.3729373812675476,"363":-0.19709312915802002,"364":-0.0709676742553711,"365":-0.6710315346717834,"366":-0.5621581077575684,"367":-0.5900110602378845,"368":-1.1009188890457153,"369":-1.2744683027267456,"370":-1.089439034461975,"371":-0.7015246748924255,"372":-0.7638214826583862,"373":-0.6451715230941772,"374":-0.6446524262428284,"375":-0.5249621868133545,"376":-0.3226069211959839,"377":-0.4480486214160919,"378":-0.2627457082271576,"379":-0.10156524926424026,"380":-0.032130349427461624,"381":-0.11143286526203156,"382":-0.20621904730796814,"383":-0.47860586643218994,"384":-0.11281110346317291,"385":-0.4952664375305176,"386":-0.8020514845848083,"387":-1.0785976648330688,"388":-1.280104398727417,"389":-1.3266242742538452,"390":-0.473568320274353,"391":-0.33561578392982483,"392":0.02264399267733097,"393":-0.11715646088123322,"394":-0.04658640921115875,"395":-0.06581726670265198,"396":-0.18663586676120758,"397":-0.04220566898584366,"398":0.06233970820903778,"399":-0.1678255945444107}},"8":{"bias":3.928913116455078,"weights":{"0":0.12391206622123718,"1":-0.05258475989103317,"2":-0.017450258135795593,"3":-0.22494038939476013,"4":-0.317267507314682,"5":-0.38076525926589966,"6":0.013790440745651722,"7":-0.24606995284557343,"8":-0.07390645891427994,"9":-0.15490227937698364,"10":0.007995701394975185,"11":-0.6759838461875916,"12":0.014722159132361412,"13":-0.05352244898676872,"14":-0.27768027782440186,"15":-0.23169220983982086,"16":-0.50099116563797,"17":-0.1495431661605835,"18":-0.10974075645208359,"19":0.19085632264614105,"20":0.3109772503376007,"21":0.15875780582427979,"22":0.39977750182151794,"23":0.5782214403152466,"24":0.24628859758377075,"25":0.19807836413383484,"26":0.2470046579837799,"27":-0.21839086711406708,"28":-0.2989948093891144,"29":-0.27020254731178284,"30":-0.6039348840713501,"31":-0.29834434390068054,"32":-0.24271591007709503,"33":-0.40771111845970154,"34":-0.466031014919281,"35":-0.48915842175483704,"36":-0.6518185138702393,"37":-0.2454284280538559,"38":-0.14363612234592438,"39":0.09963630884885788,"40":0.112653449177742,"41":0.16346020996570587,"42":0.3659535348415375,"43":0.4367157220840454,"44":0.8914756774902344,"45":0.3478661775588989,"46":-0.2399870902299881,"47":-0.5777758359909058,"48":-0.6993609070777893,"49":-0.3755508363246918,"50":0.0973968431353569,"51":-0.35938945412635803,"52":-0.1618412584066391,"53":-0.5922073125839233,"54":-0.5402208566665649,"55":-0.2016737163066864,"56":-0.6367849111557007,"57":-0.2925834059715271,"58":-0.33729541301727295,"59":-0.09692671149969101,"60":0.3275534510612488,"61":0.5493309497833252,"62":0.7829586863517761,"63":0.5744831562042236,"64":1.0635416507720947,"65":0.5576683282852173,"66":0.1833169311285019,"67":-0.1768908053636551,"68":0.21537023782730103,"69":0.07487645745277405,"70":0.1672215759754181,"71":-0.3308059573173523,"72":-0.19501473009586334,"73":-0.05929207429289818,"74":-0.43004080653190613,"75":-0.2078930288553238,"76":-0.47724393010139465,"77":0.06619898974895477,"78":-0.3961866796016693,"79":0.07122290879487991,"80":0.19007618725299835,"81":0.10620874166488647,"82":0.41992446780204773,"83":0.7846263647079468,"84":1.037578821182251,"85":0.8358412384986877,"86":0.30204856395721436,"87":0.040673162788152695,"88":-0.21753674745559692,"89":0.36498960852622986,"90":-0.11281175166368484,"91":-0.2615283727645874,"92":0.3712824583053589,"93":-0.13675642013549805,"94":-0.3458918333053589,"95":-0.01631440781056881,"96":-0.5967584848403931,"97":0.07076650857925415,"98":-0.3388947546482086,"99":-0.22334490716457367,"100":-0.24246135354042053,"101":-0.192661315202713,"102":0.5502840876579285,"103":0.4867677688598633,"104":0.529981791973114,"105":0.5189788341522217,"106":0.26143354177474976,"107":-0.20699085295200348,"108":0.4770028591156006,"109":0.24419519305229187,"110":0.29288747906684875,"111":-0.2337299883365631,"112":0.06884725391864777,"113":0.008031090721487999,"114":0.08666805177927017,"115":0.3636476993560791,"116":-0.4261085093021393,"117":-0.22323904931545258,"118":-0.30217841267585754,"119":-0.20251043140888214,"120":-0.0066274795681238174,"121":0.05744190514087677,"122":-0.31603944301605225,"123":0.17327535152435303,"124":0.5876810550689697,"125":0.2253326177597046,"126":-0.38159507513046265,"127":-0.5485653877258301,"128":-0.6464659571647644,"129":-0.09972922503948212,"130":0.22877582907676697,"131":0.27175071835517883,"132":-0.20166850090026855,"133":0.010840254835784435,"134":-0.3184877336025238,"135":0.2936176061630249,"136":0.5614339709281921,"137":-0.2188146561384201,"138":0.11180756986141205,"139":-0.2570793926715851,"140":-0.08998094499111176,"141":-0.5340487957000732,"142":-0.7315918207168579,"143":-0.17998796701431274,"144":0.6232679486274719,"145":0.42859888076782227,"146":-0.1749361753463745,"147":-0.36778268218040466,"148":-0.573024570941925,"149":-0.4579482674598694,"150":0.0917484313249588,"151":-0.011684661731123924,"152":-0.1876710057258606,"153":-0.02213239297270775,"154":-0.22174817323684692,"155":-0.149257093667984,"156":-0.34209689497947693,"157":-0.3227004110813141,"158":0.18864083290100098,"159":-0.16044998168945312,"160":-0.5144814848899841,"161":-0.5115605592727661,"162":-1.1738454103469849,"163":-0.4232916831970215,"164":-0.34053871035575867,"165":-0.281631201505661,"166":-0.39418816566467285,"167":-0.7504456639289856,"168":-0.4646928906440735,"169":-0.6234887838363647,"170":-0.1483156979084015,"171":-0.9359903335571289,"172":-0.35286518931388855,"173":-0.6723985075950623,"174":-0.17052939534187317,"175":-0.02122386172413826,"176":-0.1850346475839615,"177":0.32701462507247925,"178":-0.28352832794189453,"179":0.03739221394062042,"180":-0.9981850385665894,"181":-0.8310997486114502,"182":-1.0323889255523682,"183":-0.9590821266174316,"184":-0.6774947643280029,"185":-0.44509875774383545,"186":-0.21710768342018127,"187":-0.7583423256874084,"188":-0.4501021206378937,"189":-0.3061542510986328,"190":-0.425866037607193,"191":0.019580429419875145,"192":-0.543354332447052,"193":-0.4470042586326599,"194":0.012469621375203133,"195":-0.1705547273159027,"196":0.2285999208688736,"197":0.17365597188472748,"198":-0.013806845061480999,"199":0.09893866628408432,"200":-0.28627076745033264,"201":-0.4619447588920593,"202":-0.7446755170822144,"203":-0.37831705808639526,"204":-0.3438711166381836,"205":-0.28170275688171387,"206":-0.28732553124427795,"207":-0.5556321144104004,"208":-0.4841846227645874,"209":-0.7570092678070068,"210":-0.1481328159570694,"211":0.10085050761699677,"212":0.1394600123167038,"213":-0.30168795585632324,"214":-0.06884927302598953,"215":0.349720299243927,"216":0.22518420219421387,"217":-0.003879408584907651,"218":0.3534145653247833,"219":0.3312259018421173,"220":-0.6100781559944153,"221":-0.3661291003227234,"222":-0.6782601475715637,"223":-0.5206198692321777,"224":-0.19073708355426788,"225":-0.4887813627719879,"226":-0.25464555621147156,"227":-0.26289400458335876,"228":-0.46748462319374084,"229":-0.3385426700115204,"230":-0.4390661418437958,"231":-0.11151784658432007,"232":-0.296887069940567,"233":0.19757184386253357,"234":0.24780678749084473,"235":0.6044083833694458,"236":-0.4624097943305969,"237":0.25764063000679016,"238":0.008153922855854034,"239":0.3601066470146179,"240":-0.7170313000679016,"241":-0.816194474697113,"242":-0.7144230008125305,"243":-0.6338827610015869,"244":-0.15030749142169952,"245":-0.7849103212356567,"246":-0.244146928191185,"247":0.11098968982696533,"248":-0.4323120713233948,"249":-0.8846937417984009,"250":0.14065328240394592,"251":0.09086602181196213,"252":-0.18556253612041473,"253":0.5955395698547363,"254":0.4565732777118683,"255":0.01171035971492529,"256":-0.020729945972561836,"257":0.3475765883922577,"258":0.5193586945533752,"259":0.43025389313697815,"260":-0.8059656023979187,"261":-0.6149870753288269,"262":-1.1018682718276978,"263":-0.7007012963294983,"264":-0.16248778998851776,"265":-0.9541283249855042,"266":0.03410768136382103,"267":0.030308127403259277,"268":-0.45052576065063477,"269":-0.45100805163383484,"270":0.4698341488838196,"271":-0.2510826587677002,"272":-0.10894562304019928,"273":0.8312547206878662,"274":-0.19902613759040833,"275":-0.26677602529525757,"276":0.058912333101034164,"277":-0.1995210200548172,"278":0.003460736945271492,"279":0.38630542159080505,"280":-0.49659261107444763,"281":-0.8416522741317749,"282":-0.7545062899589539,"283":-0.5755394101142883,"284":-0.9133379459381104,"285":-0.8236563801765442,"286":-0.3358112871646881,"287":-0.17880281805992126,"288":-0.2785452902317047,"289":-0.17014509439468384,"290":-0.16349294781684875,"291":-0.051726438105106354,"292":0.31320732831954956,"293":-0.0552394837141037,"294":-0.039485324174165726,"295":-0.024615338072180748,"296":-0.10467268526554108,"297":-0.36417385935783386,"298":-0.1651083528995514,"299":0.3176230788230896,"300":-0.343725323677063,"301":-0.442616730928421,"302":-0.699176013469696,"303":-0.30061617493629456,"304":-0.9348778128623962,"305":-0.5258180499076843,"306":-0.5494963526725769,"307":-0.11976298689842224,"308":-0.1616198867559433,"309":0.0554998554289341,"310":0.06849831342697144,"311":0.03876218944787979,"312":0.16308414936065674,"313":0.0009106607176363468,"314":-0.22245119512081146,"315":0.2580196261405945,"316":-0.07492142915725708,"317":-0.6721042990684509,"318":-0.19810783863067627,"319":-0.04765407741069794,"320":-0.10711885988712311,"321":-0.02981199510395527,"322":-0.37470051646232605,"323":-0.5461706519126892,"324":-0.47439107298851013,"325":-0.35788634419441223,"326":-0.3725022077560425,"327":-0.1217704564332962,"328":-0.006258753128349781,"329":0.05089636892080307,"330":0.2403537780046463,"331":0.33069077134132385,"332":-0.4691781997680664,"333":-0.25242558121681213,"334":-0.017047561705112457,"335":-0.3314134180545807,"336":-0.4525676667690277,"337":-0.7064778804779053,"338":-0.3750300407409668,"339":-0.2946280241012573,"340":-0.029733464121818542,"341":0.27690598368644714,"342":0.045365214347839355,"343":-0.11059759557247162,"344":-0.37629345059394836,"345":-0.589035153388977,"346":0.11711209267377853,"347":0.07281455397605896,"348":-0.45461806654930115,"349":-0.0695294588804245,"350":0.31831616163253784,"351":0.758309006690979,"352":-0.3338891863822937,"353":-0.22619479894638062,"354":0.09169356524944305,"355":-0.1358087956905365,"356":-0.3306863009929657,"357":-0.7947894930839539,"358":-0.10081412643194199,"359":-0.34203094244003296,"360":0.10752130299806595,"361":0.4643900394439697,"362":0.4588393568992615,"363":0.23722487688064575,"364":0.02299412153661251,"365":-0.003199978731572628,"366":0.6923283338546753,"367":0.8573391437530518,"368":0.22878269851207733,"369":0.09904563426971436,"370":0.39267444610595703,"371":0.5482618808746338,"372":0.2508191466331482,"373":0.025099316611886024,"374":-0.5184393525123596,"375":0.01949833147227764,"376":0.031150994822382927,"377":-1.0151021480560303,"378":-0.38242021203041077,"379":0.018338924273848534,"380":0.01232515461742878,"381":0.300288587808609,"382":0.5786038041114807,"383":0.5550557374954224,"384":0.5370312929153442,"385":0.26577332615852356,"386":0.19219739735126495,"387":0.39591658115386963,"388":0.42713311314582825,"389":0.082255519926548,"390":0.2915637195110321,"391":-0.01783783920109272,"392":-0.007835343480110168,"393":0.21346694231033325,"394":0.33621299266815186,"395":-0.04708025977015495,"396":-0.5321258306503296,"397":-0.10507410764694214,"398":-0.0009382317657582462,"399":0.017242886126041412}},"9":{"bias":1.9581282138824463,"weights":{"0":0.15486454963684082,"1":-0.2014620453119278,"2":-0.5548661351203918,"3":0.07871577143669128,"4":-0.13391804695129395,"5":-0.21292011439800262,"6":-0.18200936913490295,"7":0.28772127628326416,"8":0.20968671143054962,"9":0.2866813540458679,"10":0.4363499879837036,"11":0.5528829097747803,"12":0.091923289000988,"13":-0.11859772354364395,"14":-0.032191384583711624,"15":-0.30817821621894836,"16":-0.15728050470352173,"17":0.09816735237836838,"18":-0.175552099943161,"19":-0.17514684796333313,"20":0.14465543627738953,"21":-0.051646288484334946,"22":0.19886668026447296,"23":0.03856378048658371,"24":0.19663789868354797,"25":0.06230887398123741,"26":-0.2203640639781952,"27":-0.345742791891098,"28":-0.22159041464328766,"29":-0.19065558910369873,"30":0.12613412737846375,"31":0.26436352729797363,"32":0.16442856192588806,"33":0.08007718622684479,"34":-0.2231849730014801,"35":-0.48340779542922974,"36":-0.3095518946647644,"37":-0.20773868262767792,"38":0.21214626729488373,"39":-0.1287652552127838,"40":0.05960237607359886,"41":0.6185166239738464,"42":0.3750128149986267,"43":0.05306246876716614,"44":0.4270344376564026,"45":-0.007285731844604015,"46":-0.20392905175685883,"47":-0.1237788200378418,"48":0.39143598079681396,"49":0.5254860520362854,"50":0.30524131655693054,"51":0.16892783343791962,"52":-0.29084283113479614,"53":-0.10448755323886871,"54":0.1492149978876114,"55":0.21652944386005402,"56":-0.24770286679267883,"57":0.27920591831207275,"58":0.12324175983667374,"59":0.025223346427083015,"60":0.018070131540298462,"61":0.1643628031015396,"62":0.2693263292312622,"63":0.09372575581073761,"64":-0.02474598027765751,"65":0.07313243299722672,"66":0.37071818113327026,"67":0.28692978620529175,"68":0.5067879557609558,"69":0.5283699035644531,"70":0.22462433576583862,"71":-0.06080492585897446,"72":0.6284138560295105,"73":0.7560904026031494,"74":0.3470499813556671,"75":0.21643581986427307,"76":0.35000401735305786,"77":0.3469487130641937,"78":0.6329880356788635,"79":0.006915511563420296,"80":0.22326971590518951,"81":0.3562394082546234,"82":0.441548228263855,"83":-0.0507904589176178,"84":-0.31682854890823364,"85":0.18619298934936523,"86":0.4268237352371216,"87":0.05282604694366455,"88":0.6611230373382568,"89":0.7657377123832703,"90":0.5140277743339539,"91":0.8489542007446289,"92":0.14158423244953156,"93":0.7378607988357544,"94":0.5469262599945068,"95":0.5416529774665833,"96":0.4577116072177887,"97":0.5514034032821655,"98":0.5602822303771973,"99":0.38154059648513794,"100":0.46089425683021545,"101":0.8213227391242981,"102":0.059379395097494125,"103":0.2339034378528595,"104":-0.5391318202018738,"105":-0.07263341546058655,"106":0.1754332184791565,"107":-0.06509056687355042,"108":0.6958263516426086,