{"sizes":[400,30,10],"layers":[{"0":{},"1":{},"2":{},"3":{},"4":{},"5":{},"6":{},"7":{},"8":{},"9":{},"10":{},"11":{},"12":{},"13":{},"14":{},"15":{},"16":{},"17":{},"18":{},"19":{},"20":{},"21":{},"22":{},"23":{},"24":{},"25":{},"26":{},"27":{},"28":{},"29":{},"30":{},"31":{},"32":{},"33":{},"34":{},"35":{},"36":{},"37":{},"38":{},"39":{},"40":{},"41":{},"42":{},"43":{},"44":{},"45":{},"46":{},"47":{},"48":{},"49":{},"50":{},"51":{},"52":{},"53":{},"54":{},"55":{},"56":{},"57":{},"58":{},"59":{},"60":{},"61":{},"62":{},"63":{},"64":{},"65":{},"66":{},"67":{},"68":{},"69":{},"70":{},"71":{},"72":{},"73":{},"74":{},"75":{},"76":{},"77":{},"78":{},"79":{},"80":{},"81":{},"82":{},"83":{},"84":{},"85":{},"86":{},"87":{},"88":{},"89":{},"90":{},"91":{},"92":{},"93":{},"94":{},"95":{},"96":{},"97":{},"98":{},"99":{},"100":{},"101":{},"102":{},"103":{},"104":{},"105":{},"106":{},"107":{},"108":{},"109":{},"110":{},"111":{},"112":{},"113":{},"114":{},"115":{},"116":{},"117":{},"118":{},"119":{},"120":{},"121":{},"122":{},"123":{},"124":{},"125":{},"126":{},"127":{},"128":{},"129":{},"130":{},"131":{},"132":{},"133":{},"134":{},"135":{},"136":{},"137":{},"138":{},"139":{},"140":{},"141":{},"142":{},"143":{},"144":{},"145":{},"146":{},"147":{},"148":{},"149":{},"150":{},"151":{},"152":{},"153":{},"154":{},"155":{},"156":{},"157":{},"158":{},"159":{},"160":{},"161":{},"162":{},"163":{},"164":{},"165":{},"166":{},"167":{},"168":{},"169":{},"170":{},"171":{},"172":{},"173":{},"174":{},"175":{},"176":{},"177":{},"178":{},"179":{},"180":{},"181":{},"182":{},"183":{},"184":{},"185":{},"186":{},"187":{},"188":{},"189":{},"190":{},"191":{},"192":{},"193":{},"194":{},"195":{},"196":{},"197":{},"198":{},"199":{},"200":{},"201":{},"202":{},"203":{},"204":{},"205":{},"206":{},"207":{},"208":{},"209":{},"210":{},"211":{},"212":{},"213":{},"214":{},"215":{},"216":{},"217":{},"218":{},"219":{},"220":{},"221":{},"222":{},"223":{},"224":{},"225":{},"226":{},"227":{},"228":{},"229":{},"230":{},"231":{},"232":{},"233":{},"234":{},"235":{},"236":{},"237":{},"238":{},"239":{},"240":{},"241":{},"242":{},"243":{},"244":{},"245":{},"246":{},"247":{},"248":{},"249":{},"250":{},"251":{},"252":{},"253":{},"254":{},"255":{},"256":{},"257":{},"258":{},"259":{},"260":{},"261":{},"262":{},"263":{},"264":{},"265":{},"266":{},"267":{},"268":{},"269":{},"270":{},"271":{},"272":{},"273":{},"274":{},"275":{},"276":{},"277":{},"278":{},"279":{},"280":{},"281":{},"282":{},"283":{},"284":{},"285":{},"286":{},"287":{},"288":{},"289":{},"290":{},"291":{},"292":{},"293":{},"294":{},"295":{},"296":{},"297":{},"298":{},"299":{},"300":{},"301":{},"302":{},"303":{},"304":{},"305":{},"306":{},"307":{},"308":{},"309":{},"310":{},"311":{},"312":{},"313":{},"314":{},"315":{},"316":{},"317":{},"318":{},"319":{},"320":{},"321":{},"322":{},"323":{},"324":{},"325":{},"326":{},"327":{},"328":{},"329":{},"330":{},"331":{},"332":{},"333":{},"334":{},"335":{},"336":{},"337":{},"338":{},"339":{},"340":{},"341":{},"342":{},"343":{},"344":{},"345":{},"346":{},"347":{},"348":{},"349":{},"350":{},"351":{},"352":{},"353":{},"354":{},"355":{},"356":{},"357":{},"358":{},"359":{},"360":{},"361":{},"362":{},"363":{},"364":{},"365":{},"366":{},"367":{},"368":{},"369":{},"370":{},"371":{},"372":{},"373":{},"374":{},"375":{},"376":{},"377":{},"378":{},"379":{},"380":{},"381":{},"382":{},"383":{},"384":{},"385":{},"386":{},"387":{},"388":{},"389":{},"390":{},"391":{},"392":{},"393":{},"394":{},"395":{},"396":{},"397":{},"398":{},"399":{}},{"0":{"bias":-0.4402434229850769,"weights":{"0":0.585287868976593,"1":1.9250205755233765,"2":-1.011587142944336,"3":-9.474991798400879,"4":-8.348410606384277,"5":2.2225875854492188,"6":-0.3547685146331787,"7":1.7697694301605225,"8":-2.374399423599243,"9":1.252081274986267,"10":-3.2175376415252686,"11":-11.169480323791504,"12":4.147793292999268,"13":-3.5627095699310303,"14":-6.6576361656188965,"15":0.4481031894683838,"16":-2.3169057369232178,"17":2.0993435382843018,"18":1.814926266670227,"19":-0.42558810114860535,"20":-1.102950930595398,"21":-2.765526056289673,"22":-4.573919773101807,"23":-5.7352423667907715,"24":-11.74510383605957,"25":-2.0050134658813477,"26":-0.7493988275527954,"27":1.8132226467132568,"28":0.3268621265888214,"29":2.292480945587158,"30":5.053244590759277,"31":-7.552903652191162,"32":-6.510957717895508,"33":0.28520697355270386,"34":-1.7733731269836426,"35":-0.9836070537567139,"36":-2.481279134750366,"37":1.28504478931427,"38":-4.114042282104492,"39":-3.0077548027038574,"40":0.36185017228126526,"41":-7.438115119934082,"42":-8.837583541870117,"43":-7.981048583984375,"44":-4.934877395629883,"45":1.4838043451309204,"46":0.3086319863796234,"47":2.3897509574890137,"48":-3.2126901149749756,"49":0.4587257206439972,"50":3.995999336242676,"51":3.4289138317108154,"52":-7.150721549987793,"53":6.4265360832214355,"54":4.773929119110107,"55":1.9009160995483398,"56":5.344979286193848,"57":8.22056770324707,"58":0.5277513861656189,"59":0.10013765096664429,"60":-3.414170026779175,"61":-5.215214252471924,"62":-0.10678867995738983,"63":-1.4674296379089355,"64":-9.717031478881836,"65":3.7129106521606445,"66":-5.9601945877075195,"67":-0.042312152683734894,"68":0.3338816165924072,"69":0.08010254800319672,"70":-1.9216227531433105,"71":-2.8687984943389893,"72":-0.29186561703681946,"73":-0.9917572736740112,"74":-0.6115966439247131,"75":2.99627423286438,"76":-0.06396602839231491,"77":-8.782177925109863,"78":-8.04262924194336,"79":-4.914561748504639,"80":-0.6956175565719604,"81":-9.152835845947266,"82":-8.062814712524414,"83":4.332844257354736,"84":-10.463011741638184,"85":-8.613327980041504,"86":-1.0944294929504395,"87":-2.417349100112915,"88":-0.1570422500371933,"89":3.5405967235565186,"90":-6.518566131591797,"91":-4.4052042961120605,"92":-7.144671440124512,"93":-1.1956636905670166,"94":-2.2320454120635986,"95":0.5593734979629517,"96":1.007365107536316,"97":-7.792888641357422,"98":-5.481224536895752,"99":-0.9631263613700867,"100":-1.283576250076294,"101":-4.856993675231934,"102":-3.905331611633301,"103":-0.7382712364196777,"104":-3.0105273723602295,"105":1.9956789016723633,"106":0.8086742162704468,"107":4.759685039520264,"108":0.4906080365180969,"109":-2.7135231494903564,"110":-4.03305721282959,"111":0.340483695268631,"112":-0.3580094277858734,"113":1.8814774751663208,"114":2.1190342903137207,"115":1.5359447002410889,"116":-5.550872325897217,"117":-1.2077984809875488,"118":-3.3251819610595703,"119":-0.74464350938797,"120":-6.382839202880859,"121":1.439917802810669,"122":4.692466735839844,"123":3.255784749984741,"124":-1.1830835342407227,"125":-2.1757822036743164,"126":1.1240330934524536,"127":-3.042435884475708,"128":2.5371265411376953,"129":-0.35300999879837036,"130":2.4648001194000244,"131":1.2428961992263794,"132":2.7353265285491943,"133":3.8374407291412354,"134":1.8849799633026123,"135":-3.464179277420044,"136":-1.6609214544296265,"137":-2.7205021381378174,"138":-2.414968490600586,"139":0.7321212887763977,"140":4.822146415710449,"141":8.98263168334961,"142":6.725345611572266,"143":5.913805961608887,"144":6.1891374588012695,"145":5.891962051391602,"146":3.7790513038635254,"147":3.4885804653167725,"148":0.35786083340644836,"149":-1.4281895160675049,"150":1.0549558401107788,"151":2.536168336868286,"152":1.270218014717102,"153":3.308140277862549,"154":-1.5613895654678345,"155":3.682365655899048,"156":4.938316822052002,"157":3.9153714179992676,"158":-2.1859307289123535,"159":1.19044029712677,"160":4.212985992431641,"161":5.706552028656006,"162":1.3582267761230469,"163":3.9475836753845215,"164":4.919284820556641,"165":3.423238515853882,"166":3.1722664833068848,"167":1.1448028087615967,"168":-6.792083263397217,"169":4.889801502227783,"170":-0.8314176201820374,"171":-1.7113231420516968,"172":2.9854891300201416,"173":3.338601589202881,"174":1.886040449142456,"175":3.166970729827881,"176":1.639916181564331,"177":4.918358325958252,"178":0.9938441514968872,"179":3.052326202392578,"180":6.273671627044678,"181":2.167772054672241,"182":5.940464019775391,"183":12.6514253616333,"184":9.184962272644043,"185":-4.0198163986206055,"186":-0.7609472274780273,"187":-3.174233913421631,"188":-2.0354831218719482,"189":-2.6160974502563477,"190":5.9425225257873535,"191":3.345640182495117,"192":2.3629884719848633,"193":-0.40894263982772827,"194":-0.8176404237747192,"195":-0.8502963781356812,"196":1.1034833192825317,"197":-0.1556425392627716,"198":2.421560287475586,"199":-1.2713059186935425,"200":3.9816112518310547,"201":14.433730125427246,"202":8.107462882995605,"203":12.319723129272461,"204":0.7672366499900818,"205":-9.874144554138184,"206":0.8651001453399658,"207":-7.475451469421387,"208":-6.287800312042236,"209":0.36152878403663635,"210":-2.0543904304504395,"211":0.4987364709377289,"212":-0.6288927793502808,"213":-5.644954681396484,"214":-1.3338253498077393,"215":-2.6087236404418945,"216":-3.7062437534332275,"217":1.7569283246994019,"218":6.2841796875,"219":1.6479623317718506,"220":-3.4740562438964844,"221":10.914237022399902,"222":7.145978927612305,"223":11.297101020812988,"224":-11.054038047790527,"225":-4.920131683349609,"226":-5.335432052612305,"227":-8.162235260009766,"228":-1.1769616603851318,"229":-4.089144229888916,"230":1.5884017944335938,"231":-1.577043890953064,"232":-9.882133483886719,"233":-7.142493724822998,"234":-2.0818700790405273,"235":-3.0511486530303955,"236":-4.026196479797363,"237":-6.744417667388916,"238":-8.68855094909668,"239":-6.426188945770264,"240":-2.052057981491089,"241":7.01340389251709,"242":1.775572657585144,"243":-3.046846389770508,"244":-16.962711334228516,"245":-9.405965805053711,"246":-8.688115119934082,"247":-0.8266288638114929,"248":-2.2113707065582275,"249":2.5951712131500244,"250":-1.480544090270996,"251":-2.304142951965332,"252":-3.172294855117798,"253":-4.076775074005127,"254":-4.1781768798828125,"255":0.3701787292957306,"256":-3.526386022567749,"257":-6.320876121520996,"258":-7.61484956741333,"259":-9.465909957885742,"260":-0.7115377187728882,"261":4.508120059967041,"262":-3.923595666885376,"263":-8.319210052490234,"264":-8.643867492675781,"265":-4.323964595794678,"266":-7.1439433097839355,"267":-4.233989715576172,"268":1.7357841730117798,"269":6.534975051879883,"270":-1.2831546068191528,"271":-5.909045219421387,"272":-2.069554567337036,"273":-0.3177541494369507,"274":0.3521687388420105,"275":-2.3404269218444824,"276":2.3831064701080322,"277":-0.30751535296440125,"278":3.4165382385253906,"279":5.1120195388793945,"280":2.4371371269226074,"281":5.621950149536133,"282":1.2029881477355957,"283":-8.927542686462402,"284":-7.916703701019287,"285":-15.684768676757812,"286":-9.553762435913086,"287":6.373807907104492,"288":5.334890842437744,"289":-2.5099637508392334,"290":0.9627810120582581,"291":-6.074102401733398,"292":-7.431407451629639,"293":-0.19256512820720673,"294":0.6698499321937561,"295":1.7794772386550903,"296":-0.5538930296897888,"297":-3.507607936859131,"298":6.9866719245910645,"299":-0.2226603478193283,"300":-9.040682792663574,"301":-2.085279941558838,"302":-7.821887493133545,"303":-8.479347229003906,"304":-9.829211235046387,"305":-10.257061958312988,"306":0.2863975763320923,"307":3.7835867404937744,"308":-0.15725044906139374,"309":4.326072692871094,"310":3.644233465194702,"311":-7.0163044929504395,"312":-6.35765266418457,"313":-2.582894802093506,"314":3.371372699737549,"315":-6.634703159332275,"316":1.3826897144317627,"317":0.828345000743866,"318":-3.662764310836792,"319":2.4266958236694336,"320":-3.4900963306427,"321":-7.173897743225098,"322":-6.083882808685303,"323":-15.915593147277832,"324":3.2940239906311035,"325":-9.653361320495605,"326":-0.23309732973575592,"327":-2.2831735610961914,"328":5.112975120544434,"329":4.096296310424805,"330":-7.337080478668213,"331":-2.259385824203491,"332":-5.808328151702881,"333":2.201981544494629,"334":4.188920497894287,"335":1.516472578048706,"336":-4.361215591430664,"337":-1.441035509109497,"338":-1.742514729499817,"339":-10.673072814941406,"340":-0.4209226965904236,"341":0.1307723969221115,"342":-8.87714672088623,"343":-3.3205952644348145,"344":-3.4763495922088623,"345":-11.339654922485352,"346":1.7186579704284668,"347":1.8287508487701416,"348":2.2597475051879883,"349":-2.806230068206787,"350":-8.28875732421875,"351":-1.26639723777771,"352":3.4395320415496826,"353":0.6832894682884216,"354":2.4687631130218506,"355":-0.6475188732147217,"356":-0.2780338525772095,"357":-5.207553863525391,"358":-0.9806009531021118,"359":-8.499645233154297,"360":-1.3932887315750122,"361":-6.048267841339111,"362":-13.775479316711426,"363":-1.3459423780441284,"364":-7.421657085418701,"365":-6.809618949890137,"366":1.930148959159851,"367":1.7674700021743774,"368":4.965392112731934,"369":-4.5426716804504395,"370":-9.926966667175293,"371":-3.819937229156494,"372":1.12687349319458,"373":0.5423809885978699,"374":1.8188472986221313,"375":1.816643238067627,"376":-0.04271010681986809,"377":0.0949850007891655,"378":-0.3284819722175598,"379":-0.8236762285232544,"380":-0.9124452471733093,"381":-0.9530122876167297,"382":-3.701002359390259,"383":-6.859776973724365,"384":-8.687604904174805,"385":-1.5777922868728638,"386":5.349637031555176,"387":-0.8848208785057068,"388":-1.3492915630340576,"389":-10.805632591247559,"390":-8.464138984680176,"391":4.573444366455078,"392":5.510860919952393,"393":0.48124024271965027,"394":-1.5645558834075928,"395":-1.6926259994506836,"396":1.4138168096542358,"397":1.1997736692428589,"398":-1.605888843536377,"399":1.187928557395935}},"1":{"bias":-39.849403381347656,"weights":{"0":0.08697803318500519,"1":-0.20040573179721832,"2":-0.045011937618255615,"3":0.5254970192909241,"4":0.4635811746120453,"5":-0.08349873870611191,"6":-5.197469234466553,"7":-2.9261088371276855,"8":-3.2416512966156006,"9":7.996720790863037,"10":1.6577004194259644,"11":-4.473087787628174,"12":-2.109980583190918,"13":0.3182205557823181,"14":5.035811901092529,"15":-1.2523308992385864,"16":0.5633257031440735,"17":-3.2716760635375977,"18":-1.1820306777954102,"19":2.1360721588134766,"20":0.16067267954349518,"21":-0.011662964709103107,"22":0.7823763489723206,"23":0.17016161978244781,"24":-0.6292710304260254,"25":-2.9796061515808105,"26":0.7953190803527832,"27":2.765434741973877,"28":-5.541941165924072,"29":3.5634889602661133,"30":-1.983542561531067,"31":-2.2434120178222656,"32":-1.1316704750061035,"33":1.0509130954742432,"34":-3.537903308868408,"35":2.5338289737701416,"36":7.682906150817871,"37":-4.235401630401611,"38":3.841620922088623,"39":3.0288546085357666,"40":-0.141035795211792,"41":0.8134810328483582,"42":0.16031667590141296,"43":-1.4078247547149658,"44":-2.355283498764038,"45":-1.2205417156219482,"46":4.505098342895508,"47":0.796249270439148,"48":-2.928863763809204,"49":-4.563543796539307,"50":8.894051551818848,"51":2.09355092048645,"52":-2.2979671955108643,"53":-3.981818199157715,"54":7.329122543334961,"55":8.852632522583008,"56":8.489356994628906,"57":-0.1382010579109192,"58":4.077287673950195,"59":1.4054442644119263,"60":0.5524836182594299,"61":0.3988654315471649,"62":-1.524486780166626,"63":-2.4193625450134277,"64":-3.0951061248779297,"65":0.9885945320129395,"66":1.9988325834274292,"67":4.395815372467041,"68":-0.5197444558143616,"69":1.7261126041412354,"70":-3.4627764225006104,"71":8.855386734008789,"72":0.05364086478948593,"73":3.360548496246338,"74":5.159066677093506,"75":-2.27974009513855,"76":-1.1501102447509766,"77":-3.0548603534698486,"78":-0.6751587390899658,"79":0.716356098651886,"80":0.5094358921051025,"81":-1.2661529779434204,"82":-2.4264140129089355,"83":-2.4861347675323486,"84":-1.8274245262145996,"85":-8.634037971496582,"86":-5.668064594268799,"87":-0.13592112064361572,"88":-5.545439720153809,"89":-0.5779182314872742,"90":-4.213038444519043,"91":2.8039848804473877,"92":2.836682081222534,"93":9.301648139953613,"94":0.10150595754384995,"95":7.163775444030762,"96":4.646599292755127,"97":0.7015501856803894,"98":4.803279876708984,"99":-0.035868845880031586,"100":0.10637710243463516,"101":-1.330886960029602,"102":-2.082247734069824,"103":-1.2957357168197632,"104":-3.932793378829956,"105":-8.55667781829834,"106":-5.660398960113525,"107":1.6078300476074219,"108":2.570559501647949,"109":-4.420295715332031,"110":-0.17452485859394073,"111":2.9250049591064453,"112":3.7188644409179688,"113":5.887163162231445,"114":9.513506889343262,"115":-3.6992578506469727,"116":-2.5280508995056152,"117":-0.41753241419792175,"118":0.05371140316128731,"119":8.454062461853027,"120":0.0016502081416547298,"121":-0.9283758997917175,"122":-2.040281057357788,"123":-2.1773996353149414,"124":-4.352492809295654,"125":-1.8347067832946777,"126":-5.734259128570557,"127":-4.565310955047607,"128":0.22984391450881958,"129":-1.043577790260315,"130":-2.1291394233703613,"131":4.484015464782715,"132":11.164823532104492,"133":6.548655986785889,"134":3.1217095851898193,"135":9.500946044921875,"136":-6.9197869300842285,"137":1.4137706756591797,"138":-2.7519500255584717,"139":2.3754591941833496,"140":-0.13336995244026184,"141":-1.079949975013733,"142":-1.9901630878448486,"143":-1.5612902641296387,"144":-3.877002239227295,"145":-1.218390703201294,"146":-3.915816307067871,"147":0.38202953338623047,"148":-1.4890553951263428,"149":-7.85345458984375,"150":-2.4287734031677246,"151":5.055298805236816,"152":5.055119514465332,"153":4.8809075355529785,"154":11.387791633605957,"155":-3.280717611312866,"156":-1.2621742486953735,"157":4.28047513961792,"158":8.55154800415039,"159":3.8372321128845215,"160":-0.1495610773563385,"161":-1.0699950456619263,"162":-1.7342994213104248,"163":-1.7647879123687744,"164":-3.5121703147888184,"165":-5.325473308563232,"166":-5.0383687019348145,"167":-0.9786074757575989,"168":-1.9658303260803223,"169":-0.47927722334861755,"170":-3.5816946029663086,"171":0.045809224247932434,"172":9.615033149719238,"173":5.380315780639648,"174":2.758496046066284,"175":5.661283493041992,"176":-0.6760311126708984,"177":1.7437782287597656,"178":-2.205643653869629,"179":-7.317994117736816,"180":-0.10335459560155869,"181":-1.128893256187439,"182":-1.9154542684555054,"183":-1.6419291496276855,"184":-5.228662490844727,"185":3.3587512969970703,"186":-1.307664155960083,"187":-2.0533041954040527,"188":0.792137086391449,"189":2.370161771774292,"190":0.35219281911849976,"191":-3.195388078689575,"192":7.102073669433594,"193":6.640938758850098,"194":1.3432600498199463,"195":-3.03450345993042,"196":6.547021865844727,"197":0.9195308685302734,"198":-3.780980110168457,"199":-1.6596254110336304,"200":-0.17118346691131592,"201":-1.0543941259384155,"202":-0.4812302589416504,"203":-2.6505560874938965,"204":0.11807481944561005,"205":-7.417472839355469,"206":3.863503932952881,"207":-1.1521254777908325,"208":0.3607307970523834,"209":-5.538055896759033,"210":0.5285415053367615,"211":-0.6209430694580078,"212":10.26038932800293,"213":3.2379486560821533,"214":0.0646149292588234,"215":-4.79826545715332,"216":5.96392822265625,"217":5.054849624633789,"218":-4.237407207489014,"219":3.12043833732605,"220":-0.12144455313682556,"221":-1.0482947826385498,"222":-0.840998649597168,"223":-1.9386874437332153,"224":0.1959790140390396,"225":-4.290374755859375,"226":-1.625555157661438,"227":0.12279417365789413,"228":-5.099054336547852,"229":-3.653867244720459,"230":1.7234621047973633,"231":1.6635241508483887,"232":5.629364967346191,"233":6.436260223388672,"234":0.07931916415691376,"235":3.7981772422790527,"236":7.6067328453063965,"237":1.7751384973526,"238":-5.457687854766846,"239":-6.067781448364258,"240":-0.9287093281745911,"241":0.23330317437648773,"242":-0.7895724773406982,"243":-2.9117355346679688,"244":-1.0357539653778076,"245":0.3786046802997589,"246":-2.722133159637451,"247":-3.284095525741577,"248":1.6630549430847168,"249":-2.0520389080047607,"250":1.119468331336975,"251":-2.951181411743164,"252":0.09923011809587479,"253":1.5774314403533936,"254":1.9232170581817627,"255":2.037114143371582,"256":4.405274391174316,"257":-1.84018075466156,"258":-7.906384468078613,"259":-6.286971092224121,"260":-0.7864497303962708,"261":0.17416150867938995,"262":-0.6181695461273193,"263":-0.8855719566345215,"264":2.3442225456237793,"265":1.959578037261963,"266":2.739546060562134,"267":-5.019380569458008,"268":-4.36954402923584,"269":-1.4762022495269775,"270":-5.289647102355957,"271":1.4589325189590454,"272":-0.5874820351600647,"273":-1.5248901844024658,"274":2.2151122093200684,"275":3.8449764251708984,"276":-2.703690767288208,"277":-0.40609094500541687,"278":-2.842299699783325,"279":-0.7777130603790283,"280":-0.18385417759418488,"281":-0.45181116461753845,"282":-0.023439764976501465,"283":-0.8405647277832031,"284":0.7615451216697693,"285":-2.3697588443756104,"286":-7.3345947265625,"287":-7.323572635650635,"288":-4.187002658843994,"289":-5.778280735015869,"290":-0.9145942330360413,"291":7.17396354675293,"292":3.100226640701294,"293":-0.3305117189884186,"294":-3.971946954727173,"295":5.240936756134033,"296":-4.157529354095459,"297":0.131058469414711,"298":1.5408523082733154,"299":-6.517167091369629,"300":0.12392342835664749,"301":-0.9870181679725647,"302":-0.0454423613846302,"303":-0.2407315969467163,"304":-1.1621583700180054,"305":-2.44602370262146,"306":-4.44971227645874,"307":-1.024036169052124,"308":-8.813097953796387,"309":-5.679742813110352,"310":-3.4680728912353516,"311":7.522529602050781,"312":5.085693836212158,"313":5.952083587646484,"314":-2.1288559436798096,"315":-3.717127799987793,"316":1.8308892250061035,"317":-1.793083906173706,"318":2.352627992630005,"319":-12.363504409790039,"320":0.10429010540246964,"321":-0.9576309323310852,"322":-1.341447353363037,"323":-0.6572651863098145,"324":-1.2373367547988892,"325":-6.783751010894775,"326":-4.816394329071045,"327":-3.2626140117645264,"328":-8.967780113220215,"329":-0.09481225162744522,"330":3.906059503555298,"331":7.824201583862305,"332":5.957118988037109,"333":-0.677876889705658,"334":-2.0782365798950195,"335":1.5352219343185425,"336":-7.220040798187256,"337":-4.248936176300049,"338":2.0242133140563965,"339":-10.690510749816895,"340":0.08356200903654099,"341":-0.23547755181789398,"342":-1.1808228492736816,"343":-1.316896915435791,"344":0.5745956897735596,"345":-3.7297112941741943,"346":3.8786540031433105,"347":-4.3359808921813965,"348":2.3627467155456543,"349":-4.18356990814209,"350":-1.1307116746902466,"351":9.584132194519043,"352":8.718350410461426,"353":8.264580726623535,"354":6.1863484382629395,"355":-3.487287998199463,"356":-11.803979873657227,"357":-1.8709626197814941,"358":-7.579659461975098,"359":-0.4201612174510956,"360":0.05569145083427429,"361":-0.17564576864242554,"362":-0.29846376180648804,"363":-0.6333264112472534,"364":-0.10574079304933548,"365":-3.5967068672180176,"366":-7.008062362670898,"367":-6.643829345703125,"368":-2.5963449478149414,"369":-5.3815460205078125,"370":5.413127899169922,"371":9.96711254119873,"372":2.141047239303589,"373":8.935659408569336,"374":3.980294704437256,"375":-2.4226267337799072,"376":-6.704640865325928,"377":0.44975823163986206,"378":5.648810863494873,"379":-2.7555127143859863,"380":-0.04867209121584892,"381":0.10355783998966217,"382":-0.15809988975524902,"383":-0.030810214579105377,"384":0.646401047706604,"385":-2.978139877319336,"386":-3.048649311065674,"387":-4.495627403259277,"388":-5.411745548248291,"389":3.9358887672424316,"390":-1.7809555530548096,"391":8.563861846923828,"392":0.6387013792991638,"393":1.7534068822860718,"394":5.952467441558838,"395":-4.661598205566406,"396":-4.437701225280762,"397":4.55219841003418,"398":0.10608021169900894,"399":0.13104508817195892}},"2":{"bias":-109.68972778320312,"weights":{"0":-0.8591821789741516,"1":2.3365111351013184,"2":-0.30622372031211853,"3":4.433259010314941,"4":-2.2700343132019043,"5":1.1068614721298218,"6":-2.2215654850006104,"7":3.975966691970825,"8":-3.7254204750061035,"9":2.71933913230896,"10":5.484164237976074,"11":6.4654340744018555,"12":8.006999969482422,"13":-0.3303947150707245,"14":-2.5418224334716797,"15":-0.10828377306461334,"16":1.1030652523040771,"17":1.203787922859192,"18":1.9454604387283325,"19":-0.08696087449789047,"20":-0.9434856176376343,"21":-3.205049514770508,"22":5.4823832511901855,"23":8.366588592529297,"24":-1.7657867670059204,"25":2.3036458492279053,"26":4.98084831237793,"27":1.6830880641937256,"28":-2.409146308898926,"29":1.6705262660980225,"30":5.32375431060791,"31":1.9943006038665771,"32":-5.587330341339111,"33":2.1122939586639404,"34":0.3160955607891083,"35":6.699059963226318,"36":1.8618404865264893,"37":0.027350634336471558,"38":2.2807211875915527,"39":-1.1156290769577026,"40":0.5439579486846924,"41":-6.925717353820801,"42":-5.039083480834961,"43":4.198671340942383,"44":-1.663608193397522,"45":-1.627794861793518,"46":0.17851392924785614,"47":1.6970365047454834,"48":-1.6579850912094116,"49":1.640256404876709,"50":1.896266222000122,"51":3.3280813694000244,"52":4.742669582366943,"53":1.8438392877578735,"54":-3.2046053409576416,"55":-0.3739990293979645,"56":6.274975776672363,"57":0.5186746716499329,"58":-0.5550671815872192,"59":-3.893311023712158,"60":6.528499603271484,"61":-0.13291789591312408,"62":-6.8980278968811035,"63":0.4419178366661072,"64":-2.941641092300415,"65":-1.1217023134231567,"66":-2.7828962802886963,"67":-0.24663087725639343,"68":-0.06320299953222275,"69":-3.4900805950164795,"70":-0.5921764373779297,"71":-0.4081515967845917,"72":-2.7864036560058594,"73":2.7607624530792236,"74":3.3993279933929443,"75":0.35951516032218933,"76":-0.3664291501045227,"77":2.1885604858398438,"78":2.146623134613037,"79":0.700495183467865,"80":4.735270023345947,"81":4.888881683349609,"82":-2.778160333633423,"83":-0.3505493104457855,"84":-0.585260808467865,"85":0.007449700962752104,"86":-0.08539201319217682,"87":0.5470092296600342,"88":-1.7600513696670532,"89":4.558028221130371,"90":-2.1256299018859863,"91":3.2251577377319336,"92":-0.6415592432022095,"93":-2.313293218612671,"94":0.5358330607414246,"95":-1.1024311780929565,"96":-6.327970027923584,"97":3.0252652168273926,"98":2.6436965465545654,"99":-2.168678045272827,"100":-2.9971694946289062,"101":10.943879127502441,"102":2.1066555976867676,"103":-0.513587236404419,"104":4.811790943145752,"105":2.3175504207611084,"106":-0.8841559886932373,"107":2.6575872898101807,"108":2.6968319416046143,"109":-3.7310547828674316,"110":2.7413647174835205,"111":-2.0913033485412598,"112":-1.2521483898162842,"113":0.0730162113904953,"114":2.6203315258026123,"115":0.06704100221395493,"116":-0.4163188338279724,"117":-7.81973934173584,"118":0.06658603250980377,"119":-0.7290228009223938,"120":2.6378328800201416,"121":2.1742990016937256,"122":0.4001292586326599,"123":1.716383457183838,"124":2.938643455505371,"125":2.5462186336517334,"126":1.521092414855957,"127":2.304995536804199,"128":-0.17377451062202454,"129":0.03134573996067047,"130":0.29691562056541443,"131":-0.48952123522758484,"132":3.053304672241211,"133":-1.4354063272476196,"134":-3.1694467067718506,"135":2.6139626502990723,"136":5.201068878173828,"137":2.470355749130249,"138":0.8216081857681274,"139":10.065712928771973,"140":-1.9223363399505615,"141":3.2777655124664307,"142":0.9801402688026428,"143":4.877018451690674,"144":3.6925861835479736,"145":1.253504753112793,"146":3.385451078414917,"147":3.203110933303833,"148":2.0643470287323,"149":1.625978946685791,"150":2.178953170776367,"151":4.365790843963623,"152":2.8895514011383057,"153":4.132682800292969,"154":0.7324573993682861,"155":-0.44086602330207825,"156":-7.608852386474609,"157":-0.19720929861068726,"158":1.7192565202713013,"159":-0.38982319831848145,"160":2.874730348587036,"161":-0.06442796438932419,"162":7.059610366821289,"163":6.401876449584961,"164":9.182966232299805,"165":8.737800598144531,"166":8.167210578918457,"167":6.532229900360107,"168":4.648942470550537,"169":4.003477096557617,"170":5.96671199798584,"171":3.28389048576355,"172":5.2702155113220215,"173":5.22144079208374,"174":5.429515361785889,"175":6.439924716949463,"176":2.819913864135742,"177":-3.156505584716797,"178":2.839768886566162,"179":4.617098808288574,"180":9.94042682647705,"181":9.408124923706055,"182":8.067752838134766,"183":6.295602321624756,"184":8.867716789245605,"185":10.626052856445312,"186":6.82658052444458,"187":10.41287612915039,"188":8.304405212402344,"189":9.088272094726562,"190":5.681596279144287,"191":5.76789665222168,"192":5.996551990509033,"193":6.235614776611328,"194":5.360183238983154,"195":7.9423508644104,"196":6.588040828704834,"197":2.5930891036987305,"198":5.4153666496276855,"199":1.8870034217834473,"200":8.206326484680176,"201":3.999150037765503,"202":4.35683012008667,"203":7.746729373931885,"204":6.25452184677124,"205":7.503652095794678,"206":9.695064544677734,"207":5.077131271362305,"208":6.287752628326416,"209":9.428223609924316,"210":7.582179069519043,"211":9.309974670410156,"212":4.287163257598877,"213":4.9666876792907715,"214":4.377479553222656,"215":6.011662483215332,"216":2.1660044193267822,"217":2.162393808364868,"218":3.023853302001953,"219":3.276796340942383,"220":5.75040864944458,"221":7.1598663330078125,"222":7.587031841278076,"223":8.289807319641113,"224":7.578188896179199,"225":5.398082733154297,"226":6.102041721343994,"227":7.223887920379639,"228":4.975470066070557,"229":6.820858001708984,"230":4.5812883377075195,"231":5.093789100646973,"232":11.702180862426758,"233":4.435105800628662,"234":4.132794380187988,"235":4.109167575836182,"236":6.680585861206055,"237":7.914338111877441,"238":8.325512886047363,"239":5.552121162414551,"240":9.595463752746582,"241":1.9267874956130981,"242":4.929216384887695,"243":5.393098831176758,"244":6.1902174949646,"245":2.0211355686187744,"246":8.409685134887695,"247":1.104663372039795,"248":2.5943799018859863,"249":4.804190158843994,"250":3.31388521194458,"251":8.021533966064453,"252":3.1851065158843994,"253":6.990581512451172,"254":7.73832893371582,"255":4.164806365966797,"256":8.578594207763672,"257":4.379889488220215,"258":5.644937515258789,"259":5.560820579528809,"260":1.8850269317626953,"261":2.3958663940429688,"262":4.498734951019287,"263":3.486311912536621,"264":0.4311966001987457,"265":8.430957794189453,"266":4.418272972106934,"267":3.394559383392334,"268":2.3068509101867676,"269":3.0068917274475098,"270":4.582736968994141,"271":3.520718574523926,"272":5.605874538421631,"273":6.432928085327148,"274":6.491053581237793,"275":3.815272331237793,"276":5.187365531921387,"277":4.302857398986816,"278":5.650848865509033,"279":2.113186836242676,"280":0.9243444800376892,"281":0.9671937227249146,"282":-2.195620059967041,"283":3.6083908081054688,"284":1.6118385791778564,"285":2.211225986480713,"286":-0.1519538015127182,"287":0.030364932492375374,"288":2.6618075370788574,"289":1.2424697875976562,"290":2.3600871562957764,"291":5.0812482833862305,"292":3.5515806674957275,"293":4.300095558166504,"294":2.05948543548584,"295":7.553816795349121,"296":1.291650652885437,"297":8.487567901611328,"298":3.8536455631256104,"299":9.820718765258789,"300":4.976970672607422,"301":2.653193950653076,"302":3.2436418533325195,"303":-2.638554811477661,"304":-4.1643218994140625,"305":0.9551284313201904,"306":-0.4092535674571991,"307":1.3201706409454346,"308":-0.691153347492218,"309":0.6903252601623535,"310":4.204317569732666,"311":0.08027612417936325,"312":1.360984206199646,"313":-0.43828827142715454,"314":3.184108257293701,"315":1.8587672710418701,"316":7.9861016273498535,"317":3.0620532035827637,"318":12.670793533325195,"319":3.509282350540161,"320":1.394187331199646,"321":0.2885752022266388,"322":-6.9843339920043945,"323":-1.1080504655838013,"324":-1.1979286670684814,"325":-1.153857707977295,"326":-0.6443687677383423,"327":-0.5254482626914978,"328":3.3609843254089355,"329":0.2742772400379181,"330":1.281119704246521,"331":-1.1580173969268799,"332":2.6782875061035156,"333":2.1124227046966553,"334":-1.4877879619598389,"335":4.203086853027344,"336":-2.9457530975341797,"337":3.3485710620880127,"338":8.812812805175781,"339":3.077768564224243,"340":1.9833528995513916,"341":1.3777713775634766,"342":0.3600448668003082,"343":-0.9541226625442505,"344":-1.7412663698196411,"345":0.786504328250885,"346":-2.420112371444702,"347":0.1300026774406433,"348":-2.674506425857544,"349":3.229522228240967,"350":-1.5762709379196167,"351":1.1786121129989624,"352":-2.626206636428833,"353":0.3713115453720093,"354":0.27265262603759766,"355":0.3225817084312439,"356":3.0042800903320312,"357":0.2504348158836365,"358":1.952893853187561,"359":8.240473747253418,"360":6.85532283782959,"361":-6.512688636779785,"362":-0.10209177434444427,"363":-1.550704836845398,"364":0.1846296489238739,"365":-2.8656082153320312,"366":2.8053414821624756,"367":-5.004205226898193,"368":6.657472610473633,"369":-2.86234450340271,"370":4.180290222167969,"371":-1.9337587356567383,"372":1.951298475265503,"373":-0.14355899393558502,"374":-0.09420333802700043,"375":-0.20559538900852203,"376":2.507450819015503,"377":-0.1186874657869339,"378":1.1789588928222656,"379":3.014641761779785,"380":2.477360248565674,"381":-12.094803810119629,"382":4.73315954208374,"383":4.2885823249816895,"384":-5.575926780700684,"385":5.315609455108643,"386":-3.572859764099121,"387":1.8800256252288818,"388":-0.15954795479774475,"389":1.7021093368530273,"390":2.243422031402588,"391":0.35426923632621765,"392":0.654636561870575,"393":-0.6189465522766113,"394":0.2295444905757904,"395":0.4664759039878845,"396":-4.687274932861328,"397":4.124375820159912,"398":1.015307068824768,"399":1.1753439903259277}},"3":{"bias":16.68099594116211,"weights":{"0":-0.10065821558237076,"1":2.5127179622650146,"2":0.4611508250236511,"3":2.0270729064941406,"4":-2.5662896633148193,"5":-3.063365936279297,"6":-6.937885284423828,"7":1.7386603355407715,"8":5.2108306884765625,"9":-2.388904094696045,"10":2.9444167613983154,"11":3.558042049407959,"12":-2.4249074459075928,"13":3.7109854221343994,"14":-5.7702250480651855,"15":0.3612484633922577,"16":1.4814164638519287,"17":-2.478276491165161,"18":-2.1875526905059814,"19":-2.051668882369995,"20":2.5353455543518066,"21":-2.276426076889038,"22":-5.895700454711914,"23":-4.386632442474365,"24":-4.252331256866455,"25":-3.3910372257232666,"26":0.6202032566070557,"27":0.4222361445426941,"28":10.92060661315918,"29":-3.025791645050049,"30":-2.682476282119751,"31":-3.738955497741699,"32":-3.9873387813568115,"33":4.484846591949463,"34":-1.539796233177185,"35":-1.672471284866333,"36":-5.266331672668457,"37":-4.96962833404541,"38":-3.762460231781006,"39":-1.8998470306396484,"40":-1.4105600118637085,"41":-9.646368026733398,"42":-7.230085372924805,"43":1.6000049114227295,"44":-3.528830051422119,"45":-1.6403535604476929,"46":-0.5870583057403564,"47":-2.96909761428833,"48":2.325320243835449,"49":1.1123485565185547,"50":-0.9565186500549316,"51":-0.11435473710298538,"52":-1.7628540992736816,"53":4.233768939971924,"54":-0.6178268790245056,"55":-6.271344184875488,"56":-7.128881931304932,"57":1.7238340377807617,"58":-0.38381427526474,"59":-3.0658156871795654,"60":1.8602107763290405,"61":2.8828470706939697,"62":-0.33792686462402344,"63":0.7399808168411255,"64":-7.787352561950684,"65":4.032443046569824,"66":-1.1958370208740234,"67":1.0391290187835693,"68":4.116512298583984,"69":1.1426070928573608,"70":-1.864077091217041,"71":-1.2973037958145142,"72":-2.867828369140625,"73":-0.697077751159668,"74":4.729458332061768,"75":-2.572497606277466,"76":-10.025625228881836,"77":-2.5181918144226074,"78":-4.443134784698486,"79":-6.9983744621276855,"80":1.096501350402832,"81":-9.112525939941406,"82":-4.874051094055176,"83":3.0446810722351074,"84":2.6874303817749023,"85":-0.29386988282203674,"86":1.5525293350219727,"87":-3.5468838214874268,"88":-0.821472704410553,"89":7.002761363983154,"90":0.7758886218070984,"91":2.261868476867676,"92":-2.8771140575408936,"93":-1.9583508968353271,"94":-4.847556114196777,"95":-1.393254041671753,"96":-9.910990715026855,"97":-7.7856645584106445,"98":-1.4352049827575684,"99":0.8492451906204224,"100":0.0738547295331955,"101":-2.0867502689361572,"102":8.733344078063965,"103":-1.6385809183120728,"104":0.1928439885377884,"105":2.2171478271484375,"106":3.5500941276550293,"107":0.6620917916297913,"108":-6.673915386199951,"109":-4.104591369628906,"110":2.180333137512207,"111":-0.1782113015651703,"112":2.2267298698425293,"113":-6.326798439025879,"114":-3.871864080429077,"115":-2.259834051132202,"116":5.921908855438232,"117":-7.2651686668396,"118":1.0500781536102295,"119":-3.5611793994903564,"120":0.7773060202598572,"121":-6.625200271606445,"122":6.238381862640381,"123":0.19091705977916718,"124":-3.0981671810150146,"125":2.845289707183838,"126":-3.0354366302490234,"127":-3.3748719692230225,"128":-2.540522336959839,"129":-8.102812767028809,"130":-3.1527910232543945,"131":-0.7131074070930481,"132":3.804633378982544,"133":2.665710926055908,"134":-1.9996660947799683,"135":-3.927323579788208,"136":-7.557290077209473,"137":-0.1763831079006195,"138":-1.3148760795593262,"139":-10.074803352355957,"140":-9.165884017944336,"141":-8.24362564086914,"142":-3.601947546005249,"143":6.511404991149902,"144":2.937474489212036,"145":-0.5834031105041504,"146":2.9600319862365723,"147":-2.0224575996398926,"148":-8.512332916259766,"149":-6.7844696044921875,"150":2.2410147190093994,"151":-2.952695369720459,"152":-4.833257675170898,"153":0.03796372190117836,"154":0.9239848852157593,"155":-3.1735639572143555,"156":-7.234498977661133,"157":-7.335334300994873,"158":-9.630293846130371,"159":-12.79939079284668,"160":-5.5878071784973145,"161":-10.472843170166016,"162":0.4640462398529053,"163":4.649178504943848,"164":8.069320678710938,"165":10.51037311553955,"166":1.915903925895691,"167":-7.704808712005615,"168":-5.2351274490356445,"169":-4.5776214599609375,"170":-6.004310131072998,"171":0.24100303649902344,"172":-4.78275728225708,"173":2.9548349380493164,"174":2.568809986114502,"175":-0.6759975552558899,"176":1.553048014640808,"177":-7.6867547035217285,"178":-6.068846702575684,"179":0.001542074023745954,"180":-4.526012897491455,"181":-7.910727024078369,"182":-4.068157196044922,"183":5.652162075042725,"184":-0.09097540378570557,"185":-0.347239226102829,"186":5.825372695922852,"187":-0.3170599341392517,"188":-14.52711296081543,"189":-4.47625207901001,"190":-5.110359191894531,"191":2.1123616695404053,"192":-0.21715529263019562,"193":3.0703794956207275,"194":1.6545329093933105,"195":0.9094679951667786,"196":-4.943183898925781,"197":1.1019765138626099,"198":-0.010996394790709019,"199":2.540868043899536,"200":-10.794586181640625,"201":-11.389681816101074,"202":-12.074169158935547,"203":-4.288877964019775,"204":5.949260234832764,"205":8.168683052062988,"206":5.2117533683776855,"207":3.2859838008880615,"208":-12.024947166442871,"209":-13.386734008789062,"210":-10.208452224731445,"211":-4.598376274108887,"212":6.228845119476318,"213":2.2956297397613525,"214":2.50449275970459,"215":5.888017654418945,"216":4.153214454650879,"217":5.054412364959717,"218":0.5489152669906616,"219":12.084752082824707,"220":-2.78261137008667,"221":-11.045565605163574,"222":-20.35489845275879,"223":4.654666423797607,"224":1.459557294845581,"225":0.09676039218902588,"226":7.512112617492676,"227":0.3525199294090271,"228":-3.9089221954345703,"229":-8.103928565979004,"230":-13.420276641845703,"231":-10.243424415588379,"232":4.284019470214844,"233":1.5146135091781616,"234":8.467130661010742,"235":3.332232713699341,"236":5.778141498565674,"237":4.8759260177612305,"238":2.3343987464904785,"239":-0.6557109951972961,"240":-9.31284236907959,"241":0.04844410717487335,"242":-16.590309143066406,"243":-8.346847534179688,"244":4.455714702606201,"245":-0.6394211053848267,"246":1.797086238861084,"247":2.3047878742218018,"248":3.559008836746216,"249":-4.915522575378418,"250":-7.882889270782471,"251":-8.02691650390625,"252":0.8219662308692932,"253":2.5265817642211914,"254":-0.11712832003831863,"255":8.063437461853027,"256":1.2931257486343384,"257":1.9243299961090088,"258":6.00361967086792,"259":-4.485062599182129,"260":-3.5553224086761475,"261":-6.394764423370361,"262":-21.510818481445312,"263":-10.568986892700195,"264":-14.474609375,"265":6.735847473144531,"266":4.1109137535095215,"267":2.9941015243530273,"268":-3.3083009719848633,"269":2.666269063949585,"270":-5.40233850479126,"271":-4.865644931793213,"272":-3.9682605266571045,"273":6.801662921905518,"274":-0.9282209277153015,"275":-1.3403488397598267,"276":5.976660251617432,"277":-3.4323668479919434,"278":-1.9707341194152832,"279":3.651120901107788,"280":-2.130455732345581,"281":-12.60590648651123,"282":-7.733314514160156,"283":-5.696832656860352,"284":-5.127114772796631,"285":4.640332221984863,"286":1.692705512046814,"287":3.739967107772827,"288":0.19668085873126984,"289":1.6202656030654907,"290":-4.458478927612305,"291":-3.9888272285461426,"292":-5.096497535705566,"293":2.2323927879333496,"294":3.2954745292663574,"295":-0.1910943239927292,"296":0.1335614174604416,"297":4.701080799102783,"298":-4.099671840667725,"299":-3.5404505729675293,"300":8.057369232177734,"301":-1.0493321418762207,"302":-14.307524681091309,"303":-10.222123146057129,"304":-12.575756072998047,"305":1.1846431493759155,"306":2.340989112854004,"307":5.548726558685303,"308":1.328169822692871,"309":-1.2102760076522827,"310":-1.311669945716858,"311":1.486215353012085,"312":-4.73816442489624,"313":-2.739637613296509,"314":-3.708489418029785,"315":-4.348031520843506,"316":-0.2816884517669678,"317":-5.223601818084717,"318":-3.5710508823394775,"319":-3.0793237686157227,"320":7.250290393829346,"321":2.4402685165405273,"322":-3.4362616539001465,"323":-13.229567527770996,"324":-17.05312156677246,"325":-7.043565273284912,"326":2.361703872680664,"327":3.3074398040771484,"328":6.328462600708008,"329":8.098835945129395,"330":-1.2537004947662354,"331":2.0195186138153076,"332":-5.665082931518555,"333":-6.596978187561035,"334":1.3010714054107666,"335":-7.024333477020264,"336":-7.0048675537109375,"337":7.652793884277344,"338":-6.798279762268066,"339":-8.648726463317871,"340":2.564152240753174,"341":-0.5879193544387817,"342":1.091677188873291,"343":-11.923654556274414,"344":-10.135376930236816,"345":-3.5709388256073,"346":6.784601211547852,"347":-3.542969226837158,"348":2.833160400390625,"349":-2.969374656677246,"350":-1.2787615060806274,"351":-1.8169509172439575,"352":0.6868124008178711,"353":-8.03346061706543,"354":-5.095658779144287,"355":-6.248269557952881,"356":-1.1704168319702148,"357":-1.221339225769043,"358":2.8286356925964355,"359":0.759498119354248,"360":3.3349952697753906,"361":3.9619321823120117,"362":-1.1856839656829834,"363":-11.125043869018555,"364":-2.7858939170837402,"365":-4.524160861968994,"366":-3.18717885017395,"367":0.049014437943696976,"368":0.4022267758846283,"369":1.2814342975616455,"370":5.123715400695801,"371":3.7647085189819336,"372":2.183779239654541,"373":-0.21217218041419983,"374":-10.167341232299805,"375":-3.9730100631713867,"376":-5.133999347686768,"377":-5.19539737701416,"378":4.251255512237549,"379":-5.317310333251953,"380":0.24911969900131226,"381":1.4363683462142944,"382":2.6665356159210205,"383":-1.9314662218093872,"384":-4.225414752960205,"385":-8.91602897644043,"386":-0.034335993230342865,"387":-7.2854323387146,"388":-6.070815563201904,"389":-3.103318929672241,"390":4.019834995269775,"391":3.3063254356384277,"392":4.9788336753845215,"393":2.2028000354766846,"394":-10.1746187210083,"395":-5.350526332855225,"396":-0.0714203268289566,"397":-2.477163314819336,"398":-4.965773582458496,"399":-3.1741182804107666}},"4":{"bias":3.9107141494750977,"weights":{"0":-0.17620433866977692,"1":-0.23466460406780243,"2":0.33550864458084106,"3":-0.18310368061065674,"4":-1.7138315439224243,"5":0.915886640548706,"6":-0.7455780506134033,"7":-5.7027482986450195,"8":-3.540418863296509,"9":1.2711050510406494,"10":3.6896259784698486,"11":0.19730539619922638,"12":0.7445944547653198,"13":-0.21092918515205383,"14":-5.2903361320495605,"15":-7.069196701049805,"16":-1.5541514158248901,"17":-0.7493022084236145,"18":0.06391358375549316,"19":0.7775387763977051,"20":-0.5388616919517517,"21":0.08403175324201584,"22":1.1377356052398682,"23":0.14265410602092743,"24":-0.8974974751472473,"25":-3.008819341659546,"26":-6.466713905334473,"27":-2.4188928604125977,"28":-2.0808463096618652,"29":-0.8176210522651672,"30":-2.595371723175049,"31":-4.936083793640137,"32":-9.334436416625977,"33":-10.78813362121582,"34":-2.7709298133850098,"35":0.05357401818037033,"36":-3.2458746433258057,"37":-5.721137523651123,"38":-3.591491460800171,"39":-1.454406976699829,"40":0.5812380313873291,"41":0.270887166261673,"42":-1.623274326324463,"43":-13.255973815917969,"44":-3.750631809234619,"45":-4.2678914070129395,"46":-3.144986629486084,"47":-2.138446807861328,"48":-0.23566488921642303,"49":-6.162487030029297,"50":-0.9635820388793945,"51":-2.3335015773773193,"52":-3.114797353744507,"53":-3.1495769023895264,"54":-13.878396987915039,"55":-2.709533452987671,"56":-15.203073501586914,"57":-4.2710137367248535,"58":-3.826188087463379,"59":-2.3348963260650635,"60":0.5715131163597107,"61":-0.7084264755249023,"62":-1.7159324884414673,"63":-2.0384914875030518,"64":1.6473320722579956,"65":-9.713891983032227,"66":-0.8714826107025146,"67":-0.496486634016037,"68":-2.638087511062622,"69":-7.961980819702148,"70":-11.155322074890137,"71":-4.254814147949219,"72":-3.700770378112793,"73":-2.532625913619995,"74":-3.0319597721099854,"75":-2.218026876449585,"76":0.18257908523082733,"77":0.11213401705026627,"78":-1.815386176109314,"79":5.664666652679443,"80":-0.19416160881519318,"81":-3.855513095855713,"82":-1.6257637739181519,"83":7.06260871887207,"84":-1.4022842645645142,"85":-2.682116985321045,"86":-1.105525255203247,"87":-1.1954143047332764,"88":-2.1260554790496826,"89":-1.8693757057189941,"90":-1.3170870542526245,"91":-1.8912180662155151,"92":-5.6800055503845215,"93":-4.357091903686523,"94":-0.4063292443752289,"95":-0.1560988575220108,"96":0.0074370489455759525,"97":3.2367327213287354,"98":4.933685779571533,"99":3.689758777618408,"100":-4.054287433624268,"101":2.1560230255126953,"102":-6.038593769073486,"103":-2.62632417678833,"104":-4.954194068908691,"105":1.678261160850525,"106":-2.84531569480896,"107":0.8227916359901428,"108":0.3590182363986969,"109":0.12691624462604523,"110":-2.886179208755493,"111":-2.890941858291626,"112":1.361859917640686,"113":-0.0076363361440598965,"114":-0.6289461851119995,"115":-2.3809163570404053,"116":-3.1968419551849365,"117":1.146968960762024,"118":4.877277374267578,"119":-1.9976351261138916,"120":-2.246058225631714,"121":-8.362282752990723,"122":0.5530243515968323,"123":3.551544189453125,"124":-3.7499489784240723,"125":-1.980114221572876,"126":0.997102677822113,"127":-3.6055386066436768,"128":1.201087236404419,"129":-2.0723798274993896,"130":-0.6552408933639526,"131":-3.467906951904297,"132":-1.1210525035858154,"133":-4.113746166229248,"134":2.278184413909912,"135":-4.058997631072998,"136":1.5965557098388672,"137":-1.0698963403701782,"138":1.8833210468292236,"139":-2.900545835494995,"140":-8.681548118591309,"141":-7.854629039764404,"142":-5.894333362579346,"143":-4.977240562438965,"144":-5.921565055847168,"145":-3.5045735836029053,"146":0.5823935270309448,"147":-4.082220554351807,"148":-6.780872821807861,"149":-2.4522619247436523,"150":-0.9794666171073914,"151":-3.943920373916626,"152":-1.043333888053894,"153":-3.6810991764068604,"154":-2.4387505054473877,"155":-1.902363657951355,"156":1.7894117832183838,"157":2.970400094985962,"158":-1.3571542501449585,"159":1.7596189975738525,"160":-9.456838607788086,"161":-13.876692771911621,"162":-9.796642303466797,"163":-12.840150833129883,"164":-9.465553283691406,"165":-9.398439407348633,"166":-9.900760650634766,"167":-0.38187646865844727,"168":-6.202603816986084,"169":-7.036627292633057,"170":-3.693488597869873,"171":-6.592364311218262,"172":-6.398181438446045,"173":-2.6386866569519043,"174":-2.7121388912200928,"175":-0.5655189752578735,"176":-5.244696617126465,"177":-8.331850051879883,"178":-9.373014450073242,"179":-6.763952732086182,"180":-11.769573211669922,"181":-12.830158233642578,"182":-13.104528427124023,"183":-16.25657844543457,"184":-21.13155174255371,"185":-12.06607723236084,"186":-8.736391067504883,"187":-11.791939735412598,"188":-8.438741683959961,"189":-7.3165974617004395,"190":-11.603800773620605,"191":-4.661003112792969,"192":-7.150322437286377,"193":-3.1181893348693848,"194":-7.612444877624512,"195":-5.767318248748779,"196":-2.22586727142334,"197":-2.163792610168457,"198":2.740920305252075,"199":1.1332045793533325,"200":-8.126307487487793,"201":-5.184159278869629,"202":-3.6607582569122314,"203":-2.401369333267212,"204":-13.287482261657715,"205":-13.220837593078613,"206":-12.560998916625977,"207":-10.95927619934082,"208":-15.074508666992188,"209":-9.862499237060547,"210":-10.459297180175781,"211":-8.587435722351074,"212":-9.566571235656738,"213":-7.648434638977051,"214":-7.490924835205078,"215":1.677524209022522,"216":1.8689441680908203,"217":7.689216136932373,"218":-2.5266506671905518,"219":1.4838985204696655,"220":-6.494888782501221,"221":-3.298313617706299,"222":-8.21788215637207,"223":-1.1276785135269165,"224":-7.537350654602051,"225":-7.772106647491455,"226":-10.743508338928223,"227":-3.9441094398498535,"228":-6.516355037689209,"229":-6.007363796234131,"230":0.5414847731590271,"231":-0.8905972838401794,"232":1.9719111919403076,"233":-3.3992257118225098,"234":3.323371171951294,"235":0.3147074282169342,"236":1.2853162288665771,"237":-0.4412323534488678,"238":-2.1357452869415283,"239":-7.0776047706604,"240":7.458038806915283,"241":-3.7915830612182617,"242":-1.3881232738494873,"243":-2.617014169692993,"244":5.318831920623779,"245":-4.433507442474365,"246":2.4897263050079346,"247":-3.8047142028808594,"248":2.2732951641082764,"249":3.4054510593414307,"250":-3.081918239593506,"251":2.5285117626190186,"252":0.48810288310050964,"253":7.056741714477539,"254":0.13469575345516205,"255":4.046606063842773,"256":0.5950203537940979,"257":-1.0336189270019531,"258":0.23532503843307495,"259":-3.8923139572143555,"260":4.394383430480957,"261":-1.7387486696243286,"262":6.592667102813721,"263":10.389118194580078,"264":5.090779781341553,"265":7.122215270996094,"266":6.986114025115967,"267":6.561619281768799,"268":3.9636988639831543,"269":2.5789713859558105,"270":8.801435470581055,"271":6.579105854034424,"272":6.128768444061279,"273":8.62329387664795,"274":4.221157550811768,"275":2.1204729080200195,"276":0.48382553458213806,"277":-0.5326420068740845,"278":0.4028691351413727,"279":2.8793601989746094,"280":4.222427845001221,"281":8.290846824645996,"282":6.692263126373291,"283":9.638123512268066,"284":5.276263236999512,"285":6.946244239807129,"286":5.593457221984863,"287":4.662978649139404,"288":5.823649883270264,"289":6.343349933624268,"290":2.453906774520874,"291":3.577892780303955,"292":4.9199724197387695,"293":2.5424387454986572,"294":3.0522003173828125,"295":0.4501493573188782,"296":0.7066490054130554,"297":2.1183183193206787,"298":-0.6213237643241882,"299":-4.515868186950684,"300":12.106900215148926,"301":3.8859915733337402,"302":12.197162628173828,"303":7.206583023071289,"304":6.884739875793457,"305":6.167718410491943,"306":10.407423973083496,"307":3.3985772132873535,"308":4.071325778961182,"309":4.950925350189209,"310":2.9746851921081543,"311":7.302689552307129,"312":2.9265658855438232,"313":1.8332387208938599,"314":6.441013813018799,"315":0.5388341546058655,"316":-1.5700116157531738,"317":-2.0283470153808594,"318":-1.0697909593582153,"319":-1.1895713806152344,"320":2.006552219390869,"321":10.036921501159668,"322":11.401390075683594,"323":9.327570915222168,"324":9.239471435546875,"325":8.327800750732422,"326":1.7767270803451538,"327":1.753297209739685,"328":9.557124137878418,"329":6.965404033660889,"330":3.5200986862182617,"331":3.3846962451934814,"332":4.6328229904174805,"333":3.6082165241241455,"334":5.075460433959961,"335":-1.3377163410186768,"336":-2.0788214206695557,"337":0.6529118418693542,"338":-4.142199516296387,"339":1.4591542482376099,"340":3.1717190742492676,"341":10.481606483459473,"342":13.28722858428955,"343":0.2397475391626358,"344":-0.9010689854621887,"345":7.671124458312988,"346":5.813904762268066,"347":7.524521350860596,"348":2.7804477214813232,"349":5.664919853210449,"350":0.4676707983016968,"351":0.0680898055434227,"352":0.15382994711399078,"353":1.1661961078643799,"354":0.9256248474121094,"355":3.500559091567993,"356":0.6703295707702637,"357":-0.7338523268699646,"358":2.0669283866882324,"359":6.2018022537231445,"360":0.44321689009666443,"361":5.681973457336426,"362":-1.7304610013961792,"363":-3.982564926147461,"364":-3.0505199432373047,"365":0.14213202893733978,"366":-2.375321388244629,"367":0.568956732749939,"368":-1.2336483001708984,"369":0.9520211219787598,"370":3.8411500453948975,"371":-0.5448451638221741,"372":1.6437722444534302,"373":0.4441942870616913,"374":-2.6900792121887207,"375":0.6696112751960754,"376":-1.699033498764038,"377":4.2399420738220215,"378":-1.8637160062789917,"379":2.6379904747009277,"380":4.5634284019470215,"381":7.805217742919922,"382":-2.73638916015625,"383":-8.124210357666016,"384":-0.5025387406349182,"385":2.333930015563965,"386":3.392720937728882,"387":-1.5605028867721558,"388":-0.9397211670875549,"389":-8.466317176818848,"390":-4.374126434326172,"391":2.0688767433166504,"392":3.276614189147949,"393":0.1403999924659729,"394":-11.290305137634277,"395":-1.3380995988845825,"396":3.350343942642212,"397":-1.4340574741363525,"398":6.203843593597412,"399":7.499671936035156}},"5":{"bias":-5.152287483215332,"weights":{"0":-0.6654924154281616,"1":-1.5502002239227295,"2":-0.3357636034488678,"3":1.5532904863357544,"4":-2.731440305709839,"5":9.175079345703125,"6":-0.1694037914276123,"7":-0.9986222386360168,"8":-5.903098106384277,"9":-3.3988192081451416,"10":2.481041193008423,"11":7.052559852600098,"12":5.328046798706055,"13":-8.057918548583984,"14":-4.0335564613342285,"15":-10.688055992126465,"16":-5.984410285949707,"17":-4.540014743804932,"18":2.504385471343994,"19":0.5504792332649231,"20":-2.9750277996063232,"21":-2.769559383392334,"22":-5.679873466491699,"23":1.3511528968811035,"24":4.391232013702393,"25":3.195618152618408,"26":5.754900932312012,"27":-4.747595310211182,"28":-7.472299575805664,"29":-2.0229990482330322,"30":-1.5725754499435425,"31":7.307750225067139,"32":5.336726188659668,"33":-3.480341672897339,"34":-5.608362197875977,"35":-5.6844048500061035,"36":-3.2902894020080566,"37":3.572798728942871,"38":1.8170549869537354,"39":3.043639898300171,"40":-7.312972068786621,"41":-7.917786598205566,"42":-4.198799133300781,"43":-2.7627806663513184,"44":-1.0149143934249878,"45":2.29254412651062,"46":-3.8866536617279053,"47":-6.782371997833252,"48":-6.967850685119629,"49":-7.299910068511963,"50":-3.046764373779297,"51":-5.545089244842529,"52":-8.014996528625488,"53":4.564148426055908,"54":3.848628282546997,"55":-4.338977813720703,"56":-2.569249391555786,"57":-8.68109130859375,"58":-1.1104520559310913,"59":6.657172679901123,"60":-0.6716224551200867,"61":1.2172904014587402,"62":-8.649544715881348,"63":-0.17704486846923828,"64":-11.840620994567871,"65":5.037177562713623,"66":4.713460445404053,"67":-3.308062791824341,"68":-3.461278200149536,"69":-7.605073928833008,"70":-11.285562515258789,"71":-9.742619514465332,"72":2.3123209476470947,"73":-8.102461814880371,"74":-5.203264236450195,"75":3.5056004524230957,"76":-4.398499488830566,"77":0.5255697965621948,"78":-0.19682858884334564,"79":2.124338388442993,"80":-1.931846022605896,"81":0.1370840072631836,"82":8.015185356140137,"83":-9.895126342773438,"84":0.41943785548210144,"85":0.42500072717666626,"86":-8.618765830993652,"87":2.232668876647949,"88":-5.591996192932129,"89":1.079513430595398,"90":-8.22499942779541,"91":5.244573593139648,"92":1.0567055940628052,"93":-6.677524089813232,"94":-3.208768844604492,"95":0.988646388053894,"96":-2.520390272140503,"97":-2.0410330295562744,"98":3.408538579940796,"99":1.7587343454360962,"100":6.8197479248046875,"101":-4.674144268035889,"102":0.9127293825149536,"103":-10.141743659973145,"104":-6.4195876121521,"105":7.839924335479736,"106":0.9701232314109802,"107":1.7296749353408813,"108":-6.710895538330078,"109":-4.633358001708984,"110":1.0570862293243408,"111":-4.178555011749268,"112":-3.9095587730407715,"113":-7.2167067527771,"114":-7.633591175079346,"115":-0.7308319211006165,"116":-2.0921828746795654,"117":-3.489278554916382,"118":4.751306533813477,"119":6.8276166915893555,"120":0.9449581503868103,"121":7.558541774749756,"122":4.670228481292725,"123":-2.9094009399414062,"124":1.064384937286377,"125":-2.3833582401275635,"126":7.214537620544434,"127":-1.3836828470230103,"128":-9.811589241027832,"129":4.2483601570129395,"130":-1.8388186693191528,"131":8.235952377319336,"132":3.198932409286499,"133":-3.3189690113067627,"134":-9.376693725585938,"135":-5.301051139831543,"136":-4.7365570068359375,"137":-5.915930271148682,"138":10.373262405395508,"139":11.269076347351074,"140":4.353640556335449,"141":10.051955223083496,"142":5.655921936035156,"143":2.1506593227386475,"144":-2.5093579292297363,"145":2.408219575881958,"146":6.362086772918701,"147":7.731454372406006,"148":0.9124988317489624,"149":-10.061253547668457,"150":6.857792377471924,"151":6.97772741317749,"152":5.943075180053711,"153":3.0972230434417725,"154":-3.937861442565918,"155":-5.287464618682861,"156":2.6684131622314453,"157":6.485642433166504,"158":13.188334465026855,"159":10.002195358276367,"160":1.1492671966552734,"161":1.6545906066894531,"162":-0.6792557239532471,"163":2.508244752883911,"164":1.574054479598999,"165":3.7860915660858154,"166":11.266819953918457,"167":7.36415958404541,"168":-1.4482773542404175,"169":9.989092826843262,"170":7.827780723571777,"171":9.268050193786621,"172":0.1969486027956009,"173":6.101626873016357,"174":0.4851989150047302,"175":-0.3828851282596588,"176":6.859708309173584,"177":5.376611709594727,"178":7.742071151733398,"179":9.841421127319336,"180":8.495732307434082,"181":1.7666642665863037,"182":1.1069689989089966,"183":7.404585838317871,"184":-7.621428489685059,"185":9.468234062194824,"186":4.159280776977539,"187":7.442679405212402,"188":-0.9973635077476501,"189":-2.3582475185394287,"190":2.7160630226135254,"191":11.236763000488281,"192":1.8174924850463867,"193":4.56559944152832,"194":-2.384521245956421,"195":1.9425253868103027,"196":6.473583221435547,"197":4.837418079376221,"198":4.215824604034424,"199":-5.678569793701172,"200":10.495092391967773,"201":-0.6721105575561523,"202":4.49685525894165,"203":-0.8473944067955017,"204":-3.315774917602539,"205":2.9860713481903076,"206":5.437282562255859,"207":-1.3556195497512817,"208":-2.349804401397705,"209":-3.647919178009033,"210":2.9469501972198486,"211":4.9618821144104,"212":3.235302686691284,"213":-0.37933942675590515,"214":-0.5057938098907471,"215":4.544317722320557,"216":-1.395253300666809,"217":0.5452997088432312,"218":2.2697036266326904,"219":-7.325991630554199,"220":4.869449138641357,"221":-4.876387596130371,"222":-2.2000553607940674,"223":-3.506805419921875,"224":1.647870659828186,"225":-3.57690167427063,"226":3.210986852645874,"227":-7.640044689178467,"228":-6.1508355140686035,"229":-6.793001174926758,"230":-5.31569242477417,"231":2.882479667663574,"232":0.5115979313850403,"233":-2.9091122150421143,"234":6.9427714347839355,"235":4.26939058303833,"236":11.526378631591797,"237":9.484910011291504,"238":0.43600961565971375,"239":1.9277806282043457,"240":6.80108118057251,"241":0.5870497226715088,"242":-5.532471656799316,"243":-4.928483009338379,"244":-5.814483642578125,"245":-0.9501135349273682,"246":-0.5912666320800781,"247":-4.579874515533447,"248":0.6300438046455383,"249":-9.45750617980957,"250":3.2837917804718018,"251":1.9568780660629272,"252":3.7302534580230713,"253":-5.497697830200195,"254":-3.1318578720092773,"255":7.117583274841309,"256":-0.8656789064407349,"257":2.8931822776794434,"258":9.538969993591309,"259":4.136597633361816,"260":-1.8264007568359375,"261":-5.154813289642334,"262":-5.675887584686279,"263":-4.603555202484131,"264":-5.997447967529297,"265":8.407134056091309,"266":4.195982456207275,"267":-5.882931709289551,"268":-3.599926710128784,"269":-4.756563186645508,"270":-12.301351547241211,"271":2.4137938022613525,"272":-0.4452725946903229,"273":-5.526024341583252,"274":-0.36917272210121155,"275":7.603443622589111,"276":2.604729175567627,"277":3.035353422164917,"278":1.0128062963485718,"279":-4.612952709197998,"280":1.59415864944458,"281":-3.029411554336548,"282":-7.758201599121094,"283":-11.387173652648926,"284":-2.0040600299835205,"285":-0.16513435542583466,"286":-6.303013324737549,"287":7.246373176574707,"288":-5.019306182861328,"289":-6.67239236831665,"290":-5.5933380126953125,"291":-3.384352207183838,"292":-4.105755805969238,"293":-5.336243629455566,"294":-4.513058662414551,"295":1.9206864833831787,"296":1.2606815099716187,"297":-4.586982250213623,"298":-6.861877918243408,"299":2.3434431552886963,"300":-3.5372369289398193,"301":-3.6512515544891357,"302":-2.7383267879486084,"303":-9.822336196899414,"304":-1.1551347970962524,"305":-5.786635398864746,"306":-2.800549268722534,"307":2.9141597747802734,"308":-1.0516935586929321,"309":-4.120544910430908,"310":-8.645352363586426,"311":0.15965217351913452,"312":-8.417717933654785,"313":-12.884615898132324,"314":11.884443283081055,"315":-4.08455753326416,"316":-9.022797584533691,"317":2.67883038520813,"318":-14.405350685119629,"319":-2.6693477630615234,"320":-15.290045738220215,"321":-3.5354156494140625,"322":-2.678900957107544,"323":-9.85379409790039,"324":4.219784259796143,"325":-0.1445457488298416,"326":0.29512834548950195,"327":4.722349166870117,"328":-5.121464729309082,"329":-2.509899616241455,"330":-10.332615852355957,"331":2.050095319747925,"332":-12.599584579467773,"333":-0.0279274620115757,"334":12.391074180603027,"335":-0.7029606103897095,"336":3.5924718379974365,"337":2.391493797302246,"338":-2.661698818206787,"339":8.429581642150879,"340":-4.645806789398193,"341":-9.528579711914062,"342":2.971240758895874,"343":-7.766862392425537,"344":-7.265283107757568,"345":-1.3098258972167969,"346":1.7658475637435913,"347":-1.9351681470870972,"348":-2.0303595066070557,"349":-0.6069980263710022,"350":-5.213034152984619,"351":-4.060429096221924,"352":-22.293487548828125,"353":0.5794859528541565,"354":-2.026970624923706,"355":2.279634475708008,"356":-0.5782696604728699,"357":4.680791854858398,"358":0.4053567051887512,"359":-1.454345464706421,"360":-1.327726125717163,"361":-0.9958968758583069,"362":-7.4936604499816895,"363":-0.775969386100769,"364":-5.180072784423828,"365":-5.818889617919922,"366":-1.1509567499160767,"367":3.6651430130004883,"368":-5.173853397369385,"369":-1.9922831058502197,"370":-1.3556915521621704,"371":-4.497917652130127,"372":-16.703554153442383,"373":-2.473026990890503,"374":0.9022528529167175,"375":-7.881801128387451,"376":0.21101661026477814,"377":-0.8639110326766968,"378":0.31745725870132446,"379":5.127442359924316,"380":-0.7694578766822815,"381":-3.0604088306427,"382":-3.155729293823242,"383":-1.9432318210601807,"384":4.46432638168335,"385":-0.687598705291748,"386":-0.7748782634735107,"387":1.6374067068099976,"388":2.8044419288635254,"389":2.9228391647338867,"390":-11.13328742980957,"391":-13.430895805358887,"392":-6.777557373046875,"393":6.152723789215088,"394":-2.709233045578003,"395":-2.1444993019104004,"396":7.378428936004639,"397":-1.5958462953567505,"398":2.827765941619873,"399":5.599934101104736}},"6":{"bias":-21.275606155395508,"weights":{"0":-2.8956546783447266,"1":-0.4786396920681,"2":-6.65432071685791,"3":1.6513093709945679,"4":-0.23402659595012665,"5":4.312119483947754,"6":3.833484411239624,"7":-2.354799270629883,"8":-2.857856035232544,"9":-2.349806070327759,"10":6.66204309463501,"11":-1.8177452087402344,"12":-6.379391193389893,"13":0.0051114060916006565,"14":6.4229536056518555,"15":5.506148338317871,"16":4.271204471588135,"17":-2.8822951316833496,"18":3.7695131301879883,"19":1.1755321025848389,"20":-1.3795722723007202,"21":-0.04885336011648178,"22":-1.165653109550476,"23":-7.182262897491455,"24":4.532093524932861,"25":6.522090911865234,"26":-3.850860595703125,"27":-2.156012535095215,"28":-7.782444953918457,"29":-5.693016529083252,"30":2.2573702335357666,"31":-12.231223106384277,"32":-9.97237777709961,"33":-0.2941189408302307,"34":-1.9673148393630981,"35":-3.7561750411987305,"36":-3.6417646408081055,"37":0.08317843079566956,"38":0.8348211646080017,"39":-0.44908297061920166,"40":6.431465148925781,"41":3.8878753185272217,"42":-2.298119306564331,"43":2.9695560932159424,"44":-3.7065088748931885,"45":3.6543524265289307,"46":1.0413964986801147,"47":-1.262400507926941,"48":2.0317208766937256,"49":-0.49490994215011597,"50":4.824780464172363,"51":-10.422102928161621,"52":-4.740938663482666,"53":-0.43383148312568665,"54":5.298738956451416,"55":-1.6073484420776367,"56":-8.500517845153809,"57":-5.316720962524414,"58":4.6719818115234375,"59":-0.5191440582275391,"60":-2.104482412338257,"61":-0.03971733897924423,"62":1.8449259996414185,"63":7.265524864196777,"64":-5.553340435028076,"65":3.4856255054473877,"66":0.2375367432832718,"67":-2.2716734409332275,"68":1.6538926362991333,"69":-3.096142292022705,"70":-1.3178303241729736,"71":-6.4211859703063965,"72":-11.972954750061035,"73":-1.5181180238723755,"74":4.0342817306518555,"75":2.0739054679870605,"76":-5.239339351654053,"77":-0.7445940971374512,"78":3.487577199935913,"79":2.664151191711426,"80":4.338287353515625,"81":5.458259105682373,"82":4.82169246673584,"83":9.199374198913574,"84":3.538470983505249,"85":-2.788515090942383,"86":-3.172520399093628,"87":-0.265999436378479,"88":0.39820730686187744,"89":4.778112411499023,"90":6.797020435333252,"91":-7.061859607696533,"92":-7.480452537536621,"93":0.34425482153892517,"94":2.6837728023529053,"95":-2.160569190979004,"96":-3.41072154045105,"97":1.554292917251587,"98":5.05122709274292,"99":-1.489400863647461,"100":1.804455280303955,"101":2.637937307357788,"102":0.04088637977838516,"103":3.9750711917877197,"104":5.098129749298096,"105":0.8151530623435974,"106":0.6510869264602661,"107":2.4233007431030273,"108":5.298646926879883,"109":-1.2425824403762817,"110":6.069949150085449,"111":-15.283526420593262,"112":-0.6075742244720459,"113":-1.6153502464294434,"114":5.240975379943848,"115":-3.390247106552124,"116":-1.7588762044906616,"117":2.798832416534424,"118":2.4115304946899414,"119":-0.2828688621520996,"120":-2.9377522468566895,"121":-4.094371795654297,"122":4.052698135375977,"123":1.7295544147491455,"124":5.938787937164307,"125":1.872867465019226,"126":-0.8353281021118164,"127":0.964848518371582,"128":2.397515296936035,"129":7.666201114654541,"130":7.09946346282959,"131":-8.057415008544922,"132":-5.252264976501465,"133":-9.161722183227539,"134":-1.7986928224563599,"135":-7.755220413208008,"136":3.2442963123321533,"137":3.787055730819702,"138":-0.5465645790100098,"139":-1.2688000202178955,"140":-3.847451686859131,"141":0.967352032661438,"142":0.9432657361030579,"143":2.0512259006500244,"144":2.417783260345459,"145":5.719300746917725,"146":-2.0382046699523926,"147":4.2979631423950195,"148":0.3321448564529419,"149":-1.1517575979232788,"150":5.557045936584473,"151":-5.379387378692627,"152":-3.1890833377838135,"153":-6.803967475891113,"154":-4.04839563369751,"155":-2.0266730785369873,"156":0.8067664504051208,"157":-2.2077932357788086,"158":2.1314480304718018,"159":4.611724853515625,"160":-5.701578617095947,"161":-0.1634872406721115,"162":-3.1044578552246094,"163":5.223311424255371,"164":3.8240838050842285,"165":3.6151881217956543,"166":4.3569159507751465,"167":3.5481314659118652,"168":7.716797828674316,"169":-4.118380546569824,"170":-8.893045425415039,"171":-0.0399889200925827,"172":-0.6986148357391357,"173":3.634469509124756,"174":4.930408000946045,"175":-0.9558522701263428,"176":-6.1622700691223145,"177":4.023160934448242,"178":4.722456932067871,"179":7.117398738861084,"180":2.7262938022613525,"181":1.2842450141906738,"182":-6.99392557144165,"183":-1.6113975048065186,"184":2.9141578674316406,"185":9.88522720336914,"186":-0.004342992790043354,"187":-1.5448696613311768,"188":-3.1554853916168213,"189":9.053495407104492,"190":-3.6295459270477295,"191":0.03372020274400711,"192":-0.8915480971336365,"193":3.7783610820770264,"194":3.6285793781280518,"195":3.4415907859802246,"196":1.6874709129333496,"197":-0.977668821811676,"198":0.29637661576271057,"199":-0.9731200337409973,"200":-5.690394878387451,"201":-5.220438003540039,"202":-5.146447658538818,"203":-2.471447229385376,"204":3.6481685638427734,"205":7.895757675170898,"206":4.030487060546875,"207":0.7352398633956909,"208":4.23922061920166,"209":-3.4791319370269775,"210":1.672459602355957,"211":-8.09041976928711,"212":-9.40690803527832,"213":-8.059500694274902,"214":-6.641483306884766,"215":1.400851845741272,"216":4.584561824798584,"217":1.9060025215148926,"218":5.265559196472168,"219":2.4329161643981934,"220":-5.867854595184326,"221":-3.177522897720337,"222":-4.936750888824463,"223":0.22167527675628662,"224":1.534367561340332,"225":2.839169502258301,"226":1.2291910648345947,"227":3.2437760829925537,"228":-0.9089930653572083,"229":1.9998942613601685,"230":-3.098609447479248,"231":-7.622770309448242,"232":-5.103512763977051,"233":-9.75827693939209,"234":3.004801034927368,"235":4.493635177612305,"236":3.5001776218414307,"237":2.8287861347198486,"238":3.360985517501831,"239":-1.8040010929107666,"240":-5.112236022949219,"241":1.706146478652954,"242":-3.4505503177642822,"243":-1.7059136629104614,"244":3.374722480773926,"245":4.838024616241455,"246":-1.743285894393921,"247":0.25488558411598206,"248":-2.869197368621826,"249":-3.4064652919769287,"250":-8.661174774169922,"251":-8.106864929199219,"252":-2.8079166412353516,"253":0.23263147473335266,"254":-2.492694854736328,"255":-0.07774536311626434,"256":3.3403146266937256,"257":4.858875274658203,"258":5.679480075836182,"259":1.2023532390594482,"260":8.614590644836426,"261":-5.4926371574401855,"262":-0.9333230257034302,"263":-1.5064483880996704,"264":1.7319276332855225,"265":2.325275182723999,"266":1.8788338899612427,"267":0.2808513939380646,"268":-1.8416725397109985,"269":-2.374634265899658,"270":-10.091410636901855,"271":-3.5588889122009277,"272":-2.8599226474761963,"273":1.3827650547027588,"274":6.243073463439941,"275":3.5512821674346924,"276":7.031355857849121,"277":3.5085620880126953,"278":3.140296220779419,"279":-0.6290786862373352,"280":-6.834081649780273,"281":-0.9315192103385925,"282":-0.25771260261535645,"283":2.9407050609588623,"284":1.2766708135604858,"285":-1.4989190101623535,"286":-0.27887454628944397,"287":-4.249598026275635,"288":0.3903452455997467,"289":-2.054882049560547,"290":1.1985582113265991,"291":-5.817291736602783,"292":-0.10194651037454605,"293":0.9309349060058594,"294":2.0053937435150146,"295":-0.12497222423553467,"296":6.3597941398620605,"297":2.1375792026519775,"298":3.4306507110595703,"299":-1.1539043188095093,"300":-1.9326934814453125,"301":-0.8224661350250244,"302":3.134553909301758,"303":-2.6319122314453125,"304":3.8051764965057373,"305":-0.15842212736606598,"306":-5.069186687469482,"307":-1.0069777965545654,"308":-7.332060813903809,"309":-3.7667598724365234,"310":-1.21262526512146,"311":-5.231924057006836,"312":-6.658876895904541,"313":-0.5232588648796082,"314":3.5219271183013916,"315":-2.4687914848327637,"316":3.2673051357269287,"317":8.693769454956055,"318":0.12624989449977875,"319":-2.4251396656036377,"320":2.5103914737701416,"321":6.356673717498779,"322":1.4963884353637695,"323":3.563426971435547,"324":3.6685330867767334,"325":2.491187572479248,"326":-0.6307125687599182,"327":-3.619835138320923,"328":-3.7838170528411865,"329":2.0826382637023926,"330":-3.373800754547119,"331":-11.363128662109375,"332":-5.00855827331543,"333":-0.8952253460884094,"334":0.002604975365102291,"335":3.0206077098846436,"336":1.2771004438400269,"337":3.757143020629883,"338":-1.6162593364715576,"339":-1.0990424156188965,"340":2.5755860805511475,"341":-1.4995721578598022,"342":3.0589191913604736,"343":7.874131679534912,"344":0.5189293622970581,"345":2.7597553730010986,"346":2.75067400932312,"347":4.633401870727539,"348":-2.3760976791381836,"349":-8.877548217773438,"350":-5.5609540939331055,"351":-5.287881374359131,"352":-4.271621227264404,"353":-6.973321437835693,"354":-1.4853593111038208,"355":6.444756984710693,"356":6.64267110824585,"357":-3.533520460128784,"358":-0.05384135991334915,"359":3.725050449371338,"360":3.876190662384033,"361":6.0338640213012695,"362":-1.162671685218811,"363":2.9136760234832764,"364":1.7953323125839233,"365":2.879521369934082,"366":4.155272006988525,"367":0.9507014751434326,"368":-1.951178789138794,"369":-9.879656791687012,"370":-12.658063888549805,"371":-6.446476936340332,"372":-1.1419272422790527,"373":-2.53299880027771,"374":-0.9097435474395752,"375":6.434321880340576,"376":-1.1288750171661377,"377":-2.6913506984710693,"378":0.0038083118852227926,"379":-1.8994629383087158,"380":-4.84107780456543,"381":-2.514488935470581,"382":0.4293247163295746,"383":4.877507209777832,"384":8.769577980041504,"385":2.8144969940185547,"386":-0.46429333090782166,"387":7.740914344787598,"388":-8.748597145080566,"389":-12.704029083251953,"390":-4.832460403442383,"391":-5.217449188232422,"392":0.9850291013717651,"393":10.613405227661133,"394":4.271755218505859,"395":1.560974359512329,"396":0.7023908495903015,"397":-1.8886979818344116,"398":-3.741068124771118,"399":-3.5182430744171143}},"7":{"bias":8.983850479125977,"weights":{"0":6.320392608642578,"1":0.1510634422302246,"2":4.4900431632995605,"3":3.3259668350219727,"4":3.9868555068969727,"5":5.149758815765381,"6":3.2840847969055176,"7":5.957892417907715,"8":3.071418046951294,"9":4.523924350738525,"10":-2.4912378787994385,"11":2.893599510192871,"12":2.453110933303833,"13":2.0041840076446533,"14":-0.25653108954429626,"15":-3.392596960067749,"16":-8.851896286010742,"17":3.738776922225952,"18":8.56641674041748,"19":4.003709316253662,"20":5.3660197257995605,"21":4.756859302520752,"22":12.71325397491455,"23":15.682671546936035,"24":4.375299453735352,"25":5.344040870666504,"26":2.3955867290496826,"27":4.084125518798828,"28":4.397098064422607,"29":3.74238920211792,"30":3.4153647422790527,"31":0.1875089854001999,"32":-3.396996021270752,"33":1.8380311727523804,"34":0.7434136867523193,"35":-0.6272286176681519,"36":-3.0270602703094482,"37":3.809800148010254,"38":3.757815361022949,"39":-3.1318724155426025,"40":1.2886366844177246,"41":-13.939051628112793,"42":-7.762341022491455,"43":-7.778171062469482,"44":-7.604061603546143,"45":3.146528720855713,"46":4.619777679443359,"47":6.056216716766357,"48":5.826780796051025,"49":8.407733917236328,"50":2.5413942337036133,"51":4.144660949707031,"52":3.4232583045959473,"53":0.16013194620609283,"54":2.4857349395751953,"55":0.5735408067703247,"56":-0.33379480242729187,"57":2.6380503177642822,"58":-3.428156852722168,"59":0.17920538783073425,"60":-10.359848976135254,"61":-15.62249755859375,"62":-9.267009735107422,"63":-18.31441307067871,"64":-15.252351760864258,"65":-15.352559089660645,"66":-14.753582000732422,"67":-9.541219711303711,"68":-13.227326393127441,"69":-1.7048643827438354,"70":0.8360170125961304,"71":-0.547153890132904,"72":0.48432090878486633,"73":1.0676616430282593,"74":3.485690116882324,"75":-3.409945487976074,"76":7.026149272918701,"77":-1.8207181692123413,"78":8.541990280151367,"79":0.9254983067512512,"80":-12.490401268005371,"81":-14.291738510131836,"82":-7.3364973068237305,"83":-5.639701843261719,"84":-10.785107612609863,"85":-7.4141411781311035,"86":-16.886615753173828,"87":-10.302478790283203,"88":-13.365880966186523,"89":-15.441853523254395,"90":-11.24512767791748,"91":-6.637850284576416,"92":-4.446691989898682,"93":-6.453821182250977,"94":-4.529345512390137,"95":-3.3499324321746826,"96":-0.659652829170227,"97":0.06169353052973747,"98":-2.6694107055664062,"99":-9.708338737487793,"100":1.9787826538085938,"101":9.390398025512695,"102":10.83250617980957,"103":7.574098110198975,"104":1.6059300899505615,"105":-0.7298684120178223,"106":-6.474536418914795,"107":-2.8058583736419678,"108":-6.50634765625,"109":-3.849092960357666,"110":-2.343794345855713,"111":-12.994011878967285,"112":-10.070958137512207,"113":-12.300485610961914,"114":-9.466608047485352,"115":-7.284231185913086,"116":-4.322685718536377,"117":-9.748153686523438,"118":-2.6194052696228027,"119":-2.8981659412384033,"120":3.5518367290496826,"121":7.722042083740234,"122":-2.7067019939422607,"123":-0.7703843116760254,"124":4.565585613250732,"125":5.121716499328613,"126":-0.9221253991127014,"127":-1.8989368677139282,"128":-0.5051572322845459,"129":0.569853663444519,"130":3.9900968074798584,"131":2.7897050380706787,"132":1.2647571563720703,"133":3.755356788635254,"134":2.1283464431762695,"135":0.3129502534866333,"136":-7.212306499481201,"137":1.2594677209854126,"138":6.961157321929932,"139":10.477644920349121,"140":0.7624160647392273,"141":-1.7934541702270508,"142":-3.5435631275177,"143":-2.0860133171081543,"144":0.9088895916938782,"145":1.8677752017974854,"146":-0.5256966352462769,"147":-0.3848474323749542,"148":-0.6929181814193726,"149":0.05162367597222328,"150":1.009936809539795,"151":6.173338890075684,"152":5.351796627044678,"153":2.5192489624023438,"154":-1.8580904006958008,"155":-1.752578854560852,"156":1.2741912603378296,"157":0.22107136249542236,"158":11.598074913024902,"159":1.3069242238998413,"160":0.4631141424179077,"161":-1.4272863864898682,"162":-3.748274803161621,"163":-4.72330379486084,"164":0.10156383365392685,"165":-2.7284576892852783,"166":3.274583101272583,"167":2.691539764404297,"168":-1.7131929397583008,"169":3.0015463829040527,"170":2.106248617172241,"171":1.3607083559036255,"172":-0.10501029342412949,"173":1.4918720722198486,"174":0.23228085041046143,"175":2.3728866577148438,"176":0.6024418473243713,"177":3.5029149055480957,"178":1.4279818534851074,"179":5.438765048980713,"180":2.1414318084716797,"181":-0.1636434644460678,"182":1.468611478805542,"183":-1.2310032844543457,"184":-6.33635950088501,"185":-5.619873523712158,"186":-9.11153507232666,"187":-1.7762041091918945,"188":-5.925997734069824,"189":-5.745413780212402,"190":-5.812511444091797,"191":-1.758951187133789,"192":0.7439505457878113,"193":0.4870692789554596,"194":-0.8648856282234192,"195":0.8158368468284607,"196":3.553135633468628,"197":2.025400400161743,"198":4.166388034820557,"199":2.923215866088867,"200":-7.611900329589844,"201":5.081321716308594,"202":0.10927446186542511,"203":3.0158839225769043,"204":-3.6792235374450684,"205":-5.29671573638916,"206":-3.627056837081909,"207":-7.9685959815979,"208":-8.012646675109863,"209":-7.279587745666504,"210":-11.264450073242188,"211":-8.85927677154541,"212":-7.8076171875,"213":-2.099024534225464,"214":-0.13794924318790436,"215":-2.2921576499938965,"216":-8.253357887268066,"217":0.03222949430346489,"218":1.8555728197097778,"219":-5.224202632904053,"220":-2.5418701171875,"221":-6.047640323638916,"222":-1.1456260681152344,"223":2.588308811187744,"224":1.8760045766830444,"225":3.515289068222046,"226":-1.1122487783432007,"227":1.863899827003479,"228":-0.2774204909801483,"229":3.1873843669891357,"230":-1.7064852714538574,"231":-3.915008783340454,"232":-3.0662975311279297,"233":-2.9866886138916016,"234":-5.644571304321289,"235":-8.019527435302734,"236":-2.976147413253784,"237":-4.505305290222168,"238":-4.501921653747559,"239":1.288502812385559,"240":-5.104330062866211,"241":-4.648606777191162,"242":0.7552551627159119,"243":2.9189400672912598,"244":0.01346074603497982,"245":3.9359664916992188,"246":2.471447467803955,"247":-0.6802575588226318,"248":5.450399398803711,"249":0.660728931427002,"250":0.12103265523910522,"251":0.9889551997184753,"252":-0.9873799681663513,"253":1.154218316078186,"254":-0.3275258243083954,"255":-0.021118883043527603,"256":0.695869505405426,"257":-2.2230255603790283,"258":4.590860843658447,"259":0.06936007738113403,"260":-5.513038158416748,"261":-4.804535388946533,"262":-6.654045104980469,"263":-3.509834051132202,"264":0.9104000329971313,"265":-1.8841710090637207,"266":4.174957275390625,"267":4.805483818054199,"268":2.31191349029541,"269":3.9654042720794678,"270":5.070554733276367,"271":-0.32606998085975647,"272":1.0885974168777466,"273":1.3741731643676758,"274":3.814749002456665,"275":-1.4988571405410767,"276":1.4230647087097168,"277":-2.5441455841064453,"278":-0.6862579584121704,"279":1.9338313341140747,"280":-2.3456811904907227,"281":-8.899798393249512,"282":-9.337769508361816,"283":-11.427533149719238,"284":0.6562265157699585,"285":-5.191383361816406,"286":-2.597365140914917,"287":-1.7802329063415527,"288":0.7715703845024109,"289":-2.693408489227295,"290":-0.7964358925819397,"291":-0.24772192537784576,"292":0.6879174709320068,"293":-3.5298547744750977,"294":2.112501859664917,"295":-2.201869010925293,"296":-0.8811361789703369,"297":0.4608170688152313,"298":3.8827826976776123,"299":3.148890972137451,"300":-5.206363201141357,"301":-3.0462048053741455,"302":-2.90315842628479,"303":-10.734895706176758,"304":-9.439446449279785,"305":-0.4228568375110626,"306":-5.568866729736328,"307":-7.269616603851318,"308":-0.08326496183872223,"309":-2.72678542137146,"310":0.6328461766242981,"311":-2.1110169887542725,"312":-2.212906837463379,"313":-6.575222492218018,"314":3.9577348232269287,"315":-3.925196886062622,"316":0.9184609651565552,"317":-1.0855224132537842,"318":5.371767520904541,"319":-0.6850144863128662,"320":2.1619935035705566,"321":8.793023109436035,"322":9.225908279418945,"323":6.049021244049072,"324":-1.5821971893310547,"325":-8.50461196899414,"326":-5.167575836181641,"327":-1.6460862159729004,"328":-7.799654960632324,"329":-8.660904884338379,"330":-4.191286563873291,"331":-4.189540863037109,"332":-2.0023841857910156,"333":4.656317710876465,"334":-7.352088928222656,"335":-1.3345426321029663,"336":-3.759923219680786,"337":-5.348804473876953,"338":0.07662221044301987,"339":-2.429196834564209,"340":10.46237850189209,"341":4.394897937774658,"342":6.955665111541748,"343":1.1755011081695557,"344":2.334355354309082,"345":2.9015979766845703,"346":-2.5604472160339355,"347":0.10162991285324097,"348":-0.1282205879688263,"349":-0.8483282327651978,"350":-3.883979320526123,"351":-3.1967129707336426,"352":-2.2452147006988525,"353":-2.385251522064209,"354":-2.5563173294067383,"355":1.6220570802688599,"356":1.7510898113250732,"357":3.898930549621582,"358":-2.1465182304382324,"359":-2.0516953468322754,"360":-6.904044151306152,"361":3.1808102130889893,"362":1.3252344131469727,"363":-0.6609236598014832,"364":3.8690967559814453,"365":2.4567174911499023,"366":3.4569289684295654,"367":4.159765720367432,"368":5.226606845855713,"369":2.7732794284820557,"370":-0.005510132759809494,"371":-1.1722716093063354,"372":-0.9567462801933289,"373":-2.830353260040283,"374":-8.783049583435059,"375":1.1165417432785034,"376":-0.8247454762458801,"377":1.2878191471099854,"378":3.0103821754455566,"379":-6.490829944610596,"380":-8.321829795837402,"381":-11.09151840209961,"382":-6.3457112312316895,"383":0.7835567593574524,"384":2.6302731037139893,"385":-0.06479132920503616,"386":0.19487763941287994,"387":1.7615293264389038,"388":-4.529728889465332,"389":1.6396983861923218,"390":1.3817003965377808,"391":2.7248964309692383,"392":-3.523343563079834,"393":3.6827852725982666,"394":-7.217742919921875,"395":-1.9646250009536743,"396":3.5470941066741943,"397":4.6666340827941895,"398":-2.1010055541992188,"399":-1.9479976892471313}},"8":{"bias":13.243058204650879,"weights":{"0":0.6587480306625366,"1":-2.4835572242736816,"2":-4.779752731323242,"3":-7.9997382164001465,"4":-2.175382614135742,"5":-1.2374706268310547,"6":-1.783460021018982,"7":-0.46787524223327637,"8":0.3636298179626465,"9":-0.9499619007110596,"10":-0.03179045394062996,"11":1.2074699401855469,"12":-16.252599716186523,"13":-3.2471632957458496,"14":-0.5515565276145935,"15":-8.438729286193848,"16":-5.281596660614014,"17":1.6612685918807983,"18":-1.6243126392364502,"19":-0.10400029271841049,"20":-0.9298905730247498,"21":-5.442870616912842,"22":-1.9590290784835815,"23":-1.2825757265090942,"24":-1.4056040048599243,"25":-0.014837075024843216,"26":-6.146735668182373,"27":3.7792651653289795,"28":0.8564759492874146,"29":-2.1415138244628906,"30":3.2586822509765625,"31":6.575667858123779,"32":-5.649631500244141,"33":-1.3232194185256958,"34":-5.391265392303467,"35":-2.456526517868042,"36":-3.792273759841919,"37":6.798460960388184,"38":7.337408542633057,"39":-3.5620577335357666,"40":0.33548590540885925,"41":-2.4755845069885254,"42":-0.9859108328819275,"43":-2.7735958099365234,"44":7.701272010803223,"45":6.33889627456665,"46":-0.9934708476066589,"47":-0.22154508531093597,"48":3.0150973796844482,"49":2.3339645862579346,"50":-0.2361678183078766,"51":-4.507660865783691,"52":-6.612644195556641,"53":-4.074026584625244,"54":-4.274149417877197,"55":1.3069244623184204,"56":-0.25358083844184875,"57":-0.49939221143722534,"58":4.838225364685059,"59":2.4492437839508057,"60":-5.383162498474121,"61":-6.131274700164795,"62":-8.946781158447266,"63":-3.989436626434326,"64":-5.5683722496032715,"65":2.9019148349761963,"66":5.00067138671875,"67":-1.18416166305542,"68":5.362415313720703,"69":4.238820552825928,"70":4.409806728363037,"71":-0.646920382976532,"72":-7.117747783660889,"73":-0.8917241096496582,"74":-0.579965353012085,"75":-2.4647204875946045,"76":-0.3490108847618103,"77":11.097420692443848,"78":10.346999168395996,"79":3.5497310161590576,"80":-8.427820205688477,"81":-6.389562129974365,"82":-7.644385814666748,"83":-1.3555516004562378,"84":-0.8288735151290894,"85":5.678788185119629,"86":4.883362293243408,"87":2.095661163330078,"88":-0.6631227731704712,"89":3.7090659141540527,"90":-6.637501239776611,"91":-3.7190680503845215,"92":-8.048004150390625,"93":-6.940069675445557,"94":-1.8733404874801636,"95":-2.785403251647949,"96":5.038447380065918,"97":4.101619243621826,"98":7.96450138092041,"99":6.7418293952941895,"100":-13.802507400512695,"101":-3.8037867546081543,"102":-4.979851245880127,"103":-9.893655776977539,"104":-3.1805784702301025,"105":5.390683650970459,"106":6.412696361541748,"107":-0.2906981110572815,"108":2.72908878326416,"109":4.723906993865967,"110":-3.249493360519409,"111":-3.9116554260253906,"112":-5.959916591644287,"113":-8.219389915466309,"114":-1.0948364734649658,"115":-1.3749098777770996,"116":10.431846618652344,"117":5.552196979522705,"118":20.98125457763672,"119":12.557340621948242,"120":-6.825769424438477,"121":-6.488092422485352,"122":-0.39619770646095276,"123":-0.6018400192260742,"124":0.16612398624420166,"125":2.960740566253662,"126":4.492297172546387,"127":4.153833389282227,"128":0.20548021793365479,"129":-6.240214824676514,"130":-8.360898971557617,"131":-1.8757636547088623,"132":-6.01274299621582,"133":-2.95770263671875,"134":-2.173527717590332,"135":9.620095252990723,"136":-2.3391165733337402,"137":3.0292720794677734,"138":11.72202205657959,"139":7.71080207824707,"140":-0.02728949300944805,"141":1.5479892492294312,"142":1.0926653146743774,"143":-2.9193294048309326,"144":-3.3263862133026123,"145":5.316075325012207,"146":5.026901721954346,"147":5.134711742401123,"148":-1.7948793172836304,"149":-11.278948783874512,"150":1.2869362831115723,"151":-10.490797996520996,"152":-0.5750671029090881,"153":-2.4965977668762207,"154":-0.4001522362232208,"155":3.2051217555999756,"156":1.1692668199539185,"157":1.7175096273422241,"158":-1.1651146411895752,"159":5.455737590789795,"160":6.914477825164795,"161":0.13611917197704315,"162":4.219970226287842,"163":8.542962074279785,"164":9.526877403259277,"165":0.9255332946777344,"166":5.638982772827148,"167":2.0586533546447754,"168":-6.063850402832031,"169":-7.578431129455566,"170":-5.192643642425537,"171":-3.7574357986450195,"172":-4.744822978973389,"173":-0.4461309611797333,"174":1.8627183437347412,"175":4.944985866546631,"176":5.7213616371154785,"177":-1.4727492332458496,"178":-5.537362575531006,"179":-2.4509787559509277,"180":2.066455364227295,"181":4.930054664611816,"182":1.3801031112670898,"183":1.9259881973266602,"184":1.1709824800491333,"185":3.8709795475006104,"186":0.950072169303894,"187":-4.042657375335693,"188":-1.0816681385040283,"189":-7.049609661102295,"190":-11.35720157623291,"191":-7.326920509338379,"192":0.960010290145874,"193":-0.6646725535392761,"194":0.4450603425502777,"195":1.8971983194351196,"196":-2.9096994400024414,"197":-3.4172332286834717,"198":-6.875903606414795,"199":-7.363381862640381,"200":2.240036725997925,"201":-5.681613445281982,"202":0.090614914894104,"203":3.433434009552002,"204":-1.719294548034668,"205":9.998170852661133,"206":-3.49515438079834,"207":-11.008235931396484,"208":-5.96948766708374,"209":-5.8116254806518555,"210":-4.046679496765137,"211":0.36863332986831665,"212":5.038426876068115,"213":4.150664806365967,"214":6.923417091369629,"215":3.598519802093506,"216":0.15951085090637207,"217":5.6392598152160645,"218":-4.389007091522217,"219":-7.768080234527588,"220":8.596753120422363,"221":1.1401315927505493,"222":1.5962649583816528,"223":-1.6589550971984863,"224":5.395726203918457,"225":0.846621572971344,"226":-5.422613143920898,"227":-7.609523773193359,"228":-2.075033664703369,"229":-2.726233720779419,"230":-1.5528630018234253,"231":-1.4352399110794067,"232":-0.24763183295726776,"233":-5.115976810455322,"234":11.300609588623047,"235":3.747835397720337,"236":6.446397304534912,"237":1.731729507446289,"238":-8.247774124145508,"239":-12.253499984741211,"240":2.346559762954712,"241":2.7808215618133545,"242":10.08012866973877,"243":2.119626045227051,"244":0.014440697617828846,"245":-6.9822587966918945,"246":-8.563876152038574,"247":-7.301754474639893,"248":-2.5509235858917236,"249":1.2075927257537842,"250":-0.5032563805580139,"251":1.882467269897461,"252":1.3770612478256226,"253":-2.290611505508423,"254":1.030558466911316,"255":6.514520645141602,"256":4.584028720855713,"257":-3.9118053913116455,"258":-2.3661231994628906,"259":-5.692715167999268,"260":-5.713899612426758,"261":-10.29580307006836,"262":3.5328943729400635,"263":2.259835958480835,"264":-10.609563827514648,"265":-10.446009635925293,"266":-2.0329389572143555,"267":-4.737661838531494,"268":-0.9439782500267029,"269":-5.8201141357421875,"270":5.307031631469727,"271":1.6182141304016113,"272":-2.8734521865844727,"273":-4.466483116149902,"274":-3.5553383827209473,"275":7.266160011291504,"276":-0.811648964881897,"277":-2.021456241607666,"278":0.7702694535255432,"279":-1.2439266443252563,"280":-2.0202174186706543,"281":-0.5057564973831177,"282":1.4149283170700073,"283":-2.340588331222534,"284":-5.826620101928711,"285":-9.071629524230957,"286":-6.9571027755737305,"287":-0.5982880592346191,"288":-4.422175407409668,"289":2.667961359024048,"290":-0.7162310481071472,"291":3.0717825889587402,"292":-2.963578224182129,"293":2.192563056945801,"294":-1.5183664560317993,"295":-4.10246467590332,"296":-1.4855211973190308,"297":6.064410209655762,"298":-8.0299072265625,"299":-1.206457495689392,"300":7.6905694007873535,"301":3.0990898609161377,"302":4.1324310302734375,"303":-2.783243179321289,"304":-5.808596611022949,"305":-6.675999641418457,"306":-5.632313251495361,"307":-0.5683496594429016,"308":-0.4924602806568146,"309":-1.4689934253692627,"310":-4.930419921875,"311":9.54146957397461,"312":0.37965530157089233,"313":4.597893238067627,"314":-6.4148359298706055,"315":-5.168761253356934,"316":-3.0884363651275635,"317":-5.493394374847412,"318":-3.80682110786438,"319":-3.260800361633301,"320":3.8255937099456787,"321":4.539145469665527,"322":4.755033493041992,"323":-7.712217807769775,"324":-14.755364418029785,"325":-0.8338362574577332,"326":6.604333400726318,"327":-4.116456985473633,"328":-1.7170599699020386,"329":4.622401237487793,"330":3.3878073692321777,"331":-3.923056125640869,"332":-4.600710391998291,"333":0.4124130308628082,"334":0.8553189635276794,"335":2.5442593097686768,"336":-0.6837060451507568,"337":-4.202178478240967,"338":0.48131105303764343,"339":-0.916039228439331,"340":2.4108457565307617,"341":8.284934043884277,"342":-12.920854568481445,"343":-12.721221923828125,"344":-12.319741249084473,"345":-5.481746196746826,"346":-5.849286079406738,"347":3.7684085369110107,"348":-3.4933011531829834,"349":4.839227199554443,"350":-1.938787579536438,"351":-3.2086453437805176,"352":-2.076418876647949,"353":2.4220130443573,"354":-2.5271172523498535,"355":0.4028610587120056,"356":-8.296096801757812,"357":2.643467664718628,"358":-5.797494411468506,"359":2.3810102939605713,"360":2.4304773807525635,"361":-2.2050740718841553,"362":-6.996187686920166,"363":3.2260773181915283,"364":-3.9037861824035645,"365":0.08152556419372559,"366":-2.2725744247436523,"367":-5.102465629577637,"368":1.1510834693908691,"369":4.7262067794799805,"370":3.143498420715332,"371":8.68686580657959,"372":-1.1419721841812134,"373":-3.8746540546417236,"374":1.5435935258865356,"375":-8.260741233825684,"376":-4.067379474639893,"377":-2.1460282802581787,"378":-7.056121826171875,"379":2.1020255088806152,"380":4.661978244781494,"381":3.9775798320770264,"382":0.56801438331604,"383":0.17624354362487793,"384":-7.775853157043457,"385":-7.299503326416016,"386":-2.782268524169922,"387":-4.825053691864014,"388":2.789060592651367,"389":7.092781066894531,"390":7.687788009643555,"391":9.607002258300781,"392":-2.0721421241760254,"393":4.6364593505859375,"394":-1.99750816822052,"395":-4.472893714904785,"396":0.34898605942726135,"397":0.7066789269447327,"398":-0.10017526149749756,"399":-1.072614073753357}},"9":{"bias":-18.820415496826172,"weights":{"0":0.09561964124441147,"1":-1.7974283695220947,"2":5.464792251586914,"3":-0.032945334911346436,"4":-5.569029331207275,"5":2.710707187652588,"6":8.427900314331055,"7":-2.0478765964508057,"8":-8.473685264587402,"9":-10.514906883239746,"10":-3.489285945892334,"11":2.274127960205078,"12":1.9588035345077515,"13":2.908797025680542,"14":5.931594371795654,"15":5.789267063140869,"16":4.823312282562256,"17":1.436290979385376,"18":1.4443292617797852,"19":-0.04973696917295456,"20":-1.1687629222869873,"21":-5.447268962860107,"22":-3.45739483833313,"23":-9.411321640014648,"24":-8.227761268615723,"25":-4.947859764099121,"26":-0.9415469765663147,"27":-4.227851867675781,"28":-14.127096176147461,"29":-12.526386260986328,"30":-4.276556015014648,"31":-5.24843168258667,"32":0.1397104561328888,"33":1.0707273483276367,"34":1.9615507125854492,"35":-2.703087091445923,"36":0.06685570627450943,"37":-1.4939361810684204,"38":-2.187849760055542,"39":-0.3393477499485016,"40":-2.481472969055176,"41":-1.0686970949172974,"42":0.4228386878967285,"43":-8.052647590637207,"44":-4.734986305236816,"45":-2.122774362564087,"46":-1.9986976385116577,"47":-7.103431224822998,"48":-6.95387601852417,"49":-12.8834228515625,"50":-21.217403411865234,"51":-4.495710372924805,"52":3.2687325477600098,"53":2.4013943672180176,"54":-3.097151756286621,"55":4.758487224578857,"56":-0.5451163649559021,"57":-2.393362283706665,"58":-5.154556751251221,"59":-1.8059414625167847,"60":-1.9612172842025757,"61":-3.772268533706665,"62":-4.539583206176758,"63":-8.278813362121582,"64":-7.045156955718994,"65":-7.220897197723389,"66":-6.938316345214844,"67":-6.101700782775879,"68":-5.2499494552612305,"69":-12.754859924316406,"70":6.9232892990112305,"71":8.575324058532715,"72":-2.205376625061035,"73":-1.2101422548294067,"74":2.9247312545776367,"75":-4.253241062164307,"76":-5.775702476501465,"77":-5.659660339355469,"78":-2.4035251140594482,"79":-0.877252459526062,"80":1.4929746389389038,"81":3.3102946281433105,"82":-5.958706378936768,"83":-5.082342624664307,"84":-9.321338653564453,"85":-10.547614097595215,"86":-5.3352789878845215,"87":-3.1317803859710693,"88":-11.739492416381836,"89":-3.5327346324920654,"90":-1.1529958248138428,"91":-5.305901527404785,"92":2.51835036277771,"93":4.825832366943359,"94":-6.405872821807861,"95":-7.431151866912842,"96":-7.684316158294678,"97":-5.121212482452393,"98":-3.9985294342041016,"99":-3.271252155303955,"100":-0.5835272669792175,"101":-2.190307378768921,"102":-1.9986765384674072,"103":-3.1766984462738037,"104":0.11096972972154617,"105":-10.770730018615723,"106":-8.87954044342041,"107":-4.504702568054199,"108":-8.223341941833496,"109":1.2636051177978516,"110":0.33838289976119995,"111":-0.585394561290741,"112":0.31025180220603943,"113":3.0168440341949463,"114":-3.089721918106079,"115":-4.134122371673584,"116":-6.77723503112793,"117":-2.5835683345794678,"118":-5.935571193695068,"119":-3.207517623901367,"120":-1.190875768661499,"121":0.619833767414093,"122":1.7188574075698853,"123":-9.611213684082031,"124":-2.836928367614746,"125":-3.202727794647217,"126":-8.051459312438965,"127":-5.692618370056152,"128":-5.950253963470459,"129":-8.11870002746582,"130":-2.98317813873291,"131":-2.162968397140503,"132":0.7591152787208557,"133":-6.602499008178711,"134":-0.2848188281059265,"135":-8.950318336486816,"136":0.691127598285675,"137":-3.0205821990966797,"138":-6.44069242477417,"139":-3.43204927444458,"140":0.477279931306839,"141":0.13786503672599792,"142":2.7212741374969482,"143":-6.620189666748047,"144":-2.3978168964385986,"145":-1.530727744102478,"146":-5.9286274909973145,"147":-5.61069393157959,"148":-0.9201161861419678,"149":-3.7985026836395264,"150":-3.374216079711914,"151":0.7521304488182068,"152":-5.910399913787842,"153":-5.693892002105713,"154":-3.190802812576294,"155":-1.5812547206878662,"156":-1.1770509481430054,"157":-4.007542133331299,"158":-4.270294666290283,"159":-4.846621990203857,"160":2.8954994678497314,"161":-1.069078803062439,"162":6.231409549713135,"163":3.280690908432007,"164":-2.9512932300567627,"165":-1.7466192245483398,"166":4.321763515472412,"167":-6.0247273445129395,"168":1.0712239742279053,"169":-8.327351570129395,"170":-3.548572540283203,"171":-6.374560832977295,"172":-5.574972629547119,"173":-9.140092849731445,"174":-7.881318092346191,"175":0.9420457482337952,"176":-10.541390419006348,"177":-7.545293807983398,"178":-3.3453290462493896,"179":-5.013272285461426,"180":13.862604141235352,"181":6.698603630065918,"182":7.850697040557861,"183":5.566226482391357,"184":2.425600051879883,"185":-2.0246975421905518,"186":-4.955292701721191,"187":3.6994526386260986,"188":-0.4233223795890808,"189":1.5206010341644287,"190":-11.066813468933105,"191":-11.458115577697754,"192":-5.779665470123291,"193":-7.344601631164551,"194":-5.516909122467041,"195":-8.781394958496094,"196":0.5406606793403625,"197":-1.709740400314331,"198":-1.3223968744277954,"199":-4.7733659744262695,"200":4.684879779815674,"201":9.489034652709961,"202":10.017170906066895,"203":6.858774662017822,"204":5.987242221832275,"205":-4.085341930389404,"206":7.228432655334473,"207":2.4336159229278564,"208":2.1219658851623535,"209":0.10929511487483978,"210":11.608158111572266,"211":-1.5255664587020874,"212":-4.44835901260376,"213":-1.6570628881454468,"214":-5.406104564666748,"215":-2.0690269470214844,"216":-5.473088264465332,"217":-10.937270164489746,"218":-2.955707550048828,"219":-3.6384735107421875,"220":5.813950061798096,"221":11.08492660522461,"222":13.072060585021973,"223":11.221396446228027,"224":3.664886951446533,"225":5.363900184631348,"226":-6.337560653686523,"227":3.596987009048462,"228":4.422911643981934,"229":4.692101001739502,"230":2.672302722930908,"231":0.970294177532196,"232":2.0878562927246094,"233":-6.349465370178223,"234":-5.799609184265137,"235":-4.92194938659668,"236":3.5309865474700928,"237":-1.491843342781067,"238":-3.235736608505249,"239":-5.136622428894043,"240":3.8203065395355225,"241":1.04768967628479,"242":0.7434805035591125,"243":11.888486862182617,"244":9.585755348205566,"245":2.81684947013855,"246":8.630339622497559,"247":-0.303510457277298,"248":3.090996503829956,"249":0.6172756552696228,"250":6.472383499145508,"251":4.249645233154297,"252":-1.8170390129089355,"253":3.2876293659210205,"254":4.86619234085083,"255":-5.343868732452393,"256":0.9135609269142151,"257":7.724549770355225,"258":6.430099964141846,"259":-2.9223787784576416,"260":-7.370972633361816,"261":-5.639300346374512,"262":3.701120615005493,"263":3.778867244720459,"264":6.001216888427734,"265":5.593883037567139,"266":1.834021806716919,"267":4.378165245056152,"268":1.1775070428848267,"269":6.403007507324219,"270":4.690841197967529,"271":1.017712950706482,"272":3.7687337398529053,"273":2.4960598945617676,"274":0.6790300011634827,"275":5.092057228088379,"276":4.617371559143066,"277":-0.2313947081565857,